764 100
the -0.3399715 -0.2011333 -0.115146086 -0.11931917 0.6789088 -0.39417467 -0.26064923 0.1386416 -0.11087308 0.038866483 -0.7115157 -0.11419781 -0.38780478 -0.105481625 0.15525222 0.041527838 -0.94048786 0.40911672 0.27805433 0.1772275 -0.2118593 0.0059277336 -0.16398129 0.3708512 -0.16029602 0.15620086 -0.08092918 0.48413673 0.016826719 0.16316147 -0.34600493 0.41285995 0.09443103 -0.031809654 0.13491113 -0.5618027 0.25022644 -0.13668399 0.31641692 -0.31425813 -0.00051773473 -0.35003164 0.15936528 -0.30120882 0.52462107 0.087720215 -0.016889127 -0.81190246 -0.14937913 -0.011968886 -0.25629374 0.11753098 0.16300222 0.23114654 0.04406165 -0.09025407 0.3448205 0.1620604 0.3187185 -0.056148786 0.30130318 -0.2574741 0.2551897 -0.1554961 -0.38588303 -0.21987876 0.24936895 -0.0716076 0.40965018 0.21167728 0.1817365 -0.2809435 0.32116657 0.2577771 -0.13819492 0.55614763 -0.05006487 0.254797 0.2694207 0.12530485 -0.30051744 -0.12070843 0.2486522 0.15031978 0.115335174 0.15761591 -0.07766882 -0.3765562 -0.10842352 -0.12412708 -0.37923452 -0.14004837 0.36740804 0.2808743 -0.46934325 -0.1389071 -0.3346561 0.0110619115 -0.16582772 -0.46644112
she 0.1630844 0.27414942 0.2517438 0.036952317 -0.11557513 0.2557474 -0.11932633 -0.081168756 0.10123167 0.079302564 -0.44149873 -0.100885876 0.25587457 -0.20544116 -0.17109951 0.3215748 -0.34211197 -0.13553534 0.17341468 -0.062146246 0.19341968 0.298734 0.020189594 0.11596598 -0.16836259 0.23630004 0.21507937 0.24030907 -0.10941441 -0.3324616 -0.14072521 -0.20965177 0.18399289 -0.022207111 -0.32406348 0.012634292 -0.3208032 -0.22517103 0.064576924 0.024627026 -0.04116993 -0.14790551 0.1429092 0.0083119115 0.22263953 0.626887 -0.18088533 -0.48901942 -0.20096008 -0.17588681 -0.3369791 -6.9747446e-05 0.24189469 -0.48733822 -0.034800425 -0.26740396 -0.021543067 0.47840765 -0.017041031 0.63249385 -0.0066304146 -0.20339793 -0.20540173 0.2066076 -0.42925128 0.5052788 0.4018094 -0.029642053 -0.3825426 -0.021895938 0.15133943 -0.017173707 0.06410219 0.29837692 0.05079567 -0.09892501 -0.19402084 0.51615393 -0.19871609 0.056270763 -0.3472084 0.08494649 0.035991386 0.22375186 0.12272003 0.18439643 0.025665168 -0.107661895 -0.011927985 -0.105309665 0.037759934 -0.11862821 0.23718335 -0.2725015 -0.018954782 0.15680271 -0.24830873 -0.34973165 -0.08224065 0.09768012
to 0.006669821 -0.045002397 0.3437423 0.056376632 -0.1669551 -0.2912715 -0.15733923 0.17857982 0.29210493 -0.24668837 -0.12189543 -0.12606154 0.13696481 -0.21704645 0.089147925 0.08820775 -0.046956684 -0.44527048 0.54811484 0.2958985 0.17688528 0.42119747 0.028078275 -0.43972465 -0.21807526 0.30664968 -0.36044767 -0.16768675 0.13372816 -0.25676274 -0.44022292 -0.18706661 0.25557977 -0.2519675 -0.22165614 -0.07261692 -0.2543245 -0.049766894 0.041942433 -0.19984221 -0.20206618 -0.21588239 0.24824955 0.13433409 0.20760494 0.3246817 -0.16337825 -0.30582395 -0.14884736 -0.1301177 -0.025662074 -0.019338213 0.050509688 -0.10426508 -0.1830942 -0.45282537 0.043565385 0.5914851 0.09396792 0.4395835 -0.0033022654 -0.14149474 -0.086454265 -0.12605739 -0.09538828 -0.1913929 -0.018053943 -0.16783033 -0.32415468 0.23362541 0.44079712 0.47526187 0.27646673 0.30709887 0.057690084 0.22394724 0.02270594 0.19007601 0.061142515 -0.13841805 -0.069383845 0.22498064 0.23522316 0.15602104 -0.17689884 0.3485214 -0.14280294 -0.3572228 -0.07850869 -0.39327657 0.037486345 -0.014190016 0.24330726 0.016183322 -0.2723657 0.3115771 -0.34738913 -0.098245755 -0.001075221 0.0860389
and 0.23251262 0.018020978 0.20006439 -0.16546151 -0.020859096 -0.18366408 -0.05332737 0.28365293 0.18972448 -0.15761611 -0.07526607 -0.24308752 -0.084859 -0.041916616 0.28373715 0.23468229 -0.20246518 0.15335011 0.0729195 0.01035695 -0.059503395 0.26993793 0.11838424 -0.30081517 -0.112888865 0.20083503 0.0024626453 -0.19595045 0.13400921 0.067130744 -0.08028242 -0.16350576 0.19604953 0.11883004 -0.34417403 -0.0641887 -0.011042902 -0.29188713 -0.23164657 -0.11840738 -0.045238037 0.0037785359 0.10402727 0.08300443 0.11483176 0.11508534 0.28625852 -0.1034712 -0.19155544 -0.07433306 -0.17863572 0.0058714454 0.3166561 0.029850442 -0.080259 -0.04768893 -0.026583025 -0.047013015 -0.3437426 -0.21720192 0.16731973 -0.27817282 0.07423145 -0.20979829 0.051828712 0.046995815 0.030976344 -0.3795778 -0.38605604 -0.016077776 0.1344704 0.21311377 0.065585524 0.25549167 -0.041632038 0.068482876 0.11887368 -0.018727507 0.340491 0.13558283 -0.022336226 -0.12186618 0.1783559 0.11950359 -0.018281236 0.37690046 0.1824434 -0.10696986 -0.049492225 0.14334469 0.14227597 -0.08634889 0.3580313 0.0233831 0.2675315 0.27991503 0.13779965 0.19529405 -0.049908213 -0.2099135
it -0.21393754 0.2736457 0.056404505 0.031049391 -0.14348614 0.08592101 -0.20052199 0.20152622 -0.052002188 0.2950805 -0.40921727 0.06194404 0.1264092 -0.2971857 -0.087093815 0.23260926 -0.2494357 0.019247072 0.072377436 -0.08790129 0.18855219 0.10862732 0.14629354 -0.09081195 -0.08471508 0.34069583 -0.15868638 0.23280126 -0.05768761 -0.010374052 -0.3583883 -0.07624988 0.2341707 -0.05672567 -0.14514269 -0.011786642 -0.29544988 -0.040746324 0.06097898 -0.027251527 -0.16377558 -0.1326468 0.15816495 0.14353722 0.1764134 0.37356094 -0.102545775 -0.2710853 -0.063338235 0.013621484 -0.34332785 -0.09944958 0.32619837 -0.15604362 -0.036700744 -0.20546325 0.0681285 0.29143932 0.08627983 0.29763898 0.11144759 -0.10865527 -0.10811035 -0.15248327 -0.044984728 0.11276897 0.2537976 -0.12029549 -0.2684132 0.2798372 0.16593741 0.012524934 0.16627732 0.11456954 0.016142465 0.11969268 -0.23116545 0.363526 0.12945823 0.13654093 -0.24453475 0.1456468 0.1612381 0.35320008 -0.040814236 0.11666049 -0.13043043 -0.2319549 -0.03310989 -0.100490935 -0.08140642 -0.22490114 0.20972481 0.10901394 -0.17583556 0.040592104 -0.15855198 -0.20631894 -0.035690777 -0.023079468
was 0.07943681 0.044044483 0.105790935 -0.068584256 -0.08115532 -0.21828692 -0.03260414 0.25205672 0.22439942 -0.21530901 0.024053495 -0.03875581 0.103469096 0.061116293 0.14357598 -0.028665157 0.05110678 -0.26165217 -0.06604335 0.08282544 0.111331314 -0.048695244 0.17924204 -0.039479773 -0.15532967 0.041742217 -0.3477521 -0.080520526 0.1237364 0.11378064 -0.3193517 -0.11085959 0.23241721 0.09700344 0.035476036 -0.037371885 -0.4252877 0.068916306 -0.20422882 -0.0009735789 0.023635933 -0.16774939 0.35906854 0.12977508 0.023667801 0.15850161 0.29411656 0.13800648 -0.06192967 -0.01640504 -0.07962192 -0.083168134 0.21820791 0.058828592 0.015575691 0.029064832 -0.0082567595 -0.07339269 -0.23792602 0.10148197 0.030574547 -0.25502446 -0.17097954 -0.02145146 -0.071706414 -0.23718956 -0.057747077 -0.33728522 -0.20651501 0.11898032 0.06547145 0.47768232 0.14850312 -0.07123625 -0.1832081 0.11472143 0.013318871 -0.08412544 0.47200108 0.2693317 0.035744313 -0.026307149 0.058312275 -0.06609246 -0.19823651 0.19220375 0.35089442 -0.11009733 -0.09182155 0.013685002 -0.008472435 -0.104800686 0.1794501 -0.13274454 0.3656904 0.2845737 0.15973653 0.06805519 0.048184402 0.11309726
a -0.097234435 -0.09287893 -0.04795976 0.17399825 0.33223137 -0.15683194 -0.20259684 0.28391394 0.30923364 -0.12566517 -0.31482372 -0.04812286 -0.15414925 -0.20180535 0.2525827 0.20203304 -0.64562136 0.026696315 0.24813841 0.061488472 -0.18244106 0.10519147 0.05474794 0.29438707 0.09943223 -0.18111758 -0.22011097 0.30196467 0.012471998 0.082086794 -0.46542338 0.02159273 0.1882088 0.16982253 0.14933784 -0.23993735 -0.14715487 -0.1606808 0.1419658 -0.051619105 0.22225752 -0.39083272 0.41764334 0.1478392 0.49392134 -0.017110009 -0.005674898 -0.33799696 -0.16265972 -0.20668493 -0.17335702 0.23151179 0.47699386 -0.09352595 -0.047594715 -0.33126676 -0.032839827 0.3417774 -0.056092285 0.14216086 0.21649924 -0.13982725 0.12511891 -0.14177184 -0.51433897 0.09466718 0.28587425 -0.008011374 0.038389966 0.05242625 0.30460957 -0.25176236 0.23718984 0.122404754 -0.12143824 0.400281 -0.06747376 -0.08674799 0.23554716 0.09612988 -0.052288383 -0.043260157 0.102009505 0.105373785 -0.14958818 -0.10263867 0.14221211 -0.0832659 0.10784288 0.096677095 -0.07588342 -0.28295007 -0.0033041537 0.058203127 0.1781284 0.22778703 -0.32396618 -0.15249689 -0.053646475 -0.23898369
of 0.08166173 -0.16811983 0.27780136 -0.2712745 -0.17755094 -0.3717679 0.09570855 0.65996915 0.5021975 -0.31604373 -0.14377125 -0.45601368 -0.38107538 0.005457828 -0.2734113 0.18743446 -0.18099213 -0.21005976 0.12466616 0.3298878 -0.21400702 0.26231927 -0.074524805 -0.14171146 -0.20111088 0.48233005 -0.08136455 0.14434427 0.35455003 0.15527213 -0.12010386 0.2107037 0.07908099 -0.14417727 -0.49072495 0.0635538 -0.19966967 -0.28226203 -0.11058054 -0.102455154 -0.039460357 0.024480952 -0.036519162 0.31488508 -0.09090999 -0.013407414 0.0909887 -0.102263235 -0.03231889 0.010723957 -0.053671706 -0.10572432 0.13560104 0.2845954 0.29030353 -0.096696086 -0.16693524 0.014613751 -0.29332048 0.021627396 -0.016507382 -0.32649663 0.083748095 -0.3468319 0.07695282 -0.4477595 -0.04335315 -0.23080274 -0.29651123 -0.12192092 0.10503584 0.26097214 0.02907112 0.15379456 0.0976212 0.07572613 0.24149553 -0.18625346 0.19431272 0.14928326 0.20916906 -0.18323608 0.042368244 0.10171214 -0.06108838 0.12047682 0.27107334 -0.06162512 -0.39504597 -0.022810642 0.19752945 -0.13551 0.24720551 0.32730842 -0.014022591 -0.047952104 -0.14207585 -0.12440298 -0.091428645 -0.44101807
’ 0.12371004 0.15594916 0.082863644 0.0056830496 -0.05264638 0.039064884 -0.36406094 0.10052155 0.041534122 -0.021970402 -0.02404495 0.026714103 0.1308513 -0.05355566 0.39203247 0.098788 0.2295934 -0.12945716 0.40364662 0.047367286 -0.09471904 0.063536786 0.26363042 -0.40106156 -0.112860076 0.21268263 -0.35835487 0.030861346 0.32229125 0.027299102 -0.1499049 0.10314965 0.1276505 0.015824419 -0.06740141 -0.3488264 -0.09603917 0.08769474 -0.15624203 -0.34978303 0.09114346 -0.06087664 0.17954804 0.058215562 0.0971775 0.36019737 -0.0006366393 -0.02975621 -0.05788232 -0.15460654 -0.14788589 0.21073344 -0.06114114 0.011833184 -0.1291693 -0.17894767 0.20098214 0.0047066235 -0.028048102 -0.02672803 0.27603945 0.09866431 0.11413173 -0.021574788 0.038307182 -0.047606602 -0.0247769 -0.16480844 -0.14835452 0.13330069 -0.06436428 -0.04867744 0.12545776 -0.046803303 -0.2846109 0.0021968288 0.064020626 0.091333985 -0.04328742 0.279659 -0.36332694 0.005957245 0.3461384 0.15928203 -0.051925045 0.3091892 0.16657598 -0.35171264 -0.10687191 -0.08405189 0.344653 -0.20186621 0.26444346 0.008737087 -0.13828562 0.15165019 -0.0129980305 0.15604332 -0.052477807 0.058758955
in 0.06759762 -0.1632867 0.34252518 -0.14539023 -0.0828735 -0.012941062 -0.0088157095 0.3068396 0.3310885 -0.08538403 -0.21111636 -0.14517409 -0.17149977 -0.12116135 0.13451296 0.11779894 -0.05766536 0.13144137 0.007800476 0.05819389 -0.053020194 0.049518973 0.17722905 -0.07640385 -0.12780762 0.23873831 -0.118747294 0.0567981 0.16514574 -0.048314434 0.10042947 0.1993122 0.21032315 -0.023499222 -0.30290678 0.09024808 -0.14441526 -0.07735603 -0.08314723 -0.03690466 -0.027329825 0.008326588 0.12369179 0.3319466 0.16272756 0.05544569 0.19428313 -0.23190917 -0.037665013 0.0041694515 -0.11044795 -0.030386567 0.20774348 0.028002985 0.19147569 -0.08264177 -0.2378421 0.15372826 -0.19581172 0.3182779 -0.053823315 -0.21034801 0.09274167 -0.3205765 -0.14164269 -0.19147465 0.01266313 -0.20611924 -0.41774687 -0.06917377 0.109739326 -0.12720905 -0.0700071 0.076166295 -0.040661708 -0.026552232 0.053350262 -0.014289242 0.26351982 0.16238339 0.1286984 -0.09889623 -0.071123846 0.20110139 0.07792188 0.29437083 0.06936405 -0.064503096 -0.004262266 -0.007673902 0.10747413 -0.004808939 0.20361453 -0.009711279 0.030747883 0.21754253 -0.13311096 -0.2480713 -0.08799108 -0.122022316
alice 0.28925163 0.135864 0.10507693 -0.046432175 0.08168337 0.10320154 -0.093007065 0.030885499 -0.028863188 -0.27275172 -0.31392318 -0.05526022 0.14912489 -0.14063857 -0.10236404 0.3031205 -0.031146359 -0.09313607 0.0063581727 0.06579441 -0.08622652 0.096406296 0.2765002 0.096494816 -0.19779126 -0.11729285 -0.0411109 -0.077411935 0.09168968 -0.15104917 -0.2275497 -0.12837559 0.0027078623 0.16061592 -0.3251615 -0.08429411 0.008945359 -0.029182954 0.0872133 -0.19700752 0.01319545 0.09112933 -0.015108603 -0.021034589 0.12622882 0.50080025 -0.07048872 -0.1570452 -0.22873493 -0.325542 -0.10108404 0.08071605 0.14104594 -0.10881969 -0.10529093 -0.24373913 0.07078117 0.26081127 -0.12806995 0.14975916 -0.026517037 -0.023012053 0.043760415 0.062794976 -0.14681314 0.091578946 0.23746999 0.02964094 -0.09998546 0.21339236 -0.060913097 0.09687233 0.16789697 0.23980172 -0.14464673 -0.071886316 0.08722137 0.42032284 -0.13977851 0.0391216 -0.44499567 0.028956356 0.03870779 0.04956228 0.130296 -0.1296829 0.06327717 -0.11552635 -0.13271207 -0.07250694 0.114043474 -0.53344876 0.18245012 0.16309388 0.07605749 0.10025316 0.105067655 -0.046043765 -0.0071248766 0.108342975
her 0.009790201 -0.081587486 0.038466573 -0.23166811 0.23319785 -0.07513106 -0.199217 0.15327303 0.023195362 -0.067324266 -0.1587674 -0.23125896 -0.11048806 -0.16691567 0.27077392 0.06590302 -0.35240874 0.14010195 0.21524481 0.020166542 0.005867017 0.033956464 0.2196464 -0.061488423 -0.053964786 0.042592395 -0.04121669 0.24676047 -0.11916125 0.12730916 -0.034609426 -0.10601593 0.24564369 0.22306488 -0.092824616 -0.0658291 0.029778635 -0.21013446 -0.1276714 -0.4441046 0.14054078 -0.18881041 0.07882763 0.113700725 0.21687949 0.3916111 0.10253365 -0.14225964 -0.21248297 -0.28081292 -0.21253622 0.044023804 0.24827813 -0.19540255 0.080978505 -0.0830938 -0.21350494 0.09977434 -0.11105297 0.28279096 0.22954035 -0.033456285 0.2848181 -0.06784351 -0.11629392 0.072909616 0.28500247 -0.04673795 0.063067906 0.14972395 0.12579358 0.09348279 0.22508988 0.17458901 -0.10887034 0.18690766 0.19397569 0.27393618 0.13712576 0.13144164 -0.1330694 -0.03597579 0.16147417 0.1294416 -0.0763053 -0.020329764 -0.031862453 -0.01672368 -0.087875485 0.17415246 -0.06834313 -0.17187382 -0.07703739 0.17562361 0.098842695 0.04765424 -0.31746206 -0.14534387 -0.17822123 -0.01880754
i 0.08696647 -0.032155063 0.16893692 -0.07723606 -0.031878565 -0.28707367 0.21963157 0.25532016 0.17204513 -0.025546994 -0.016626853 -0.13968123 0.21903309 -0.20362957 0.27126658 0.17654401 -0.13576722 -0.2790134 0.34809777 0.31362262 -0.024483945 0.23924568 0.05063914 -0.18061045 -0.30706894 0.30250323 -0.0801266 0.18151042 0.14728327 -0.287926 -0.11538812 0.2249273 -0.021861153 0.17365126 -0.32135993 -0.2257652 -0.103162065 -0.02763796 -0.08023424 -0.20316148 -0.007981702 -0.2580107 0.21202782 0.10817703 0.13677084 0.32263404 -0.011717258 -0.04186233 -0.11750316 -0.190952 -0.032899465 -0.036623415 0.22377014 0.059586223 -0.11991793 -0.20554069 -0.028756844 0.16233957 0.03413931 0.026361495 -0.037522208 -0.4510706 0.14286011 -0.09869009 0.11566421 -0.119719476 0.18809672 -0.056844033 0.20021288 0.075191595 0.14202486 0.1246621 0.116615996 0.44900626 0.03504315 0.12191357 0.13245407 0.39131558 -0.0019150442 -0.055822976 -0.33293253 -0.001802875 0.23329613 0.23445964 -0.12150999 0.0905138 0.11901445 -0.30133036 -0.21572943 0.011667414 0.15982997 -0.19588986 0.13169801 0.474676 0.0034902575 0.078717016 -0.3533242 0.24504547 -0.14357345 -0.15550756
that 0.052394386 0.13936496 -0.0134072 -0.16646323 0.0041748583 -0.055110868 -0.24858567 0.06520177 0.04452106 0.011654807 -0.12915349 0.08700871 0.09574867 -0.13147645 0.064815894 0.17519432 -0.0024655683 -0.080472514 0.023764987 0.0037494807 0.057426065 0.029715406 0.2581395 -0.15815939 -0.12941572 0.12039647 -0.25365415 0.08867085 0.043433256 0.09105833 -0.19513026 -0.14425755 0.21106163 0.12029418 -0.059578657 -0.06257312 -0.20130496 -0.011676049 -0.014443607 -0.20479815 0.073108695 -0.03103103 0.0495304 0.1310383 -0.04002647 0.22632755 0.08205907 -0.15064195 -0.037833396 -0.14221859 -0.1991523 0.14407979 0.15142559 0.019915415 0.15393068 -0.17296673 -0.10460524 0.18034989 -0.1206675 0.17844485 0.21608698 0.030578353 0.007401849 -0.08870225 -0.03957844 0.1770422 0.03994673 -0.115272366 -0.151965 0.28763554 0.019727169 0.1529071 0.098837234 -0.01816969 -0.2299446 0.14111507 0.03826047 0.21527188 -0.00084807863 0.19623673 -0.14934584 -0.06221228 0.14444265 0.10617277 -0.037174825 0.11695269 -0.08277543 -0.0074878056 -0.056750167 0.12177335 0.14476441 -0.2097163 0.06240317 -0.019762488 0.106765285 0.078854516 -0.0867641 -0.14153427 -0.05971479 0.12896606
down 0.06963032 -0.09380941 0.017955877 -0.09570655 -0.09208878 -0.12761062 -0.108199604 0.22788724 0.06344999 -0.14994113 -0.17952704 -0.13779183 -0.05299041 -0.048196755 0.060557943 -0.048448525 -0.20566902 -0.04501181 0.19544925 0.074632116 -0.11060669 0.0056657726 -0.005332418 -0.09180653 -0.11162993 0.18401279 -0.13841605 0.1109687 0.1380336 0.101621404 -0.108933866 0.018038053 0.0872528 0.09175147 -0.11165103 -0.14998561 -0.2214228 -0.097310096 -0.0023178435 0.047743067 0.052914184 -0.10854924 0.18572192 0.19467875 -0.008286855 -0.06349511 0.09594627 -0.07416688 -0.09635037 0.06683185 -0.063899405 -0.004673888 0.023897339 0.14737216 0.0815997 -0.07747734 -0.1153592 0.047564507 -0.18736562 0.053311773 0.008375606 -0.17370184 0.060664963 -0.10006121 0.06297719 -0.17048766 0.010107699 -0.19554833 0.03053412 0.031750552 -0.016445557 0.17106536 0.03096046 0.23800904 -0.07149949 0.02434772 0.095187806 0.06300266 0.13979547 0.19766097 0.028602088 -0.13330805 0.23150387 0.04087962 -0.0102893645 0.21621643 0.06996663 -0.09383625 -0.12524956 0.12532252 0.267979 0.01622018 0.056391846 0.09919589 0.05839327 0.08418136 -0.1324184 -0.031598084 -0.104770795 -0.058447544
you 0.1654062 0.10791801 0.13929968 -0.14935328 0.23129734 -0.09749108 -0.021689866 0.24521081 0.01221883 -0.084379636 -0.096215054 -0.031880546 0.24278563 -0.15488182 0.25435358 0.19566709 -0.08518735 -0.23207344 0.14181119 0.21250574 -0.10137489 0.12929134 0.014216 -0.13320129 -0.15027432 0.12937422 -0.25022316 0.13450381 0.19570388 0.083615765 -0.27198365 0.041845627 0.05140765 0.090425275 -0.13612887 -0.11305381 -0.16350572 -0.032143503 -0.105975114 -0.12353564 0.044652898 -0.13668168 0.20028803 0.048563052 0.155137 0.2746735 0.049813654 -0.08680857 -0.01779283 -0.23336037 -0.04116141 0.13719104 0.15683256 0.097678095 -0.086987615 -0.19487576 0.09149852 0.2533259 -0.03133484 0.02404886 0.061213918 -0.2770689 0.023158131 -0.10132856 0.043886624 0.070315965 0.22949216 -0.0063270577 0.09134959 0.18210696 0.18463863 0.15322636 0.080543645 0.11021548 -0.07660652 0.1406848 0.08693051 0.19019823 0.00063213136 0.041827187 -0.34489772 -0.083610006 0.18368869 0.18923387 -0.18392691 0.10472401 0.22872916 -0.27430913 -0.09701154 -0.14171213 0.18341197 -0.39753404 0.13080955 0.14236256 -0.05610214 0.08893881 -0.19020852 -0.06871894 -0.035389584 -0.06977564
for 0.08980906 0.01236779 -0.027723297 -0.1172901 0.064874634 -0.08344386 -0.088973425 0.1393663 0.085153945 -0.10612551 -0.07625027 -0.06311799 -0.030964712 -0.080059305 0.12454687 0.05171146 0.070763916 -0.16363907 0.11701829 0.047676746 -0.21198809 0.034902602 0.036668304 -0.07106783 -0.065721214 0.053618122 -0.18279453 -0.03360516 0.19570024 0.08012315 -0.12668791 0.054796517 0.11537963 0.09114272 -0.1176811 -0.13830684 -0.15643583 -0.044445634 -0.18234062 -0.05215958 0.08233044 -0.0040572397 0.075471826 0.21591587 -0.017119242 -0.016874839 0.18187849 -0.026399879 0.012871438 -0.08046051 -0.12609978 0.017182995 -0.017169554 0.07482928 0.089470536 -0.0770509 -0.037060015 0.087992944 -0.14003515 0.060476147 0.049235955 -0.1247528 0.10388053 -0.16324 0.107982226 -0.12022922 0.07384013 -0.18035609 -0.1333221 0.13793711 0.061253224 0.21096444 0.15105389 0.027065936 -0.07019572 0.088440634 0.09278693 -0.025848165 0.168242 0.18493648 -0.061863367 -0.103115395 0.22059187 0.13798274 -0.075111024 0.16111784 0.13403252 -0.16413642 -0.20228332 0.040080465 0.20825003 -0.12761872 0.0750332 0.15163006 0.09257092 0.12640879 -0.12964283 -0.0787921 -0.13879225 -0.08329617
but 0.010119459 0.08395141 0.054161835 -0.1391074 0.017859846 -0.14923956 -0.04684693 0.11297118 0.094209045 -0.2497509 -0.018440353 -0.12743782 -0.032307234 -0.11601068 0.12593237 0.19556333 0.02663928 -0.022750199 0.043125786 0.17703432 -0.054666046 0.19842848 0.01760123 -0.15451767 -0.057624362 0.1596851 -0.077444986 0.11740365 0.2000877 -0.07447355 -0.1558515 -0.014056151 0.0030604585 -0.074013755 -0.1836437 -0.044203147 -0.014570364 -0.14591418 -0.11344868 -0.27084506 0.035190523 0.09894771 0.07294884 0.038083054 0.070121534 0.08129623 0.028909829 -0.115255855 -0.11924524 -0.17858687 -0.007982505 0.056702398 0.0015981023 0.2270467 -0.00958366 -0.075994365 -0.026527306 0.09386291 -0.0027954686 -0.2296746 0.084295936 -0.14646363 0.03659035 -0.1289544 0.14065538 -0.0499584 0.096345045 0.02901986 0.032909002 0.012616397 0.0843116 0.19926882 -0.010374233 0.07704902 -0.002537205 -0.029297989 0.029534163 0.1769052 -0.10835161 0.0126279835 -0.1704354 -0.14717871 0.074803606 0.12408467 -0.112656355 0.050300915 0.08599243 -0.2888584 -0.18247917 -0.03401094 0.22260192 -0.2776276 0.1388715 0.19095407 -0.06439739 0.111802 0.019736905 -0.01614752 -0.15524985 -0.15408053
very -0.014881253 -0.009671424 0.0104101505 -0.10550319 0.060628325 -0.10124195 -0.13992779 0.18253359 0.07955184 -0.0404427 -0.22032765 -0.07979291 0.01485437 -0.18500063 0.08135662 0.07325852 -0.2771378 0.01964447 0.10135011 0.03363651 -0.15176688 0.027879562 0.18002231 -0.17550452 -0.06543299 0.10553906 -0.21552852 0.14888617 -0.028075444 0.05035355 -0.034130458 -0.10609641 0.19095394 0.0918367 -0.08929523 -0.051195987 -0.19455369 0.0069043464 -0.038184263 -0.17988114 0.060963836 -0.1411216 0.1250649 0.1822496 0.09960471 0.16793407 -0.0034230456 -0.14331388 -0.076997995 -0.0850056 -0.27883223 0.017454907 0.09208207 0.014740877 0.21435161 -0.09683407 -0.16299957 0.18722501 -0.08374809 0.031406805 0.060930207 -0.13056116 0.011229619 -0.118515134 -0.13749442 0.03533129 0.22359604 -0.044995207 -0.18985488 0.19703647 0.16677651 0.06561968 0.083494075 0.08415567 -0.113264896 0.08486889 0.046357784 0.13962881 0.20624569 0.22387855 -0.071248114 -0.028330343 0.1241337 0.22744362 0.0074682385 0.08182718 0.0887522 -0.10763258 -0.06460442 0.11728392 0.054499194 -0.19081803 0.13456199 -0.08569673 0.020229556 0.1224395 -0.24921958 -0.18642625 -0.20270443 0.046062246
on 0.12981088 -0.1078294 0.09557912 -0.11562228 -0.006410296 -0.1254725 -0.08583652 0.21228337 0.21200822 -0.20455112 -0.072604716 -0.12898855 -0.15742728 -0.015779588 -0.0027255528 0.13751979 -0.11999778 0.21453393 0.061485324 0.20060413 -0.058279015 0.14308803 0.097727105 -0.058646508 -0.07052728 0.17894442 -0.12272876 -0.019012343 0.13452539 0.16240375 -0.01885829 0.011135113 0.14010881 0.1691489 -0.23849446 0.04388079 -0.1432542 -0.16811167 -0.10695165 -0.16247989 0.15020812 0.017543819 0.01508686 0.11094359 -0.029887298 0.119052455 0.14184539 -0.100305624 -0.10158987 -0.15428759 -0.09969355 -0.055398308 0.11994169 0.0089075295 0.06816814 -0.017678881 -0.080176026 0.02880706 -0.21196744 0.09648676 -0.010369359 -0.122860834 -0.037366044 -0.11591759 -0.047230408 -0.15765545 0.037195846 -0.24440053 -0.16109739 0.00568508 0.1759974 0.25658974 0.07346827 0.08092805 -0.0059437393 0.06807049 0.16142645 0.10832673 0.13753487 0.13087913 -0.023742221 -0.07691817 0.043112513 0.0649912 -0.05781412 0.25425997 0.14371596 -0.107311904 -0.06407864 0.09762665 0.05924816 -0.16967426 0.083375745 -0.040631447 0.121998966 0.105583556 0.042235736 -0.03905334 -0.040728766 -0.040768396
had 0.16682796 -0.0174431 0.03526886 -0.037765067 -0.028897636 -0.08532673 -0.28599948 -0.04618209 -0.07952505 -0.047314692 -0.0032044752 0.09180388 0.13501564 -0.018488077 0.15521215 -0.01560298 -0.02828687 -0.028089035 0.02845663 -0.030194743 -0.1927469 -0.06387088 0.27866474 -0.14706042 -0.14554623 0.051935848 -0.25057086 -0.13542555 0.053499337 0.14970942 -0.17068556 -0.012275872 0.14827617 0.16295412 0.053483866 -0.2979416 -0.14221418 0.030332949 -0.11559586 -0.050584484 0.036810115 -0.09534878 0.15544918 -0.00441432 0.011531223 0.11553865 0.12593383 -0.009731488 -0.07085994 0.08220202 -0.20454155 0.16333552 -0.034868326 0.011352264 0.08345501 -0.16513643 0.053216036 0.08371718 -0.093161836 -0.07101184 0.2531526 0.03433571 0.009779668 -0.08726075 -0.07875575 0.065634936 -0.09264954 -0.23381369 -0.021031225 0.24982716 0.0859485 0.22422294 0.15458171 -0.015892768 -0.3055428 0.019812126 0.14108092 0.0058836136 0.15587468 0.19216943 -0.12078865 -0.03595136 0.17130479 0.020792553 -0.18608445 0.23238699 0.057981666 -0.013110663 -0.10459974 0.14727117 0.20425601 -0.02657767 0.14687134 -0.0572072 0.030175727 0.15156657 0.006151243 0.006945759 -0.05463272 0.01874511
this 0.13671714 -0.07814366 0.079943724 -0.06551927 0.23721689 -0.041597832 -0.096795075 0.1342603 0.1599168 -0.108496174 -0.15266556 -0.14990607 -0.044168055 -0.04687417 0.045963354 0.1848732 -0.22224976 0.12233724 0.23205246 0.1016065 -0.08892228 0.11417994 0.1328783 -0.06382174 -0.07620116 0.12569115 -0.18673699 0.19735211 0.070315555 0.08558824 -0.09878873 0.06139023 0.04533661 0.113861464 -0.13040125 -0.0827316 -0.12371413 -0.03303582 0.002264463 -0.094738744 0.12518069 -0.2707417 0.21959049 0.07136563 0.20776798 0.18141769 0.068863235 -0.26492384 -0.22807705 -0.08786919 -0.15641288 0.115770124 0.15450434 0.103102036 0.06548344 -0.13906491 -0.00725965 0.18506327 -0.04509505 0.15581462 0.18418919 -0.0689727 0.18484555 -0.16704266 -0.20348753 -0.068468176 0.28637776 0.06255526 -0.0676422 0.052765656 0.17784677 0.05190005 0.13556765 0.0020974132 -0.0025674582 0.18993624 0.045568608 0.11510791 0.11240867 0.0067826477 -0.1409282 -0.13365138 0.18125004 0.13104756 -0.12910222 0.100362435 0.18598208 -0.13295509 -0.08514751 -0.02284012 0.07979053 -0.1341066 0.15100184 0.23640239 0.02580556 0.10555566 -0.23553815 -0.16282189 -0.148251 -0.06909822
as 0.13729188 -0.072005294 0.06853196 -0.12342034 -0.10100782 -0.23550402 -0.123461835 0.157524 0.18094067 -0.18156095 -0.21585695 -0.12745462 0.14358822 -0.14376552 0.056548655 0.16687335 -0.08622717 -0.16416365 -0.025889121 0.03502209 -0.06544523 0.07466424 0.16701135 -0.16683526 -0.2063069 0.18487826 -0.28986478 0.04803219 0.14621852 0.10690131 -0.14125945 0.044819362 0.18989402 0.052262954 -0.083476044 0.07044174 -0.25851527 -0.14962174 -0.2051372 0.0051364643 0.07398706 -0.15468216 0.16149136 0.08990389 0.041970573 0.11743065 0.036188688 -0.04979258 -0.13663529 -0.077920705 -0.20420611 0.029349338 0.10420639 -0.101226024 0.03567986 0.045149025 -0.09510783 -0.0023913938 -0.105753906 0.14933997 0.07782806 -0.14420868 0.010280253 -0.107408985 0.09052734 -0.0076070563 0.0408495 -0.07002473 -0.121347204 0.20224376 0.066983886 0.25873533 -0.048523597 -0.004652102 -0.010921167 0.12273011 0.11621054 0.15077889 0.18297176 0.13811034 -0.14963582 -0.06488319 0.17396596 0.10972204 -0.18763493 0.26322606 0.23079988 -0.0038476433 -0.1511671 0.096558146 0.035255373 -0.05226887 0.15465634 0.21877469 0.09064344 0.14693804 -0.13052931 -0.097425155 -0.14115797 0.010077105
be -0.029374395 -0.05283453 0.13556199 -0.07373258 0.09601016 -0.2958731 0.004870214 0.13818292 0.013096648 0.22799705 -0.22134443 -0.28525907 0.052953362 -0.26458415 0.39524683 0.06699921 -0.06394257 -0.098883845 0.13745989 -0.018142508 -0.16041934 0.03178535 0.34467256 -0.34160444 -0.17218155 0.15891202 -0.24279411 0.013033501 0.07199795 0.052186303 -0.13454883 -0.041939072 0.2508008 0.24313569 -0.1971824 -0.059974086 0.06670028 -0.24302152 -0.038081937 -0.22057648 0.14599508 -0.04271633 0.1711445 -0.03697212 -0.05031526 0.19465022 0.16316546 -0.040739954 -0.34914267 -0.23792623 -0.20889059 -0.009663468 0.20527269 -0.031392023 0.046319287 -0.04200244 -0.130934 -0.00063218316 -0.13118781 -0.08020915 0.049958825 -0.24398878 0.23782408 0.033561032 0.023278011 0.03493638 0.08374702 0.028836053 0.11059096 0.109674044 0.057680808 0.098085895 0.03894567 0.16179754 -0.13791478 0.14893337 0.12872872 0.22400343 0.026532067 0.1083886 -0.3034829 -0.1135616 0.14327468 -0.020829558 -0.09459724 0.026524622 -0.031361386 -0.1438415 -0.24147794 0.18389936 0.09697021 -0.42768657 -0.08797762 0.3751907 0.0048406133 0.13427451 -0.19670536 0.0022854726 -0.11689792 -0.11383463
so 0.0729584 0.11983644 0.095614634 -0.086558 -0.044583984 -0.1426619 -0.15541433 0.066303365 0.10988526 -0.1395695 -0.02336428 -0.05881624 0.07508516 -0.16514306 0.069594264 0.22969365 0.018683651 0.031350046 0.03577388 0.0028505642 -0.14240065 -0.011517875 0.15401483 -0.14787053 -0.12866457 0.04615847 -0.17113176 0.02858296 0.08207347 -0.0028899522 -0.26092663 -0.013638759 0.18444614 0.0508993 0.04428327 -0.053142227 -0.06743024 -0.002656111 0.026188634 -0.09719437 0.0027151913 -0.0072525423 0.06238397 0.01562624 0.019488141 0.12153362 0.056972478 -0.0639792 0.0001860538 -0.055802975 -0.1394028 0.1043951 0.15207735 0.053331718 0.12876132 -0.16110362 -0.046814773 0.13725162 0.0024963762 0.020150654 0.11438233 -0.08308531 0.0044534807 0.05765142 0.03868098 0.033578083 0.03165526 -0.14294806 -0.09311514 0.123472326 0.03208303 0.10366112 0.014469063 0.012329642 -0.10401133 -0.02786305 0.018100675 0.038849473 0.12068744 0.12866561 -0.0789612 0.06679686 0.064812824 0.07540326 -0.060507275 0.073835105 0.008617149 -0.08311446 -0.005859065 0.018964501 0.21440779 -0.15614788 0.12789558 -0.0015696664 0.036949232 0.0416321 -0.013495893 -0.050927117 -0.06036004 -0.048693232
little 0.040578883 -0.14959784 0.3287303 -0.022472799 -0.0805592 -0.101612695 -0.0797235 0.31715506 0.3304335 0.15696606 -0.22346586 -0.24637426 -0.15820952 -0.016217234 0.0132154105 0.1449535 -0.15587547 0.16923712 0.07257281 0.22414953 -0.1834068 0.05413075 -0.114284754 -0.105707586 -0.22886503 0.27874658 0.16977362 0.16162594 0.16368756 0.10840419 -0.039822347 0.26816937 0.055156115 -0.08415983 -0.3075909 0.0053234296 -0.11032841 -0.1643093 -0.13601522 0.10912407 -0.081696644 0.051534776 0.18748172 0.20698029 0.07864191 -0.02884851 0.05650412 -0.0533002 0.081299864 -0.020225251 -0.055635378 -0.031380925 0.2460307 0.00040590693 0.18816487 -0.003376501 -0.24954809 0.060734984 -0.08146427 0.072451524 -0.07816574 -0.31907547 0.13382 -0.25746942 -0.07005375 -0.028782586 0.016826397 -0.35041952 -0.3336526 -0.100395024 -0.020890553 -0.09048319 0.07852171 0.21402442 0.0044446066 0.06907482 0.043824587 -0.059826933 0.11580872 0.1648107 0.025516983 -0.19241841 0.114931844 0.089355975 0.0080214795 0.2783173 0.14834495 -0.052624475 -0.12602423 0.1169912 0.0591318 -0.013807528 0.1458213 0.100759245 0.06599893 -0.0250108 -0.12230044 -0.1547512 -0.050357044 -0.17887445
with 0.113071896 -0.09319539 0.2561167 -0.15347101 0.038079873 -0.13125981 -0.107768774 0.31584215 0.18528982 -0.13021576 -0.1718217 -0.2653095 -0.07279606 -0.074611925 0.096774675 0.09935255 -0.14348839 0.0482365 0.10691623 0.14654441 -0.15875274 0.14757176 0.046241093 -0.17489637 -0.088245206 0.16967921 -0.11236043 0.17427503 0.20035672 0.08391538 0.04901276 0.070040114 0.127909 0.09227663 -0.14259909 -0.050575703 -0.020728067 -0.19641781 -0.062113374 -0.021065116 0.029759271 -0.073121876 0.20653461 0.1519254 0.11104508 0.051820137 0.14063026 -0.00014602083 -0.0645516 -0.0853826 -0.06408995 0.088490956 0.18762048 0.24903053 0.14509916 -0.03563372 -0.12766714 0.08933514 -0.16011553 0.06279335 0.02719033 -0.109189935 0.14884123 -0.2635352 0.107582025 -0.1302472 0.13923621 -0.17924191 -0.19270553 0.017899983 0.15508342 0.14684843 0.05549521 0.18547864 -0.08564763 0.1641217 0.10605692 0.046993084 0.17681359 0.21873806 -0.11243779 -0.1921028 0.100834325 0.19905211 -0.012751063 0.12828338 0.10175898 -0.06977736 -0.14102738 0.14624481 0.19630526 -0.072265185 0.20006746 0.04540358 0.093927786 0.105966486 -0.136692 -0.19195352 -0.11680827 -0.18875298
way 0.069132306 -0.12294983 0.053084217 -0.13067816 0.07576531 -0.19730476 0.0808559 0.17887701 0.04137015 -0.10503978 -0.0030212735 -0.08749202 -0.17438772 -0.0011026498 -0.007440281 0.11791261 -0.027553286 0.044580847 -0.0075682243 0.08323057 -0.1989653 0.17512429 -0.08203533 -0.064822644 -0.109226026 0.10814337 0.07290234 0.13164157 0.13929707 0.051499262 0.03331244 0.10804179 -0.058157127 -0.06929804 -0.14991952 -0.060543388 0.14527811 -0.10864394 -0.15785524 -0.107985504 0.116699636 -0.0064104507 -0.0232599 0.07699755 0.022153316 -0.054494366 0.0064687678 -0.09406529 0.034333467 -0.049886163 -0.005415034 0.020700429 -0.07600176 0.19959883 0.13660336 -0.02530081 0.0038742793 0.08322543 -0.011357188 -0.027010284 -0.06857989 -0.18942714 0.088141985 -0.19597231 -0.010093136 -0.17273922 0.093337655 -0.048749022 -0.09287259 -0.083152704 0.0047076447 0.1079641 -0.05430191 0.10197899 0.04164611 0.0848559 0.093090095 -0.051824205 -0.07372139 0.018998422 0.024299562 -0.037631627 0.013153964 0.03544326 -0.10835836 0.090658754 0.14425193 -0.13005514 -0.07770081 0.022596015 0.085669644 -0.08961471 0.08009114 0.15078406 0.05917826 -0.036729578 -0.11955348 -0.0016925508 -0.055744544 -0.23943694
at 0.12327486 -0.07396973 0.004721027 -0.06318238 0.021158988 0.021979196 0.023557298 0.15465167 0.13279696 -0.16551769 -0.08408135 -0.12199037 -0.19011751 0.039825235 -0.021776227 0.037120696 -0.034009892 0.06504293 0.033618603 0.17583756 -0.06420852 0.1586086 0.013211443 -0.092927836 -0.028434865 0.11006465 -0.003395966 0.16657545 0.1338676 0.036207907 0.05224604 0.10894802 0.06526808 0.03454642 -0.11576783 -0.11573272 -0.06288929 -0.11620973 -0.11332937 -0.055662762 0.049576476 -0.07392582 -0.01610814 0.12217914 0.08572852 0.0028927764 0.110035986 -0.10569229 0.01308708 0.039226864 -0.07781875 -0.0602003 -0.055121545 0.14413294 0.06482088 -0.010577148 -0.11469142 -0.001853607 0.0013757691 0.0430158 0.0673419 -0.17713703 0.052599255 -0.14573777 -0.043281794 -0.17196485 0.05230589 -0.11621242 -0.13429146 -0.017059555 0.109314 0.05491974 0.11519263 0.19214688 0.05205749 0.02452182 0.063399285 0.074013434 -0.0375863 0.11126231 -0.06438703 -0.16968738 0.09959839 0.030988554 -0.14260632 0.15938947 0.00811224 -0.20496497 -0.17692514 0.01199383 0.08051135 0.020507827 0.15155533 0.06451224 0.0632944 -0.004817643 -0.089113586 0.040215183 -0.122149594 -0.07992984
out 0.0057146926 -0.13788816 -0.04199835 -0.031478986 0.08161193 -0.23857482 0.028692784 0.039095465 0.01294349 -0.07896537 -0.22053525 -0.061257366 -0.13422918 -0.07585967 0.028776126 0.02258147 -0.05167932 0.025022026 0.03562657 0.10631195 -0.17326084 0.04060703 0.06479865 -0.036417667 -0.03455084 0.0055543017 -0.0825727 0.06567346 0.06587922 0.0820975 -0.043538567 0.15088779 0.09344253 -0.033988122 0.03038767 -0.13534155 0.14338578 -0.17233154 -0.08260651 -0.07097325 0.051870693 -0.16888878 -0.051290166 0.054340765 0.08849833 0.118191786 0.0095950365 -0.07680421 0.0036057965 -0.106361486 -0.07411398 0.02269415 -0.115325384 -0.038967043 0.015513809 0.06747507 -0.026102236 0.027473219 -0.08232681 -0.022441259 -0.05894342 -0.13678701 0.077312924 -0.04518785 0.00072695385 -0.06958282 0.08701384 0.009879722 -0.0069931527 0.0166107 0.10330493 0.11420798 0.02309316 0.079293765 -0.01331272 0.10368234 0.030442096 0.06637045 -0.006685244 -0.112740144 -0.01823152 -0.04695511 0.069708 -0.02966202 0.030859875 0.0009276775 0.024689669 -0.08035487 -0.09211434 0.086034834 -0.040455155 -0.16341531 -0.060446896 0.15811658 0.031615242 -0.009623754 0.01654587 0.023344023 -0.05359205 -0.06673139
not 0.099897385 0.047959473 0.1099105 -0.10500161 -0.0023389843 -0.14742354 -0.22734894 -0.007442444 0.01877237 0.029438756 -0.042828377 -0.075083144 0.15947275 -0.10919001 0.1388146 0.05348429 -0.06518376 -0.043950696 0.0035498128 -0.012192976 -0.08291437 -0.03116922 0.18692699 -0.18917622 -0.108704366 0.05939307 -0.10372369 0.051030975 0.14213988 0.08253526 -0.091192655 -0.15336472 0.20830926 0.14935327 -0.05800829 -0.06435479 -0.22635558 -0.06078945 -0.14492962 -0.05059651 0.10920276 -0.09157354 0.16119774 0.1330529 0.036584284 0.020713558 0.1396908 -0.088740475 -0.091339074 -0.010150431 -0.18216051 0.032419655 0.17431946 -0.059935976 0.12166682 -0.11685272 -0.1296812 0.047501314 -0.16856945 0.12127595 0.12797678 -0.05067514 -0.057417165 -0.026383745 -0.07233893 -0.09750889 0.015354916 -0.16692631 -0.13614948 0.10471862 -0.042812675 0.13796082 -0.01100038 0.027600879 -0.16241989 0.082495995 0.116370045 0.113912664 0.15078846 0.17739925 -0.022396993 -0.061489347 0.16933309 0.1249563 -0.1213354 0.09717073 0.018091174 0.0042844764 -0.009053979 0.20827028 0.14779094 -0.116530225 0.046918012 0.055474006 0.028447324 0.15349233 -0.042689107 -0.11252084 -0.094042115 0.022566149
or 0.05455295 -0.036870047 0.075943515 -0.09608674 0.06015262 -0.04825046 -0.08665165 0.14222494 0.121522814 -0.19939467 -0.061145164 -0.13166218 -0.08584651 -0.07232963 0.22167668 0.15060908 -0.14233457 0.10143842 0.061169688 0.09332072 -0.05259263 0.17621066 0.1293946 -0.1006556 -0.06425922 0.07232167 -0.16228008 0.09513593 0.11510584 0.13870816 -0.05196159 0.019463325 0.10643564 0.07286412 -0.09935175 -0.03190451 -0.19892311 -0.07684322 -0.15395978 -0.059053704 0.0839285 -0.030257896 0.18806238 0.2064835 0.059865702 0.10218748 0.12731236 -0.17022213 -0.076265246 -0.10313763 -0.051326074 0.16062303 0.16840656 0.1819869 0.076014094 -0.077597536 -0.071285106 0.11700938 -0.2072537 0.06328493 0.13120809 -0.08023732 0.13668917 -0.12874316 -0.06323079 -0.04285591 0.08427164 -0.18028493 -0.16195156 0.02127863 0.17854007 0.18487391 0.04685595 0.03678194 -0.13702898 0.089571126 0.04672623 -0.010744753 0.15912466 0.20237222 -0.10111194 -0.1228284 0.12841733 0.14264517 -0.1849178 0.20123932 0.10609621 -0.09823728 -0.12252187 0.1119779 0.12277931 -0.07580179 0.11637371 0.12185358 0.08083965 0.093071714 -0.10319642 -0.1442106 -0.061862793 -0.07520967
herself 0.041719414 0.08492273 0.0050188187 -0.053412076 0.019420313 -0.15869668 -0.04095123 0.08884777 -0.029470986 0.049621724 -0.05767792 -0.1496307 -0.05504443 0.014274594 0.23240934 0.042270027 -0.09298194 -0.0883188 -0.023412239 0.050908007 -0.06341269 -0.02435109 0.20749512 -0.2203526 -0.044016697 0.038080186 -0.18574688 -0.0123527 0.045519546 0.10808816 -0.085743256 0.027496368 0.18375424 0.061879475 0.009723738 -0.072122015 -0.06376387 -0.09445386 -0.033176787 -0.13374461 0.03387354 0.00404736 0.017143322 -0.0021613436 -0.004351866 0.210079 0.039318983 -0.06714937 -0.07359745 -0.042649124 -0.14913999 0.08447097 0.10036821 -0.014570572 0.016445328 -0.13047954 -0.044581477 0.030505927 -0.16465925 0.009711543 0.10385914 0.02768398 0.011082144 -0.07334478 -0.014171349 -0.040561024 -0.018488815 -0.15845548 0.012676371 0.1645496 -0.01318489 0.16206434 0.03835338 0.1711835 -0.21102963 0.033521365 0.051379427 0.031055536 0.18847018 0.083058655 -0.00019723736 -0.034581233 0.10070018 0.021729847 -0.11994363 0.07473527 0.04457298 0.03675867 -0.10458567 0.09969199 0.15422016 -0.18738052 0.04693737 0.051039267 0.1052747 0.0809652 -0.06916844 -0.050666776 0.0011030054 0.08551266
up 0.058848508 -0.038170956 0.06415288 0.015842963 0.0598349 -0.026017975 -0.043391097 0.008927532 0.05673304 -0.049216338 -0.18584459 -0.08884735 -0.09356831 -0.03633248 0.061844267 0.022589395 -0.113449596 -0.026275229 0.04334492 0.06705302 0.01502088 0.052042387 -0.013602645 0.011548932 -0.07563564 0.1448408 -0.094584234 0.07525538 0.06929391 0.095785975 -0.12085062 0.11019076 0.044899337 0.09997559 -0.13432416 -0.08206602 -0.03732563 0.0063595017 -0.096858874 -0.030439792 0.031746075 -0.05560386 0.15070044 0.12250291 0.01998458 0.05366477 0.09520015 0.04296548 -0.047171663 -0.06081981 -0.086229645 -0.0041009886 0.10061856 0.08070244 0.077827215 -0.0071725915 -0.0075055407 0.0021641678 -0.07908155 0.026758432 -0.0042939656 -0.07381658 -0.00159459 -0.07654116 -0.10116912 -0.10494705 0.055278778 -0.10409346 -0.10406896 -0.015705815 0.062704936 0.03364906 0.004157047 0.18121722 -0.04797788 0.030331885 0.017981233 0.051163845 0.071770325 0.08609477 -0.03736691 -0.11169524 0.035858117 0.04491322 -0.046232495 0.065891854 0.058624677 -0.06778878 -0.02818868 0.0107883485 0.0002074319 -0.10418117 0.017443674 0.0029322095 0.025533177 0.07710736 -0.10093063 0.031932756 -0.039760247 0.008641356
how 0.110548556 -0.09141938 0.10395371 -0.11141314 0.03142243 -0.07903386 -0.17086112 0.030443616 0.03817855 0.050419424 -0.104593664 -0.06514156 0.0049427766 -0.10451055 0.14413074 0.105851196 -0.0020706856 0.01573006 0.15283439 0.09536495 -0.15474123 0.12107849 0.0928022 -0.075193115 -0.16030173 0.18925074 -0.15169789 0.04094822 0.10959085 0.12391611 0.036084548 -0.13002674 0.08903399 0.19322036 -0.13237734 -0.13372038 -0.012651026 -0.13745855 -0.1597024 -0.13953952 0.12665787 -0.061977416 0.13806388 0.11799313 0.15627438 0.0386366 0.08377976 -0.07204912 -0.15828113 -0.17204918 -0.23445393 0.12401739 0.074805886 0.08581246 0.15630282 -0.04422212 -0.24892263 0.086053506 -0.14011405 0.07872973 0.13602276 -0.10560122 0.15816024 -0.049613107 0.08727678 -0.12055384 0.13948469 -0.12834558 0.040041827 0.16666235 0.07767503 0.13151455 0.11443666 0.080579236 -0.14630595 0.1447191 0.18506518 0.24422847 0.10651238 0.109562024 -0.057726745 -0.1695601 0.11918859 0.13350223 -0.15776294 0.106468014 0.1475406 -0.14545628 -0.18429396 0.1984759 0.11200816 -0.083563715 0.086494595 0.18243389 0.12640728 0.07133657 -0.19341682 -0.046866704 -0.23940928 -0.114835724
like -0.044617075 -0.11824857 0.20919766 0.0001379475 -0.009503814 -0.020726338 -0.033177454 0.28257436 0.13097319 -0.1327617 -0.03605834 -0.16679935 -0.09356832 -0.024712998 0.029621493 0.1601186 -0.12899065 0.02019693 -0.023664268 0.12884803 -0.0309642 0.10480212 -0.021749148 -0.07258587 -0.10215829 0.105806015 -0.06413407 0.06377855 0.20436065 0.121191144 -0.17299165 0.21220955 0.118040964 0.067001686 -0.26834106 0.015180118 0.01958894 -0.11562294 -0.055435963 -0.05029179 0.04328563 0.00036023674 0.13584884 0.15038358 -0.014912635 0.118779086 0.08578711 0.013100751 -0.087630905 -0.06531497 0.0009830128 0.044037182 0.17941897 0.07606359 0.005679208 -0.042512808 -0.08294931 0.024875939 -0.0777957 0.057833586 -0.059068784 -0.13009149 0.09086091 -0.19473167 -0.024180064 -0.031118492 0.021949135 -0.19001326 -0.20334011 -0.05277137 0.09553391 0.04820886 -0.00024756067 0.15057193 -0.06964909 0.022090856 0.058436625 0.023764232 0.07532278 -0.0018174727 -0.060087524 -0.017658142 0.06586969 0.07417775 -0.006286986 0.16723011 0.019219536 -0.017304588 -0.10849031 0.088840045 0.114458606 -0.1351344 0.08961907 0.084613234 0.0112991715 0.030785955 -0.10128855 -0.0055376487 -0.043571267 -0.097758755
one -0.007982277 -0.030461103 -0.007620048 -0.1297526 0.096967876 -0.12568615 -0.08537142 0.026388217 -0.0029092818 -0.035437245 -0.2596466 -0.0802231 -0.080854505 -0.0207525 0.013912767 0.03334971 -0.07916709 0.1895621 0.020244896 0.03840496 -0.09458903 0.11771199 0.07922068 -0.07687189 -0.02265323 0.0041242694 0.07646125 0.07188087 0.06175557 0.10983785 2.9063143e-05 0.05659468 -0.014392882 0.009804235 0.029930824 -0.13736022 0.17775759 -0.22541127 0.029684583 -0.10810925 0.0740052 -0.0045541814 -0.114622265 -0.042932063 0.066529356 0.10882653 -0.002907337 -0.116338044 -0.0015015907 -0.09830539 -0.16622825 0.019320412 -0.041085027 0.041367866 0.08325514 0.031935144 0.0012403209 0.04593817 -0.010083737 -0.00570455 0.092690974 -0.19634722 0.106445074 -0.029936427 -0.06957652 -0.044489697 0.16239925 0.035203807 0.014513837 -0.03298025 0.046937745 -0.040305406 0.08164174 0.12490914 -0.02529519 0.051338978 0.0096162455 0.122721545 0.054191913 0.004435883 -0.07638157 -0.097302705 0.09307202 0.07966731 0.016370647 -0.012357796 -0.04040006 -0.05169438 -0.103398964 0.069985084 -0.04717839 -0.010936752 0.054735 0.1162233 -0.026386594 -0.061364673 -0.019220335 0.05627236 -0.10583658 -0.07483787
no 0.09063574 -0.056316346 0.10045797 -0.083636224 0.15034334 -0.006203302 -0.09351801 0.08590102 0.035280995 -0.09918728 -0.17067347 -0.13799922 -0.07960642 -0.09866362 0.09876405 0.015367891 -0.14161593 0.013775784 0.17870156 0.14329992 -0.027284857 0.0013561819 0.10038926 0.022182344 0.014766229 0.10073037 -0.045136042 0.14698115 0.0018241742 0.045008197 0.024506755 -0.14117263 0.132346 0.09858807 -0.07370537 -0.06778146 -0.089407995 -0.14321212 0.021905169 -0.19303633 0.12186965 -0.12864557 0.11330985 0.056113213 0.16064896 0.28235257 0.08702526 -0.22925508 -0.124502085 -0.054727424 -0.23287292 0.119212255 0.13475055 0.034069408 0.06680244 -0.07817124 0.0031746998 0.13282585 0.011447502 0.10577721 0.182776 -0.07486926 0.11559728 -0.07362369 -0.15810245 -0.028717972 0.05830096 -0.021752693 -0.14929377 0.075020395 0.062313195 0.025598815 0.104547136 0.06861578 -0.11592661 0.08245326 0.035452034 0.16386488 0.09479637 0.03939655 -0.11082649 -0.05733796 0.030508988 0.05091965 -0.051959038 0.015403986 0.030812573 -0.11794988 -0.13849548 0.09701982 0.020751892 -0.13586022 0.017700732 0.065681964 0.14604422 0.07794323 -0.10646408 -0.22816102 -0.1424818 -0.18737027
rabbit 0.07751775 -0.09073621 0.15790193 -0.1216879 -0.045224905 -0.03296535 -0.010439535 0.15520926 0.11613918 -0.16039883 0.006011251 -0.13503622 -0.18915772 0.041078247 -0.07489454 0.10147469 -0.000630797 0.22342609 -0.09145912 0.18602851 -0.08701589 0.14880688 0.055031776 -0.08054515 -0.03419758 0.19272739 -0.005081682 0.04556081 0.15777811 -0.03876428 0.0069033797 0.081448026 0.04666589 0.04360709 -0.14362653 0.017584693 0.026180293 -0.22101305 -0.076733224 0.104902156 -0.033214707 0.005206077 -0.018979065 0.14227757 -0.0013659855 -0.07847157 0.12592304 0.043629516 0.057539787 -0.036553353 0.05160871 0.016900957 0.041353248 0.12770991 0.11887219 -0.037225872 -0.1101834 -0.024215946 -0.1257642 0.05971574 -0.0077918353 -0.21846591 0.096692726 -0.16233185 -0.026578099 -0.027754314 -0.025044495 -0.14862421 -0.053989056 -0.09151473 0.042053036 0.02076029 -0.020490156 0.22807948 0.028404742 0.003607573 0.08762367 -0.051871255 -0.025202867 0.15802222 -0.020082511 -0.10917093 -0.091293216 0.13231668 0.09980615 0.1928944 0.05398417 -0.032387875 -0.15565898 0.03803312 0.018881712 0.08436971 0.07802384 0.12437436 0.070043825 0.065910965 0.0076802145 0.015942805 -0.10335769 -0.10850872
when 0.16172864 0.0014831575 -0.02392202 -0.06774717 -0.021874513 -0.06926642 -0.11870432 0.01611999 0.05398898 -0.08331586 0.01399375 -0.046100855 -0.008616031 -0.00529358 0.083283626 0.028587732 -0.04525776 -0.057422515 -0.025139956 0.098266155 -0.09886236 0.07121267 0.036958475 0.03946454 -0.12478357 0.02513596 -0.01103333 -0.01905568 0.15736483 0.0705326 0.010385638 -0.05154469 0.0029378436 0.14203018 -0.03890307 -0.051436238 -0.027539508 0.02060386 -0.15214144 0.119886234 -0.005874599 -0.06753013 0.068983346 0.056990795 -0.028969983 -0.005688641 0.12840189 0.007979682 -0.0035236878 0.0038356278 -0.021052623 0.015447761 -0.014427553 0.12183348 0.05673534 -0.039821204 -0.0711015 -0.08423949 -0.09571138 -0.056433123 -0.020931656 -0.054458376 0.07563434 -0.16385882 0.07470481 -0.05053644 -0.055456415 -0.15788318 -0.08880862 0.06659421 -0.042588428 0.10674594 0.087228574 -0.009701406 -0.035407867 0.04204382 0.07185977 0.06878669 0.008018072 0.1322039 -0.00036604152 -0.08787527 0.02899437 -0.0032928982 0.029013941 0.12483262 0.059860013 -0.10334721 -0.07447588 0.016773015 0.16438425 -0.0725582 0.14834478 0.044651896 0.00311189 0.036569092 0.08355486 0.0071941186 -0.010982474 0.019055977
all 0.11871338 -0.03591551 0.077053145 -0.15865986 0.034200463 -0.17233044 0.010594844 0.07752134 0.09883303 -0.15525481 -0.021321101 -0.14108533 -0.1418956 -0.12924053 -0.0021976233 0.13494109 -0.0053254957 0.24608329 0.03661167 0.043791126 -0.072459325 0.1792591 0.09750981 -0.12929001 -0.1270289 0.15195227 -0.055665053 0.09321989 0.09365405 0.013019297 -0.082555905 0.11464374 0.0583592 -0.014495661 -0.1836356 -0.043130312 -0.1475643 -0.15677415 -0.056655664 -0.05781959 0.036065217 -0.09891472 -0.0059791943 0.07868203 0.15799117 0.033044394 0.12472597 -0.15083058 -0.084103175 -0.11917296 0.021933276 0.03621052 0.12691776 0.16952913 0.1268216 -0.11085004 -0.18836065 0.17662942 -0.122659184 0.051649984 0.13258529 -0.14895612 0.058291253 -0.11837486 -0.030790787 -0.1769128 0.15630306 -0.09062229 -0.10661645 0.082624 0.097127415 0.07158676 0.10809297 0.03452586 -0.04812417 0.069165915 0.08702821 0.035596486 0.08805378 0.08717661 -0.032794327 -0.09385672 0.038291413 0.1383763 -0.063965835 0.0945241 0.09641007 -0.16047321 -0.112413965 0.07659953 0.090080544 0.031388484 0.09214972 0.15538925 0.18087102 0.08108672 -0.08424714 -0.054975774 -0.070338726 -0.13269715
see 0.020045847 0.025896948 0.0037737414 -0.063118905 0.04170805 -0.06914246 -0.0050109793 0.016588917 0.0060078762 -0.022830186 -0.042479977 -0.0035425697 0.15723816 -0.13260756 0.15333058 0.053670447 -0.023976782 -0.08811449 0.0672066 -0.0017783612 -0.035198476 0.06381041 0.0677217 -0.119084775 -0.046527155 -0.0017874171 -0.22393997 -0.027962772 -0.011389075 0.008839332 -0.19837928 -0.03142456 0.09500416 0.1031873 -0.0017877015 0.015468229 -0.016630221 -0.030582631 -0.10342644 -0.18068878 0.025551992 -0.081030145 0.07159044 0.02653713 0.019161703 0.15626295 0.05100719 -0.032920897 -0.12843695 -0.067803875 -0.083666824 0.06743227 0.14286655 -0.09502474 -0.034227017 -0.14349733 -0.0035104053 0.03537203 -0.027539225 -0.07916378 0.098308295 0.032357145 0.062418107 -0.01932898 -0.013289803 0.026155995 0.013199981 -0.057407945 -0.057764184 0.105863556 -0.057698317 0.20360765 -0.009890672 0.019841053 -0.10134515 0.07195249 0.020004861 0.14178564 0.025616074 0.08220202 -0.14454213 0.028328694 0.009739771 -0.02517417 -0.15624382 0.13260591 0.10337227 -0.015411043 -0.080077775 0.07797779 0.07258166 -0.27951416 -0.013923077 0.1133034 0.08880697 0.13512304 0.050737232 -0.11016355 -0.06631966 -0.024318565
into 0.08947987 -0.04225746 0.033418447 -0.14384195 0.03825907 -0.16733687 0.047339175 0.16446277 0.16890009 -0.16146317 0.04714589 -0.14425531 -0.08452211 0.014834791 -0.0044798083 0.09176589 -0.030385785 0.18067826 -0.042737886 0.19279164 -0.11067593 0.1853077 0.034547802 0.024132965 -0.20712152 0.06775028 -0.06815805 -0.043580767 0.24204038 0.096450984 0.003920923 0.21781084 0.1095994 0.020544264 -0.12567917 0.04531406 -0.028931806 -0.22691691 -0.086444855 -0.00875235 0.0462426 0.034256358 -0.010323415 0.17784643 0.038478687 -0.09782395 0.093561366 -0.06293848 0.026831336 -0.052814074 0.054256696 0.07627789 0.009055107 0.20787947 0.0695238 -0.01360901 -0.077800855 0.071029216 -0.079613306 -0.03536372 -0.056795802 -0.28931546 0.03523945 -0.17490463 -0.054576714 -0.10981638 -0.007776768 -0.16743506 -0.22147718 -0.106964186 -0.01734668 0.09702661 -0.006920807 0.14753085 0.04791448 0.045575902 0.09331592 0.016594157 0.03630594 0.05780742 -0.039159283 -0.09520325 0.0048121135 0.0130019495 -0.04392474 0.12749708 0.17061926 -0.14086123 -0.08241814 0.08523041 0.076407164 0.013391254 0.1738293 0.10702209 0.15858978 0.010155014 0.037583914 0.059946198 -0.014576657 -0.2637622
what 0.08221389 -0.022359429 0.08376048 -0.10598322 0.07971844 -0.13127255 -0.008025057 0.068674915 0.13371426 -0.044420674 -0.07197644 -0.06883276 -0.043332595 -0.16339022 0.054744657 0.15462875 -0.026269563 0.014864916 0.03982559 0.1259226 -0.049839914 0.046296995 0.05189765 -0.11646544 -0.13603155 0.15892214 -0.0731755 0.118118085 0.01349071 0.00503626 -0.0727554 0.08065277 0.0108679645 0.09070832 -0.10392433 -0.06110327 -0.0261186 -0.104941145 -0.07237414 -0.11969289 0.113544114 -0.006403273 0.12401466 0.054777347 0.105347835 0.10242783 0.13229327 -0.023996392 -0.13611528 -0.15335687 -0.080212995 0.005414992 0.05647943 0.036344808 0.0991099 -0.007060571 -0.09553137 0.06603466 -0.064533874 0.067928605 0.077053785 -0.16196816 0.10896355 -0.07577409 0.025183583 -0.107401915 0.052051064 -0.043776877 -0.1536003 0.043189034 0.110621884 0.08110959 0.057361204 0.11639387 -0.0073954486 0.041515697 0.17616135 0.15367137 0.042495575 -0.021546664 -0.043112244 -0.1137944 0.013472333 0.065620124 -0.15613058 0.010226032 0.17362796 -0.07285302 -0.10218272 0.099638514 0.08748049 -0.14592104 0.009721228 0.11031679 0.08559206 0.12321608 -0.09178295 -0.08292035 -0.06450326 -0.072683
there -0.043271907 0.04388526 0.0069071245 -0.11540653 -0.04513364 -0.028920218 -0.08034936 0.0045810645 -0.019277465 -0.0083559705 -0.21724863 0.075902656 0.047201596 -0.10503578 -0.013783368 0.18482012 -0.10040593 -0.07363028 0.074915335 -0.020436969 0.05367178 0.073365845 0.049896568 0.052285563 -0.050758474 0.08471117 -0.030708047 0.15984792 -0.0062826504 -0.07212906 -0.19269039 -0.024753194 -0.003902976 -0.054527663 -0.031454433 0.07928821 -0.07457733 -0.0042540133 0.057126287 -0.06945223 -0.087449014 -0.091790415 0.07436069 0.10362361 0.036561117 0.22201733 0.021672975 -0.1537534 -0.028781053 -0.03559865 -0.19057037 -0.022698712 0.064764984 -0.067404285 0.1056365 -0.06830877 -0.0247852 0.24124992 0.0549664 0.20734215 0.1389401 -0.009472768 -0.08476237 0.02857422 -0.1627443 -0.0621351 0.09764028 -0.01319118 -0.112791635 0.14043704 0.043700766 -0.088811815 0.017234398 -0.039067753 -0.0891112 0.034325488 -0.020111693 0.09804143 0.09371968 0.06889141 -0.019840425 -0.052335676 0.069194674 0.15659907 0.027723372 -0.032070845 -0.015320679 -0.021576826 0.00022188324 -0.008890076 -0.03004274 -0.08476642 0.08382209 -0.019014485 0.021364784 -0.026872633 -0.08747051 -0.12700826 -0.055837397 -0.052703716
think -0.0056835352 0.102299884 -0.061478097 -0.00721651 0.04327686 -0.071609594 0.016959375 0.06305565 -0.07310245 -0.0137181645 -0.029833727 0.0035806457 0.001920633 -0.1043956 0.17042255 -0.036391433 0.0053323945 -0.19999407 0.09355971 -0.07515709 0.07552746 -0.049366068 0.016828502 -0.13241772 0.041588455 -0.058586903 -0.09873467 0.029591456 0.022580015 -0.084153675 -0.16886324 0.06835227 -0.054452553 0.015033972 0.043159395 -0.022444945 0.078016005 -0.023990123 -0.044461433 -0.26254782 -0.12021273 0.04852228 0.042220864 -0.17389987 0.0004191838 0.085986234 -0.1024707 0.0010984502 -0.013302416 -0.023551771 0.019976115 -0.0041309013 -0.071589634 -0.005952521 -0.12850781 -0.033822075 0.116346166 0.083268 0.04311497 -0.19816527 -0.027707497 -0.06246207 0.06516524 0.01475281 0.006878083 -0.018128013 0.07588361 0.11712467 0.08927004 -0.07262639 0.018511744 0.10484028 -0.063957006 0.16473477 0.07318647 0.020450618 -0.04387945 0.16804475 -0.117992796 -0.08031276 -0.12945232 0.11200811 0.04444777 -0.049147528 -0.14537594 -0.040032648 0.044245414 -0.052126847 -0.046399526 -0.105723605 0.032082476 -0.24334803 -0.015705084 0.19361137 -0.021926783 0.01863097 -0.06527769 -0.043975092 -0.046912353 -0.06592306
me 0.054870714 -0.1565839 0.07013148 -0.06828712 0.060310204 -0.1631901 -0.032530796 0.14035514 0.20870858 -0.12687655 -0.16535273 -0.0757994 -0.07949361 -0.12886517 0.20728223 0.12361161 -0.087207265 0.052192006 0.10796839 0.113592476 -0.13013592 0.17145614 0.018120375 -0.019001503 -0.09613414 0.1633763 -0.16947372 0.05388959 0.063487455 0.16759045 -0.07692915 0.06830951 0.105217226 0.08691892 -0.10325749 -0.09024737 -0.1503165 -0.11878819 -0.07484425 -0.11213866 0.05268822 -0.103454135 0.17633362 0.09865494 0.08345382 0.16382827 0.04973745 -0.14147097 -0.17034522 -0.1796515 -0.15614083 0.078929074 0.123133376 0.14475441 0.1100596 -0.09563502 -0.039025765 0.15788724 -0.06277709 0.08928089 0.12003578 -0.07478913 0.06431872 -0.02110906 -0.074624054 -0.039818197 0.19306375 -0.12755339 0.00074958475 0.1545532 0.22045851 0.1540173 0.19258103 0.21078706 -0.048885636 0.043511733 0.11530055 0.0875955 0.12741545 0.11551585 -0.14445405 -0.04976469 0.14177293 0.09145768 -0.23159607 0.106397554 0.14491157 -0.10142381 -0.08106324 0.11094294 0.04411709 -0.14823732 0.104012996 0.14255325 0.17851985 0.1548629 -0.16169408 -0.03273094 -0.10311856 -0.11880997
if 0.06252685 0.102619275 0.034865383 -0.012199826 0.09672429 0.012855572 0.027152458 0.10300779 -0.0012446825 0.033107243 0.033902593 -0.06293248 0.12586151 -0.18579616 0.069804326 0.011141071 -0.013762667 -0.058348168 0.056536134 0.11332724 -0.006952873 0.086138874 -0.031033237 -0.16641259 0.00043083914 -0.015857996 -0.102458216 0.063947245 0.09884414 -0.05192767 -0.069693 0.13875735 -0.0054435334 0.06250109 -0.051911965 -0.0030844323 -0.08048937 0.06789874 -0.1868206 -0.2422759 0.012446702 -0.009883212 0.219081 0.045782473 0.04813722 0.07879031 -0.0078235 -0.056059524 -0.047860295 -0.12433856 -0.011791505 0.02001709 0.07144498 -0.009293653 -0.082193285 -0.07060432 0.033321843 0.08828534 0.03940764 -0.10136557 -0.06860702 -0.1390586 0.08348268 -0.02393202 0.07422367 0.022623135 0.12031471 -0.0021374847 0.059123404 -0.057501324 0.10069181 0.069918886 0.010232647 0.091641866 -0.006304643 0.05571589 0.08395707 0.1830916 -0.044509947 0.002545637 -0.13795961 0.013675018 0.119273834 0.059779387 -0.21238135 0.09450979 0.07514668 -0.14280353 -0.02124919 0.01968609 -0.062378414 -0.16368134 -0.014215815 0.05047363 -0.040909924 0.13463894 -0.112345554 -0.08726535 -0.044084013 -0.020459998
thought 0.068375304 0.12183077 0.03639794 0.006996574 0.07814937 0.008568701 -0.087028384 -0.09614211 -0.011802104 -0.17453898 0.065814525 -0.009046699 0.058098927 -0.034884933 0.15413398 0.062365834 -0.01016842 -0.07594126 0.01979718 -0.041627605 -0.09872703 -0.003060088 0.22544326 0.0067647016 -0.13999014 -0.07392695 -0.07631999 -0.13002935 0.043153226 -0.07179571 -0.22735234 -0.0001265062 0.003322756 0.12237579 -0.091441385 -0.120529585 0.031638794 -0.017607864 -0.02063675 -0.15991803 -0.0076986034 0.090991765 0.058236763 -0.04581174 -0.056428332 0.2443827 0.047541764 -0.051326398 -0.032542527 -0.037181262 -0.0010923487 0.11323284 -0.013818512 0.053814653 -0.08434285 -0.07892061 0.03655472 -0.058944523 -0.09222429 -0.10936319 0.058277193 0.082841046 -0.05618809 0.0710904 -0.07518848 0.025178961 0.054406717 -0.024143977 0.049810458 0.10909686 -0.0033205608 0.12581901 0.005578769 0.020481857 -0.18920107 -0.06904478 -0.01747218 0.029527558 -0.048016414 -0.062092282 -0.07642868 0.016838977 -0.060235303 -0.008525331 0.015632546 0.06785061 -0.0015800355 0.061048295 -0.053165566 -0.023023194 0.21008423 -0.06562486 0.090267606 0.028731266 -0.034013465 0.040328898 0.029677097 0.09008802 0.06367999 0.027028834
could 0.13244164 0.12363514 -0.097002506 0.05490062 -0.06330949 -0.084775805 -0.009606772 0.06915568 0.05386269 -0.10943109 0.13622887 0.056422513 0.19272222 -0.02062536 0.10865151 0.056100346 0.052039873 -0.14721033 0.037684284 -0.031499162 0.04207473 -0.029831614 -0.008063797 -0.0024474082 -0.029548302 -0.06636893 -0.22109558 -0.038224775 0.112685956 0.09483232 -0.19290029 -0.044968955 0.09609376 0.04153564 0.13075976 -0.095688134 -0.2083328 0.08439073 -0.16456205 -0.0370222 0.071609534 -0.04417915 0.21044958 -0.023100302 -0.07257897 -0.03624991 0.054662123 0.1109774 -0.028927654 -0.030101342 -0.06991577 0.063893214 0.031792123 -0.030138206 -0.03593816 -0.0013590495 0.027776474 -0.061949003 0.011496334 0.009618118 0.13079566 -0.08090281 -0.10905602 0.028787263 0.09974573 0.006817376 -0.026048606 -0.054148853 0.080415316 0.12749651 0.078291185 0.10288574 0.018922826 -0.07056356 -0.031383578 0.1345841 0.02810803 -0.021453157 0.08618129 0.1325115 -0.05139372 -0.032006808 0.112701684 0.01904104 -0.18033305 0.16768779 0.21567014 -0.11900101 -0.042464044 0.033738837 0.05988832 -0.051113937 0.076138705 0.095988184 0.069118366 0.07398727 -0.045029946 0.0003443946 -0.05250396 0.04312951
time 0.11105228 0.052425917 -0.062340938 0.024867045 -0.019819804 -0.012642415 0.0014753635 0.025358543 0.020691713 -0.101602234 0.030047003 0.021125559 0.06172422 0.036503874 0.122771636 0.026513714 -0.010095274 -0.07640536 -0.047975406 -0.1279448 -0.03421867 -0.024006855 0.066764235 0.02678778 0.053211294 -0.0557092 -0.08417196 -0.010196255 0.034884103 0.07072621 -0.09314296 0.038838625 0.115288414 0.06317902 0.022625629 -0.06481901 -0.007451146 0.06904261 -0.09410789 -0.02844355 0.04890645 -0.0048436616 0.05268163 -0.03595878 -0.025140824 0.03458964 0.08554145 0.06580056 0.026869003 0.07031824 -0.050084125 0.070023425 0.061588038 0.0076493095 -0.013746375 0.023313906 0.005892375 -0.06606494 0.00092646724 0.01426473 0.07230157 0.009194642 -0.02925235 -0.00421089 0.062131755 0.025352528 7.0228416e-06 -0.010181216 0.010934794 0.039428297 -0.05217831 0.10386969 0.04925753 0.026057428 0.009817549 0.08936483 0.029357389 -0.009049418 0.12772946 0.083173685 -0.0013240153 0.011753241 0.06628707 -0.046140216 0.045867354 0.10147752 0.012375462 -0.014429925 0.01743745 0.06693296 0.0067397323 -0.09350349 -0.009946954 -0.027110975 0.11354309 0.007581546 -0.024259143 0.059380356 0.059802916 -0.0060377577
about 0.0462544 -0.024288213 0.13045755 -0.085533306 0.1587515 -0.1271924 -0.0225965 0.16915095 0.026302915 -0.1274485 -0.08854935 -0.09533542 -0.109873235 -0.18042025 0.05255271 0.0996466 -0.047353394 0.1473747 0.17428778 0.2517791 -0.1413849 0.14130647 0.12821704 -0.13081606 -0.057137664 0.10634189 -0.19858609 0.11334188 0.17604241 0.08144894 -0.07401812 0.1399389 0.1319233 0.17892309 -0.09167397 -0.070572406 -0.072346054 -0.10617372 -0.12957433 -0.17777643 0.17710975 -0.08416335 0.16649735 0.06390723 0.06782358 0.07068834 0.1336594 -0.037554555 -0.09552229 -0.17264481 -0.11297318 0.1341231 0.037522458 0.17749907 0.021099448 -0.06705716 -0.099287264 0.12851234 -0.055265334 0.034600265 0.010348826 -0.10914304 0.1786223 -0.14595938 -0.037903335 -0.10651578 0.09660361 -0.069746256 -0.13402306 0.11180914 0.15848978 0.1277155 0.13860132 0.1469955 -0.15571806 0.19381115 0.11056348 0.119121335 0.02893001 0.19000234 -0.20217009 -0.13842916 0.15732308 0.09707572 -0.24832937 0.175435 0.108221225 -0.097023115 -0.1548136 0.13598767 0.076585226 -0.16339955 0.14921124 0.0944464 0.099621564 0.07813394 -0.12234863 -0.099731386 -0.13686523 -0.168198
went -0.024965277 0.027662471 -0.008692059 -0.008058202 -0.034032986 -0.012233785 -0.1065851 -0.03779342 -0.101011015 -0.098671846 -0.042125896 0.04968743 0.08290967 0.059445217 0.05552165 -0.1083236 -0.016593818 0.031383675 0.044743635 -0.0671039 -0.009988682 -0.04547586 0.12601207 -0.03632457 0.014872799 0.017037502 -0.15119557 0.026551599 -0.0017839031 -0.0025815119 -0.06651417 -0.028025875 0.018144745 0.0012682877 0.023091624 -0.042543355 -0.009656583 0.08228174 0.032492395 -0.017203538 0.006582261 0.03635603 0.06446759 -0.018698283 -0.11216445 0.09773877 0.058659203 0.103687495 -0.000346981 -0.003107689 -0.07647327 0.020390268 0.0070190066 -0.053695884 -0.00068109535 -0.03127857 -0.048134908 0.030228645 0.020454139 -0.02028807 0.06671909 0.096788384 -0.041823886 -0.00042281032 0.08988425 0.106306404 -0.090582885 -0.023599543 0.110829405 0.14181423 -0.03919057 0.05830119 0.019650964 0.05055258 -0.10853896 -0.025270596 -0.026573963 0.08977694 -0.019320633 0.06561572 -0.04982288 0.030321388 0.0139078805 -0.03921315 -0.028842162 0.049261156 -0.047149617 0.050188377 -0.041599497 -0.04282431 0.08381449 0.05744984 0.041849334 -0.054812867 -0.0624621 -0.01483029 0.001006486 0.041050006 0.0081629045 0.025196584
were 0.118873656 -0.07295501 0.06416522 -0.13311501 0.0974119 -0.19527124 -0.04949114 0.22850652 0.06581468 -0.15696405 -0.06375009 -0.17095695 -0.018730476 -0.1487732 0.023463791 0.17720164 -0.12227127 -0.07909806 0.1835698 0.22527806 -0.19418275 0.12345631 0.11367614 -0.20444125 -0.11199228 0.13428429 -0.118496455 0.15910907 0.13235113 0.06573904 -0.040735513 0.15777947 0.090886615 0.016237348 -0.18624713 -0.14305645 -0.14038116 -0.16337417 -0.13365893 -0.15040013 0.083766624 -0.15946728 0.1163358 0.08546663 0.15092984 0.1271091 0.072004534 -0.082835734 -0.14661752 -0.13418913 -0.096744165 0.16665627 0.10500386 0.17777045 0.065194674 -0.15076114 -0.062064596 0.20735842 -0.1382801 0.05920646 0.101108424 -0.18197456 0.107478715 -0.09849635 -0.12277311 -0.09875964 0.18237635 -0.112325676 -0.062243376 0.14313565 0.15570146 0.10751134 0.12282005 0.1780892 -0.13853037 0.13952449 0.018545393 0.09623523 0.13514829 0.14365752 -0.10382773 -0.13316396 0.06293719 0.10714004 -0.15307416 0.074633434 0.21634056 -0.20681182 -0.13728546 0.05715061 0.1463103 -0.10296281 0.18809329 0.060114924 0.144351 0.107491024 -0.096584715 -0.100525245 -0.20269299 -0.111792594
off 0.097743444 -0.02913 0.15627469 -0.15979378 0.052510947 -0.04326612 0.0029484113 0.12120059 0.14047483 -0.08810054 -0.17479919 -0.21863982 -0.010412566 -0.05931813 0.07891744 0.07131164 -0.05173904 0.0101434775 0.05879394 0.15400328 -0.058122247 0.1028218 0.0064488584 -0.12435405 -0.07876274 0.09349017 -0.044473216 0.09780662 0.14542028 0.06330346 0.08655447 0.07744931 0.053949464 0.0672095 -0.13232407 0.0020306334 -0.026041213 -0.18218015 -0.17964147 -0.083529584 0.11114797 -0.07818502 -0.055245955 0.09742392 0.050696872 0.15632088 0.12795968 0.023531226 -0.12079502 -0.20368311 -0.086849086 0.0061258003 -0.050084077 0.10498656 0.018553082 -0.042423777 -0.11063711 0.09197084 -0.14072247 0.079769544 0.035554018 -0.16049881 0.12442805 -0.10862648 0.012089008 -0.074104056 0.106735036 -0.00014582237 -0.12667704 -0.01989238 0.13449326 0.20377927 0.022201885 0.118850425 -0.08614631 0.0022517706 0.13767976 0.1116771 -0.03998986 -0.0059629623 -0.08985386 -0.14629544 0.06513313 0.082323834 -0.116490304 0.09440034 0.18411826 -0.0846279 -0.13453579 0.05315354 0.025519565 -0.1246468 0.07632501 0.12119265 0.008436266 0.11414573 0.0007569236 -0.07677822 -0.08823994 -0.046819884
said 0.1569928 0.10347127 0.05434505 0.012344247 0.1314642 0.12850563 -0.006726297 -0.12116618 -0.16992393 -0.042849604 0.04966753 -0.021131828 0.026017733 -0.039778497 0.065640725 -0.0034646678 0.058707938 -0.048513003 -0.043802477 -0.12332661 -0.099737726 -0.10270193 0.15747862 0.069267415 -0.07585662 -0.06312493 0.03273944 -0.15889548 0.0007790815 -0.021036435 -0.06893771 -0.17472011 -0.10810215 0.19609176 -0.03391016 -0.16843578 0.0036315518 0.040901612 0.03637761 -0.03640809 -0.07359476 0.107313365 -0.018756684 -0.115723245 -0.0573707 0.21301338 -0.041232575 0.0035113373 -0.08849232 0.05726757 0.06130245 0.082898 -0.07652439 0.0462482 -0.15374373 -0.115041785 0.05475865 0.001969783 -0.08424531 -0.11063418 0.039812464 0.15813865 0.003551146 0.05442665 -0.034870498 0.18485415 0.14184633 0.030587764 0.18798779 0.07916775 -0.07638831 0.03900984 0.0024892578 -0.026502982 -0.12899478 -0.07109529 0.027882509 0.18692452 -0.076695286 -0.09296126 -0.1739961 0.015553437 0.010641825 -0.10688938 0.018306369 -0.06502795 -0.080366135 0.11546368 0.03812033 -0.062358137 0.16333193 -0.15199184 -0.01704751 0.045657396 -0.05411496 0.007945918 0.017589431 0.06134978 0.03096132 0.09047998
by 0.019733403 -0.101550564 0.085493475 -0.04171044 0.05184979 -0.016899263 -0.06811506 0.13898866 0.13437444 -0.13853395 -0.055753164 -0.117895745 -0.20158403 0.010599566 0.0101214275 0.060295485 -0.045908842 0.18838517 0.03471321 0.0893059 -0.071392335 0.15867954 0.07563726 -0.08270822 0.009932184 0.064955845 -0.06521209 0.16098538 0.12771693 0.06773338 -0.050833084 0.13993278 0.11018529 0.023430474 -0.049858384 -0.059188306 -0.02798252 -0.16117884 -0.09381935 -0.14102763 0.10132798 -0.07501531 0.09407769 0.052134696 0.0870039 -0.045453243 0.084623896 -0.11182943 -0.012816323 -0.07533918 -0.060036883 0.08532571 0.093444526 0.12363087 0.087072395 -0.034790747 -0.01654528 0.08024128 -0.09226102 0.06365438 0.023752077 -0.06946974 0.10685633 -0.18294454 -0.049368836 -0.10285938 0.07286185 -0.11816229 -0.152415 -0.056164276 0.1680951 0.09975237 0.07869979 0.036408134 0.02853781 0.104353555 -0.00432228 -0.007723108 0.13186924 0.10299805 0.021447888 -0.07321705 0.06053416 -0.014079424 -0.08065801 0.08666654 0.028335275 -0.10775408 0.010381627 0.032221902 0.07679609 0.034325514 0.049702935 0.13140859 0.008157522 -0.017972585 -0.11611844 -0.085511334 -0.022389019 -0.10346303
get -0.078928344 -0.03791133 0.014841142 -0.09816226 -0.01798042 -0.11695449 -0.0056187133 0.04891337 -0.047122333 0.08862275 -0.24006587 -0.105508186 -0.04597519 -0.13302653 0.057148255 -0.035309814 -0.042614155 0.0024959007 -0.023346148 0.06940647 -0.056237377 0.025155736 0.14686671 -0.08445714 0.030125784 0.06765085 -0.09712349 0.0723728 -0.042040598 -0.01851985 -0.10761278 0.034062877 0.1292076 0.035418835 -0.08539994 0.03828022 0.041328516 -0.14004356 0.07838464 -0.14383252 0.013074292 0.005284371 -0.15210034 -0.081032015 0.010691069 0.14270967 -0.040064014 -0.08823525 -0.07281489 -0.13646293 -0.14566308 0.023047492 -0.049845062 -0.13728438 0.01823926 0.061076097 -0.03494589 0.008402441 -0.0143343285 0.08327727 0.04974913 -0.063229285 0.049905453 -0.0029141176 0.002338943 -0.019393519 -0.046644446 0.010301445 0.09637798 0.11575511 0.017311854 0.1372401 0.025989994 0.064307176 -0.107648835 0.03456224 -0.01998209 0.17393024 0.09053655 -0.06955343 -0.10069968 -0.032812316 -0.045709807 -0.016915563 -0.028380267 -0.1287359 -0.045048572 0.06008489 -0.16749756 0.053404782 -0.064801484 -0.16595113 -0.0797455 0.02596173 0.014081019 -0.012206357 -0.037133787 -0.046457466 -0.012384477 -0.0068436065
do 0.06566988 -0.055381484 -0.026150811 -0.07975036 -0.006032779 -0.12441656 -0.059574764 0.066055626 0.03138354 0.027119193 -0.083110064 -0.093751185 -0.029999182 -0.020562967 0.14552154 0.103758715 -0.03596209 0.018920857 0.06539668 0.044800762 -0.07951858 0.022271855 0.08708828 -0.10529307 -0.056518905 0.08942316 -0.09209436 0.03511193 0.08964729 -0.024039153 -0.13747968 0.03794951 0.05036525 0.096799515 0.006630304 -0.07062447 -0.031133423 -0.11343221 -0.040109254 -0.14510952 0.11043052 0.011204515 0.03987036 0.08664966 0.030677099 0.150202 0.016633894 0.012704271 -0.1323206 -0.13315372 -0.13244064 0.07265409 0.0562944 0.039826468 0.036228936 -0.054671805 0.03755579 -0.020399444 -0.07500769 0.015918449 0.097504534 -0.036996584 0.080330335 -0.026708208 -0.044341423 -0.072070174 -9.443314e-05 -0.0043768627 0.029893965 0.08090183 0.028631061 0.11783949 0.019171169 0.02763482 -0.09606709 0.04317293 0.026836284 0.05914227 -0.036562484 0.024827909 -0.04778131 -0.06632358 0.07336726 0.002735265 -0.08236304 0.042200953 0.063659154 -0.11162395 -0.050730005 0.06035761 0.10765598 -0.07797818 0.11800776 0.13559584 -0.018286332 0.092772454 -0.014863239 0.009514451 -0.044753864 0.010971376
would 0.06874192 -0.008628977 0.04054109 -0.03873248 0.01638149 -0.077811606 -0.007857432 0.04538042 0.05956648 -0.16273014 -0.035548452 -0.04434855 0.019765709 -0.00678806 0.039536916 0.023435872 -0.06292902 -0.021415878 0.017424867 0.12648393 0.03605259 0.061453294 0.07128431 0.023804452 -0.02824708 0.057663556 -0.08291181 0.0097892 0.021376323 0.10404059 -0.06841635 0.06911609 0.075109825 0.05182191 -0.102101624 -0.04474509 -0.11540077 -0.00613727 -0.14203629 -0.13231021 0.11937214 -0.07971515 0.1925574 0.09182409 0.028649006 0.0603464 0.13222012 -0.024210013 -0.08647675 -0.05023012 -0.013221156 0.033135876 0.14305647 0.030773338 0.046423394 -0.042509288 -0.023439227 0.065432884 -0.074614204 0.05225707 0.0092411395 -0.10463568 0.041938316 -0.07373884 -0.16468918 -0.05614431 0.031573843 -0.106824525 0.01158961 0.055263057 0.02479686 0.042701833 0.031669952 0.07973491 -0.062323157 0.086081065 0.08479235 0.06338487 0.07089093 0.072216064 -0.004802719 -0.046973646 0.05359908 0.03371274 -0.076937325 0.10428865 0.07740191 -0.099532105 0.026589798 0.06261297 0.056078095 0.014319569 0.06147629 0.060176052 0.017599203 0.079058 -0.07385972 -0.02043712 -0.075554565 -0.013095526
much 0.037863646 0.0050712293 -0.017315883 -0.06556259 0.021451207 -0.01723586 0.03894028 0.051155545 0.09446061 -0.028325386 -0.050616484 0.054439228 -0.0017116538 -0.020279426 -0.01792491 0.060463298 -0.053175103 0.020087877 -0.03273571 0.058750987 0.027350988 0.015222818 0.06697307 -0.052108943 -0.023606937 -0.06670105 -0.10152251 0.05799592 -0.02515974 0.0122387735 -0.1057342 0.017982831 0.073012635 -0.087548286 -0.017069785 0.04266341 -0.073595054 -0.027798787 -0.049907386 -0.058411017 0.04700237 -0.049920645 0.05606385 0.042410262 -0.045744948 -0.018969228 0.0719885 -0.09775106 0.007497364 0.05274746 -0.06389405 -0.003611772 0.023208551 -0.02763909 0.048727795 0.025205951 -0.01064326 0.03130807 -0.057819255 0.09504656 0.063407265 -0.014237028 0.05765215 -0.030992692 -0.08847101 -0.017901681 0.015717974 -0.06952677 -0.07898312 -0.0023423624 -0.012173869 0.10259787 -0.04218413 -0.01913624 -0.03242078 0.08568159 0.005884441 0.043090858 0.05635894 0.020105414 -0.020973282 -0.043037143 -0.02735497 0.07328574 -0.067544416 0.07149582 0.06449604 0.018922174 -0.0747789 0.00767192 0.011703114 -0.061121188 0.038290072 -0.003696626 0.0249601 0.04354328 -0.049160052 -0.05939687 -0.022263506 -0.07754055
feet -0.073086716 0.06465454 0.006958596 0.020157758 0.054744493 0.036397133 0.019053837 0.036924575 -0.00011096615 0.0046232613 -0.07691698 0.0010043217 -0.023653122 0.05987319 -0.0031979221 -0.02233021 -0.01052456 -0.04570996 -0.026108813 0.074225985 0.090008266 -0.032390527 -0.038390957 -0.027443958 0.020721968 -0.036943037 0.11306333 0.04807688 0.009665402 -0.068999834 -0.11233836 0.019447846 -0.13348927 -0.04165688 -0.047654524 0.024254529 -0.060471598 0.077945516 -0.03940422 -0.043887235 -0.012231128 0.033135302 -0.024839042 -0.038018238 -0.0075081494 0.047664814 -0.015665662 -0.023207944 0.06373802 -0.014664442 -0.04487733 0.030541753 -0.048990093 -0.01364928 -0.07105576 0.0022515212 0.006049524 0.003368772 0.028232273 -0.0014980908 -0.032788277 -0.024414914 -0.021776848 0.03111086 -0.07429017 -0.004173135 -0.023634898 0.06799731 0.008748057 -0.10080593 0.069851294 0.0067051244 0.03617357 -0.04226762 -0.0012261604 -0.07533335 -0.014602334 0.07711056 -0.04119453 -0.07749771 -0.040680327 0.076544546 0.010392427 -0.06461024 0.018373441 -0.047647096 -0.0037095188 0.0033143826 0.080399066 -0.020764599 -0.023831416 -0.041283026 0.027750373 0.03530521 -0.013776979 -0.042959895 -0.07194721 0.025107171 0.063272506 -0.0064265924
through 0.054438133 -0.15754738 0.18268664 -0.15107736 0.023852797 -0.048262388 0.048250627 0.078266576 0.13618198 -0.12257675 -0.00014104077 -0.14749621 -0.08577188 -0.07568863 -0.02638268 0.17585787 0.0781793 0.11971493 -0.02251797 0.121258125 -0.142195 0.13625233 0.061330225 -0.05453475 -0.09237576 0.12168611 -0.0405166 0.047551442 0.15457976 0.024482701 0.043232813 0.11329582 0.037931077 0.0014704398 -0.17334579 0.04414002 0.098914474 -0.16550262 -0.019011512 0.01852424 -0.023340316 0.06115805 -0.013434029 0.06990951 0.05906982 0.035277788 0.06842208 -0.05658697 0.06846759 -0.06947233 0.044382274 -0.0077938465 -0.033774976 0.12265269 0.041254405 0.0022119782 -0.06833229 -0.020713696 -0.094099626 -0.0424434 -0.07090621 -0.06823346 0.020192657 -0.18826994 0.017308947 -0.12552792 -0.027595025 -0.0923987 -0.046105646 -0.025782797 0.027314225 0.10428986 -0.022604857 0.12781262 0.036389347 0.050577253 0.09151656 0.07711929 -0.009378997 0.035744607 -0.053075705 -0.05696748 -0.05129643 0.0035353792 -0.072115146 0.17020798 0.07931086 -0.09472172 -0.15954874 -0.0073461244 0.014780735 -0.03516703 0.06451295 0.13686551 0.1065331 -0.0075301765 -0.039622594 0.071332864 -0.11161837 -0.12935078
door 0.025386903 0.07099471 0.015327523 -0.019538444 -0.13799931 -0.137867 0.060809694 0.10375499 0.0215807 -0.06956949 0.124068156 -0.11882061 -0.010074821 0.01602568 -0.04595656 0.008768705 0.03272771 -0.03964464 -0.09380789 0.111620724 -0.10174423 0.055926166 -0.013238361 0.032007635 -0.09236324 0.044205993 0.025706451 -0.040088102 0.13076791 0.046868395 -0.009030649 0.12539794 -0.056952886 0.050502222 -0.041884173 -0.0013153533 -0.01606452 -0.02652244 -0.03890347 0.043842662 -0.0090384865 0.052532367 0.043847248 0.036511242 -0.038142744 -0.06485721 0.06777346 0.13095853 0.015896559 -0.026821654 -0.033589855 -0.059225183 0.016615678 0.062735915 0.028290331 -0.005929493 0.060977418 -0.058563888 -0.04299539 -0.07370524 -0.012446692 -0.08334208 -0.045539267 -0.09346021 0.09404805 -0.10715789 -0.10396307 -0.18968408 -0.059332054 0.032598287 -0.015034909 0.10105028 -0.0634417 0.08899181 -0.035103604 0.02096805 0.09636263 -0.06994954 0.028134357 -0.017146405 -0.0026952906 0.001970186 0.030495783 -0.056826778 -0.052478228 0.13571416 0.078041494 -0.03509653 -0.12709735 0.095684566 0.0665246 -0.012980472 0.13456453 0.06595709 0.07392236 -0.033252377 0.07723145 0.07955837 -0.002544652 -0.105868526
alice’s 0.09570894 -0.07722737 -0.0021829838 -0.11446576 0.18957978 -0.004548349 -0.13312356 0.15664326 0.09959534 -0.099629276 -0.10018933 -0.07878648 -0.16584748 -0.024375245 0.006517775 0.047065534 -0.15459105 0.12845668 0.11969977 0.08998576 -0.019223757 0.074921794 0.07245268 -0.020661175 -0.0335093 0.06676485 -0.10078449 0.12201177 0.007233285 0.114540815 -0.105343804 0.09514222 0.07617938 0.11121044 -0.029141776 -0.14222609 -0.056860838 -0.05165105 -0.07887804 -0.055971246 0.08422928 -0.1708711 0.11514412 0.111220576 0.16698653 0.065710746 0.10848137 -0.14175485 -0.052012376 -0.057227816 -0.1250586 0.1583256 0.060415104 0.13544926 0.112525694 -0.07056392 -0.041716777 0.081214495 -0.1122914 0.08842771 0.10497356 0.004814004 0.12233602 -0.1887752 -0.21697553 -0.1423781 0.1023618 -0.014949688 -0.08147564 0.10940798 0.18015628 -0.0046275337 0.07828365 0.051169258 -0.06826012 0.100843295 0.07706618 0.055150863 0.10851062 0.04005713 0.014109312 -0.030785957 0.112593055 -0.0054800888 -0.10380128 0.031076094 0.069004126 -0.043250453 -0.030852074 0.016984483 0.0065437765 -0.0635855 0.03318728 0.094220765 0.12566276 0.06537747 -0.1763605 -0.13685268 -0.05975135 -0.06065143
is 0.015224086 -0.0020977666 0.049121846 -0.056570455 0.06229086 -0.06289721 0.08012744 0.08710974 0.1506604 -0.18040004 0.031157559 -0.014641956 -0.07577213 -0.0448734 -0.023438081 0.10597898 0.032360706 0.03874307 -0.0037846323 0.10567832 -0.0040388475 0.07843169 -0.015020704 0.04143519 -0.019813018 0.055377707 -0.08205487 0.08483003 0.13784303 -0.034783863 0.020697834 0.06904646 0.018473638 0.04383688 -0.12739648 -0.0398002 0.0016701388 -0.121471696 -0.09202418 -0.08338718 0.04100172 -0.020712378 0.038699638 0.13114043 -0.0057617817 0.0155210495 0.01814254 0.004775265 -0.024755737 -0.14846024 0.10355877 0.03962054 0.060983945 0.14205627 0.033429377 -0.010306564 -0.051130492 0.014970219 -0.015847666 -0.023686908 -0.035269495 -0.13063233 0.102141075 -0.0732637 0.070406236 -0.003140451 0.0042185397 -0.09000666 -0.07639325 -0.031782016 0.009514373 0.14800893 0.04045755 -0.0005358898 -0.023891347 0.019612107 0.07469791 -0.036160357 0.024522936 0.059045196 9.0564194e-05 -0.07057276 -0.01993409 0.02534243 -0.107437134 0.047451828 0.11020971 -0.15334377 -0.13519867 -0.030499702 0.0032926858 -0.0704203 0.015978308 0.1998398 0.029021885 0.047848586 -0.0022699665 0.014868028 -0.048198525 -0.048912015
use -0.020730063 -0.030621579 -0.04171546 -0.017546672 0.0054156254 0.00051646365 -0.053252388 0.08047589 0.076841176 -0.14058028 -0.065717064 -0.10275767 0.0014437456 -0.01949699 0.050522964 -0.034088187 -0.07084796 0.07712008 -0.0075642094 -0.000111600384 -0.06521523 0.075241774 -0.051729586 0.027056666 -0.040105402 -0.049059335 0.0064693512 0.0025580642 0.025145996 0.00025071783 -0.0972325 0.05088304 -0.021693245 -0.0015619446 -0.010567795 -0.019304998 -0.043109626 -0.037492912 -0.063939825 -0.08910587 0.005346543 -0.08083295 0.10627057 0.016279154 0.04314209 0.002994253 0.071171045 -0.11468369 0.054639075 0.03424447 -0.034492355 -0.00042161846 0.0001466095 0.10892891 0.0004768523 0.027780747 -0.016501512 -0.03935418 -0.07399773 -0.03022758 0.059329662 -0.083413064 0.034344565 -0.02170203 -0.117793255 -0.010946304 0.08089199 0.0017007622 -0.012801742 -0.07506429 0.09373567 0.052150678 0.033404127 0.11193657 -0.008210494 0.023928598 0.03787155 -0.055529863 0.08646696 0.04936448 0.03858014 0.03583158 0.059875503 0.015920958 -0.014902065 0.033432767 0.023563601 -0.09211072 0.07455895 -0.025043778 -0.06828972 -0.06605466 0.0044192313 0.015465004 0.046118278 0.011412778 -0.028153516 -0.04402769 -0.02827137 -0.0139393145
nothing -0.0976219 -0.00915686 0.03669936 0.012986482 0.062995404 -0.039421104 -0.03520003 -0.016533256 0.039067645 -0.019218978 -0.18826856 -0.0024475362 0.08120056 -0.12352442 0.051721256 0.056590725 -0.13789767 -0.08918476 0.06412263 -0.050596997 -0.032682687 -0.028043777 0.08405718 0.068407424 -0.047224678 0.009347906 -0.06850551 0.099508844 -0.05560562 -0.051179957 -0.16699113 -0.037174262 0.065131485 -0.024932401 -0.018361157 0.006001369 -0.026062444 -0.044450503 0.07254724 -0.1539347 0.04268957 -0.14207941 7.492048e-05 -0.040645443 0.09343425 0.121112995 -0.05764993 -0.18915634 -0.052987177 -0.084681205 -0.20680203 0.018060468 0.05477814 -0.019662194 0.11648374 -0.08418201 0.0007954184 0.13280763 0.068199 0.035946414 0.018890677 -0.07218133 0.061861258 0.12088321 -0.13942379 -0.019878775 0.14691886 0.010306245 -0.09071332 0.06117433 0.08048796 0.037563663 0.06990165 0.0014090487 -0.04595386 0.028233599 -0.07995338 0.06415881 0.10158651 -0.08983191 -0.026257733 0.03154273 -0.00084725395 0.016430626 -0.020299876 -0.15569301 -0.06692627 -0.078676224 0.01974195 0.0732522 -0.08598035 -0.13726944 -0.036792483 0.018775983 0.03717866 0.012801949 -0.05095051 -0.16268826 -0.09237691 -0.030616453
say 0.06910726 0.008904645 0.08197066 -0.13556941 -0.008018905 -0.14241101 0.021056136 0.111907125 0.01085011 -0.019468801 -0.09001565 -0.09340471 -0.0025717495 -0.050076697 0.11547859 0.08157106 0.004411846 0.10593822 0.04227481 0.049906895 -7.550293e-05 0.06102127 0.0782169 -0.08361433 -0.12319905 0.04879754 -0.10041086 -0.008777361 0.051023785 0.048705984 -0.13525447 -0.05709821 0.13010168 0.021639328 -0.10232501 -0.01908708 -0.07141461 -0.13296871 -0.0028824823 -0.18888456 0.08293423 0.003861062 0.028866844 0.023277232 0.06770656 0.10412779 0.10124825 0.015461547 -0.19178715 -0.06388812 -0.12973167 0.009259606 0.08163342 -0.02931197 0.06624116 0.03137309 -0.060770564 -0.011286472 -0.13713416 -0.028100401 0.046775457 -0.15223649 0.16689596 0.021221131 0.033703905 -0.067711994 0.11361839 0.04282014 0.010598208 0.037809175 0.06157051 0.11450164 0.034757696 0.089224346 -0.04216146 0.022717433 0.111745305 0.08963275 0.039454393 0.09981973 -0.1719372 -0.08256858 -0.030777242 0.0679176 -0.048772372 -0.018418513 0.17725915 0.0048365165 -0.1684283 0.08496328 0.045371827 -0.12875246 0.034064118 0.16596386 0.045514595 0.051783413 0.02626405 0.015849842 -0.07108974 0.02603119
found 0.053233042 0.14543363 -0.11901208 0.028936284 -0.13993207 0.035120178 -0.016411241 -0.07184413 -0.029532563 -0.0038924837 0.056977615 0.06508952 0.14327584 0.1384957 -0.030645143 -0.08662792 0.08923043 -0.09016016 -0.024541495 -0.0697731 0.002135884 -0.14205548 0.016272655 0.0631431 0.025778953 -0.116608754 -0.10438669 -0.09961222 0.062343195 0.09244753 -0.0051937117 -0.09535496 0.11201667 0.05700636 0.11499392 0.010994296 -0.13552718 0.2136337 -0.10383107 0.12906626 0.026489368 0.028818343 0.08753194 -0.016169913 -0.10937202 -0.1422342 0.09672245 0.06892726 -0.0047799605 0.13865829 0.012543062 -0.08844502 0.03527393 -0.033889614 -0.013372525 0.083437726 0.030719534 -0.124706686 0.013912061 -0.099977516 -0.007491472 0.09444961 -0.06990601 0.02102949 -0.02087167 0.16018909 -0.045880415 -0.13650978 0.003915639 0.010516119 -0.16772132 0.0646862 -0.056315906 -0.1671426 0.007944232 0.020598719 0.024550112 -0.05466714 0.10251587 0.0791036 0.041320596 0.0742455 0.01876543 -0.08061719 -0.06383571 0.12649098 0.0463192 0.121365376 0.020662012 0.020144047 0.08147557 0.084091716 -0.07518616 -0.18400082 0.04381856 0.101182215 0.046883404 0.019855672 0.060502134 0.11994777
wonder 0.014199112 -0.0058414578 0.042635106 0.03543438 0.11583731 -0.13877255 -0.03705458 -0.0075266096 0.025781453 0.0998478 -0.07217395 -0.06710217 -0.07135169 -0.12067483 0.10822004 -0.020978425 0.004768574 -0.12236358 0.0993816 -0.056019794 0.094015814 0.030701142 -0.017330239 -0.07302872 -0.076228544 0.081424065 -0.03803281 0.13047095 0.09894881 0.028538512 -0.086654544 0.03453265 -0.074729435 0.07780936 -0.10002136 -0.086828075 -0.0043481663 -0.003244838 0.040386397 -0.14689207 0.0015604345 -0.03281726 0.038621105 0.07190374 0.07664936 0.11914902 0.038616996 0.033054635 -0.054061215 0.008534342 -0.07062703 0.050824307 -0.018108228 -0.01328125 -0.074550495 -0.009901078 -0.012780906 -0.046766628 0.02347303 0.0051090345 -0.052568235 -0.092084594 0.045529116 0.052158535 0.0154205 -0.014568192 0.11311729 0.026818966 0.008986271 0.0005506044 0.09045437 0.028210377 0.028295403 0.15529953 -0.020648561 -0.0286957 0.0011184021 0.06264335 0.0238498 -0.041200712 -0.05425252 -0.07026079 0.06349131 -0.039203916 -0.09040741 -0.029056134 0.049747847 -0.048165638 0.026471209 0.016620098 -0.02483671 -0.118066296 -0.04362846 0.14883244 -0.008599248 0.09215663 -0.11032962 -0.05457483 0.007838115 -0.0912542
they 0.09436379 -0.010835607 0.067247696 -0.06630019 0.15361905 -0.05229993 -0.09538318 0.09385101 0.099844515 -0.07517919 -0.16203068 -0.04620284 0.0069054887 -0.106831275 0.06844778 0.12851539 -0.21211816 -0.025339574 0.053284667 0.16033041 -0.0069267866 0.124655314 0.09073428 -0.23236199 -0.05660249 0.19637577 -0.1933388 0.11542744 0.058837276 0.09193415 -0.055312127 0.02414771 0.0759539 0.09712396 -0.16765553 -0.1476652 -2.370472e-05 -0.088303275 -0.039377794 -0.2520037 0.032970462 -0.15176976 -0.002064766 0.0649812 0.20064396 0.17209879 0.06262791 -0.18595761 -0.11958632 -0.065419994 -0.18455978 0.0782941 0.097996 0.021562496 -0.012544541 -0.16197588 -0.10606183 0.082872346 -0.123753965 0.112222984 0.07953655 -0.12106881 0.009522847 -0.07997863 -0.14355499 -0.13467179 0.16060528 -0.0769905 0.011240654 0.14800581 0.19359171 0.1285347 0.14286028 0.04412822 -0.09970948 0.12935314 0.11907637 0.10100092 0.1082713 0.075612806 -0.14604068 -0.012219758 0.13642025 0.1431024 -0.026148742 0.06456116 0.034422237 -0.16088276 -0.1066192 0.06796763 0.027737653 -0.10763799 0.093871444 -0.0074572437 0.10744647 0.09249305 -0.057474818 -0.11597341 -0.060254592 -0.11497321
which 0.019827733 -0.039790776 0.13323693 -0.12166264 0.07605443 -0.05640463 -0.067559116 0.0149264345 0.10050585 -0.019214088 -0.10123961 -0.0076102363 -0.08108816 -0.11982828 0.06913755 0.08311768 -0.03496014 0.10569036 0.109054655 0.03764506 -0.0662767 0.03046087 -0.005609111 -0.063469626 -0.14129628 0.06149141 -0.07292082 -0.0023253453 0.04171127 -0.0071699186 0.03586157 -0.00872205 0.082315154 -0.005969544 -0.1293363 -0.05040747 -0.069124445 -0.09857977 0.00058973324 -0.09529251 0.0045934254 -0.07641103 0.029741835 0.10447337 0.068855904 0.13620462 0.102080785 -0.07108184 -0.1011878 -0.11536067 -0.048093837 0.023547366 0.074155405 -0.011471523 0.034691125 -0.13645469 -0.0077185547 0.06978509 -0.06901203 0.11563016 0.08879817 -0.004818244 0.07380312 -0.051855195 -0.084379345 -0.08637705 0.046239216 -0.055975772 -0.02553327 0.11274821 0.01161959 0.079131536 -0.007513556 0.026999101 -0.124250196 0.057098888 0.040547244 0.09616639 0.13767137 0.06996672 -0.074209236 -0.028963864 0.061713506 0.04513679 -0.06538506 0.07137388 0.039174497 -0.022756958 -0.11533889 0.020387566 0.07811389 -0.06854509 0.057788584 0.05951404 0.029513987 0.08147959 -0.10827524 -0.053285412 -0.03480563 -0.10511529
key 0.044344585 -0.06863662 0.07454132 -0.06374029 0.036727577 0.060036812 -0.01094852 -0.01032261 0.06849903 0.05781507 -0.08096099 -0.06416449 -0.088742994 0.0012711443 -0.09501274 0.04208283 0.025293998 0.2017311 0.015873732 0.06897597 -0.021920329 0.03458015 -0.06986971 0.07455301 -0.050400782 0.01144071 0.11336086 0.12615328 0.029982934 -0.011373774 0.12781611 0.047287755 -0.08168605 0.090494104 -0.029371645 -0.010371766 0.029635018 -0.058573406 -0.078243844 0.030189533 0.028821995 0.021390606 -0.00369383 0.050477155 0.072163776 -0.0033389933 0.05100783 -0.037798245 0.043434262 -0.056551367 -0.05697621 0.058826603 -0.020827038 0.0075628515 0.032090634 0.00067500677 -0.07773211 0.027690977 -0.03682169 0.061294958 0.0023315798 -0.06630217 0.025891224 -0.029282905 0.011737578 -0.055735327 0.017681351 -0.02822346 -0.012436027 -0.025197363 0.01704644 -0.070795976 0.06696529 0.094258256 -0.03518375 -0.054551616 0.05696192 0.05984075 -0.06740659 0.044781785 -0.02923664 -0.13322437 0.041473433 0.048680823 -0.042602714 0.025609834 0.0567351 -0.04007069 -0.0058540134 0.026184691 -0.0045211953 0.06455321 0.022092406 0.020441398 0.060616393 -0.04828572 -0.07118603 -0.040303204 0.010039009 -0.04276148
‘and 0.046994857 0.01729245 0.035099857 0.002748833 0.031606782 -0.08832485 -0.046725564 -0.018364115 0.05027784 -0.041856494 0.06085943 0.0145533085 0.07362818 0.039530285 0.030497765 0.073447295 0.07073195 0.027957957 0.05407047 0.021091511 0.034441117 0.030671155 0.043362375 -0.056792773 -0.045447912 0.031619444 -0.21334277 0.038837068 0.017463984 0.022322902 -0.070915505 -0.07211934 0.080979116 0.040446337 -0.05197626 -0.083955936 -0.060457554 0.06610556 -0.16061005 -0.14145155 0.14848307 -0.03524292 0.15953815 0.117046446 -0.02976939 0.080119595 0.120344125 -0.06584603 -0.08501398 -0.072259836 -0.02346149 0.008951703 0.060310967 0.011188886 -0.033739977 -0.019390687 -0.013992737 -0.023420012 -0.11458237 0.024957668 0.087271415 -0.063365445 -0.045348518 0.010733444 0.030779172 0.022719849 -0.0022584451 -0.110067315 -0.08665601 0.12519625 -0.018455913 0.05489807 0.077995874 0.02978497 -0.07507883 0.07271431 0.00020163262 -0.015301143 0.0692577 0.10004734 -0.053043853 -0.02950769 0.029470924 0.02079638 -0.14002533 0.081157394 0.114230774 -0.08700702 0.018638186 0.045876224 0.12625682 -0.07054825 -0.015997596 0.05290366 0.099570476 0.16477697 -0.004395361 0.10726025 -0.03442167 0.02898224
shall 0.042090125 0.051024504 0.033413026 0.028333863 0.0063493177 -0.08013886 0.062888734 0.14766502 -0.043408077 0.0502127 -0.063646264 -0.09329455 0.01640642 -0.0037518966 0.14404139 -0.016098758 0.059858 -0.11684648 0.08957632 0.1014304 0.1570439 -0.06898056 -0.0059416723 -0.015694616 -0.00054364477 0.10511453 0.00021114963 0.06293277 0.034913775 -0.03572894 -0.15476315 0.028008357 -0.12112804 -0.070952356 -0.094676904 0.039629243 0.05748244 0.07157742 -0.0011518925 -0.13770486 -0.03733047 0.028807929 0.14209843 0.02707024 -0.008669048 0.05123782 -0.056882087 0.0821887 -0.016623488 -0.025010144 -0.07416636 -0.008546817 -0.014989279 -0.039242476 -0.15001503 0.01257305 0.1013277 -0.048857197 0.04411219 -0.007607814 -0.07156802 -0.1491973 0.06110902 -2.5789952e-05 0.04820854 -0.044596985 0.04763998 0.05658641 0.035268977 -0.024489282 -0.02844786 -0.0046557197 -0.022709714 0.1106128 0.048500154 -0.0030770972 0.046332818 0.047355823 0.0089009125 -0.008236099 -0.15076576 0.067451574 0.046703357 -0.03663952 -0.04523999 -0.052527487 0.04089519 -0.088558614 0.07117556 -0.116180554 -0.05412666 -0.13458066 -0.013021308 0.17453872 -0.08459964 0.04205579 -0.018300502 -0.008324614 0.07571017 -0.07064404
then -0.038664937 -0.03279176 -0.018907303 -0.0020257905 0.007858393 0.04221428 -0.10007264 0.006124966 -0.08241307 -0.017165476 -0.13183953 0.062916264 0.062436733 0.005404874 0.021413593 -0.042035833 0.02240319 0.0042164414 0.061983567 0.069804884 0.035086446 0.021887453 -0.023740469 -0.038162 -0.010498677 0.07465632 0.02048457 0.01139266 -0.030377746 0.06250969 -0.04732246 0.02435026 0.004123144 0.054706577 -0.03705634 -0.09968797 -0.0031728314 0.095012166 -0.0042719976 -0.03446088 -0.030783901 -0.09317342 0.03444064 0.03789898 0.005043365 0.1327024 -0.0049267802 -0.07177291 -0.044465806 0.04562573 -0.074517325 0.018938351 -0.025559835 -0.016588628 -0.09072061 -0.033135146 0.033106543 0.02069927 0.07106714 0.1238358 0.02988723 -0.016970381 -0.0062666964 -0.035143975 -0.032125816 -0.020825433 0.029874573 0.06877438 0.039634995 -0.0052595595 0.07670898 0.012824038 0.13763125 0.10650005 0.0002412002 -0.035764422 -0.018853046 0.0919826 0.057357542 -0.029173266 -0.021033578 -0.03469559 0.113188036 0.03939553 -0.08993772 0.009632927 -0.07377855 -0.012413276 -0.0319549 -0.11130756 -0.0775214 0.030867275 0.007316543 0.0019753044 -0.061011422 0.052957244 -0.13119486 -0.05132555 -0.053066462 0.009943399
either 0.01311921 0.00554811 0.051586352 -0.07043917 0.021396097 -0.07223586 0.0023233504 0.068937175 0.06563262 -0.06146531 -0.016990883 -0.0492101 -0.07266999 0.031846166 0.02588301 0.05605021 -0.085235946 0.008143621 -0.029087316 0.19610104 -0.024422545 0.011991477 -0.04184362 0.002957416 -0.1169442 0.07425435 -0.04523007 0.11215781 0.08824422 -0.008583226 -0.0036333466 0.07914255 0.0607755 -0.046646822 -0.10449864 -0.10340616 0.014038436 -0.042790577 0.027914103 -0.029857293 -0.06470395 -0.074520014 0.0377985 0.05115807 0.08510935 0.04898071 0.03834882 -0.07718108 0.018546235 -0.016358761 -0.019802345 -0.01762703 0.036229618 0.0956279 0.052137423 0.03301274 -0.05137943 0.08209266 0.006145061 0.094330445 0.021734115 -0.095629334 0.021333162 -0.041405004 -0.053286985 -0.08120795 0.009106907 -0.05856598 -0.035551295 0.009285044 0.05288568 0.047193896 0.07847284 0.06698677 0.009683489 0.044593427 0.09868082 0.041993674 -0.018645331 0.037705336 -0.07050404 -0.004711163 -0.025135415 0.018429238 0.014750499 0.0301762 0.04488981 -0.09827451 -0.057657618 0.009433126 -0.0005488149 0.05030776 0.16058183 0.11368221 0.07105337 0.031188123 0.006868338 -0.081692964 -0.0061278064 -0.03467607
moment -0.058445424 0.06734886 0.0075359563 0.053980708 -0.006815271 -0.01156391 0.0758666 0.15439504 0.0674786 0.035103355 -0.010084386 -0.050403383 0.04002862 0.06248273 -0.050752003 -0.086921684 0.025778906 -0.083110936 -0.08983599 0.0162978 0.084138945 -0.041839357 -0.030082898 -0.022089323 -0.020251764 -0.02566014 -0.029311039 0.0067164637 -0.031063616 0.00656141 -0.08250241 -0.035260387 -0.07868905 -0.08093191 -0.0570293 0.059880976 0.0066590924 0.0501142 0.026602456 -0.023863357 -0.03084185 0.026423516 -0.03312527 -0.020615414 -0.09306258 -0.047440466 -0.022330493 0.10861186 0.011951908 0.06817372 -0.01583086 -0.004360821 0.00274984 -0.06811949 -0.06540969 0.027875429 -0.017566415 -0.07556595 0.04516015 0.036514048 -0.0056967055 -0.012965936 -0.03175883 -0.029956112 0.03306903 0.073799014 -0.057863705 -0.009757654 0.056489147 -0.031785287 0.009158989 0.0031606783 -0.03149202 0.095296204 0.079972655 -0.06290669 0.046322647 -0.045499373 -0.02433606 0.03593161 -0.026414108 0.044484925 0.022189165 -0.0040814416 0.032808505 -0.0049930713 -0.007854673 0.09698027 -0.00442659 -0.036181625 -0.06975616 -0.019815259 -0.036967915 -0.07334075 -0.04521137 -0.07786272 -0.0046303105 -0.0007670678 0.051405955 0.049815934
going -0.004606055 -0.01561012 0.039882887 -0.0063203047 0.003717098 -0.02710022 -0.048432153 -0.0078066527 0.0034854242 -0.0035254 -0.1432761 -0.018659959 0.0065721488 -0.08552943 0.12945133 -1.2783101e-05 -0.11819945 0.0019181046 0.046368413 -0.031986065 -0.03790202 -0.043977078 0.06842102 -0.018220313 0.001126558 0.0464875 -0.073263004 0.040410824 -0.03633636 0.0053787725 -0.094884664 -0.1181383 0.13960478 0.03859825 -0.063883945 0.04147753 -0.02635943 -0.08186588 0.015114432 -0.14740169 0.08954965 0.009285572 -0.0048538744 -0.01893433 -0.041503493 0.11716484 0.009044236 -0.019783676 -0.053930763 -0.097934075 -0.1110668 0.03530452 0.08993923 -0.04993796 -0.0059488243 -0.03551074 -0.014323979 0.065325126 -0.05796901 0.058368847 0.028626256 0.013771964 0.10141854 0.101249985 0.001533367 0.08973002 0.0007763216 0.01758494 -0.038482834 0.15152086 -0.004468374 0.08661469 0.011222709 0.057385586 -0.11117272 0.042875197 0.06537265 0.06469174 0.027430812 0.032845497 -0.020858228 -0.057854094 -0.0049276045 0.014192272 -0.005397659 -0.027252324 0.037679978 -0.045921054 -0.040054634 0.005841079 -0.002483814 -0.15243639 -0.021940442 0.01420645 -0.020006722 0.00079385366 -0.018406885 -0.052437898 -0.09729499 0.0012560685
too 0.0070138993 -0.0038385051 0.061925083 -0.044222753 0.076560855 -0.053273655 -0.051473938 0.020283954 0.04243549 -0.018336464 -0.10617184 -0.03895777 0.01607266 -0.15121758 0.0592022 0.1338619 -0.0329742 0.16818294 0.033243556 0.047717527 -0.055905577 0.039740294 0.07704561 -0.002287793 -0.07646367 0.049831647 -0.106489725 0.052941624 -0.05701785 0.054454353 -0.085926786 -0.0764149 0.13143735 0.019135073 -0.0685631 -0.018472875 -0.17216006 -0.0768601 -0.002647865 -0.09943447 0.013905397 -0.037804976 0.042558435 0.017086096 0.07798452 0.08249323 0.059298042 -0.051252622 -0.13447154 -0.0936743 -0.105957374 0.034320462 0.10113434 -0.018440846 0.1056368 -0.1158857 -0.10691975 0.13882416 0.008363498 0.08555774 0.11141245 -0.017719144 0.068969846 -0.03737238 -0.110722944 -0.025098886 0.11289643 -0.08133105 -0.083254404 0.047892977 0.037502408 -0.022458313 0.059050236 0.05765997 -0.096369915 0.09209496 0.04352634 0.096935794 0.082971066 0.049090058 -0.08215449 -0.08557508 0.03092717 0.11910493 -0.089776136 0.031258203 0.10660213 -0.009497754 0.027887117 0.03171802 -0.011634384 -0.10639514 -0.022647198 0.0413393 0.080247 0.11025831 -0.04668037 -0.099405125 -0.08719426 -0.05954276
‘i 0.14166546 -0.12962383 0.135468 -0.14938745 0.11810589 -0.14783628 0.008824404 0.06860849 0.14504182 -0.12346795 -0.014367821 -0.12291141 0.02072249 -0.10711096 0.19002034 0.16753684 0.0392985 0.011838922 0.20528258 0.13099676 -0.07772276 0.194838 0.045302417 -0.21327022 -0.18037339 0.20275499 -0.11662959 0.09108608 0.14252293 0.114251345 -0.05870877 0.06631148 0.15670049 0.08804824 -0.22207038 -0.15860398 -0.03775435 -0.09388891 -0.109978296 -0.107999764 0.12978208 -0.15693127 0.16869831 0.126613 0.15711789 0.119638346 0.12071339 -0.13442467 -0.06685867 -0.20829764 -0.063013725 0.20238437 0.11715364 0.059410628 0.088071145 -0.13173558 -0.082308464 0.13760926 -0.16156541 0.11804835 0.08656354 -0.16006772 0.1622667 -0.105259426 -0.08055844 -0.105401866 0.11939321 -0.17186241 -0.088555574 0.13180318 0.13582051 0.06858249 0.08349865 0.078076504 -0.0841522 0.09642337 0.073886305 0.112565964 0.027311163 0.06115935 -0.090003274 -0.08182947 0.13853632 0.19300923 -0.087903075 0.19803503 0.069491714 -0.23642184 -0.13345855 0.026956085 0.12882702 -0.14939626 0.10775307 0.17693655 0.088497296 0.15896316 -0.12487918 -0.07802503 -0.0809311 -0.03550796
my 0.07149457 -0.15269715 0.16230296 -0.13344628 0.16093972 -0.13763225 -0.12612456 0.16422543 0.23017637 -0.12760545 -0.15287258 -0.101397224 -0.059798703 -0.18300056 0.15322815 0.16608204 -0.13827541 0.010092968 0.17999114 0.16028899 -0.16103469 0.21527176 0.11139721 -0.0884935 -0.12584572 0.108219944 -0.12631465 0.17552687 0.17649545 0.10148474 -0.13618872 0.11410137 0.08541826 0.17623217 -0.104915 -0.09398697 -0.18886098 -0.10654717 -0.12964581 -0.10927781 0.08336949 -0.22865771 0.16067055 0.20542362 0.20570424 0.118368365 0.15590647 -0.12669006 -0.17170206 -0.1603122 -0.17009589 0.09219049 0.21514378 0.058910046 0.10819235 -0.16512163 -0.12271044 0.15735327 -0.077457264 0.18944769 0.1255392 -0.18627001 0.17928164 -0.12196161 -0.09977864 -0.083928175 0.17728554 -0.07217205 -0.082023345 0.15664837 0.12759033 0.09251857 0.12851591 0.07823791 -0.14646073 0.121111244 0.0991369 0.109518774 0.18499327 0.17993693 -0.0877771 -0.108936876 0.18550497 0.13569848 -0.1298144 0.094156615 0.12425563 -0.18013418 -0.08162172 0.15836059 0.097195916 -0.20419464 0.15041246 0.19204125 0.09969202 0.113718 -0.18166208 -0.1751198 -0.16648796 -0.19756214
eat 0.110480554 -0.07599527 0.14342277 -0.042596888 0.095088996 -0.07229662 0.0014914032 0.02023201 0.1574077 -0.073371775 -0.13167605 -0.12259387 -0.09754 -0.08954736 0.13580233 0.12502311 -0.028014619 0.062378682 0.03272274 0.047971703 -0.03878487 0.096640974 0.08962605 -0.062273394 -0.13316743 -0.016988138 -0.0398068 0.036660705 0.13344824 0.118292935 -0.124460496 0.018042006 0.05288581 0.12687339 -0.16109817 -0.00095475075 -0.13944556 -0.058431126 -0.011215338 -0.12880532 0.0609911 -0.06417888 0.08367813 0.051809885 0.059514478 0.14156522 0.073778644 -0.046890564 -0.0039355247 -0.06518292 -0.032335 0.062300764 0.08849516 0.06867254 0.057998307 -0.15782352 -0.084650666 0.050916016 -0.09648225 0.07487382 0.066585496 -0.079658374 0.049839314 -0.04486845 -0.0634798 -0.009003583 0.17060365 -0.108970314 -0.019885005 0.021105817 0.0352981 0.1543038 0.044968832 0.060522888 0.030123618 0.039109573 0.09779888 0.15780637 0.05548247 0.050834015 -0.15782522 -0.06001934 -0.019083116 0.019535145 -0.007979798 0.07143743 0.12813595 -0.037281662 0.014725991 -0.006186733 0.1433886 -0.1040317 0.09772165 0.10976366 0.02433032 0.09961034 -0.06911335 -0.060546614 -0.03132578 -0.09167223
