764 100
the -0.33994743 -0.20124628 -0.11514526 -0.11942372 0.67905504 -0.39411727 -0.2606744 0.13865565 -0.11087985 0.039948005 -0.7115739 -0.11435861 -0.38853866 -0.10551907 0.15534642 0.041544173 -0.940664 0.409223 0.2781089 0.1772843 -0.21190928 0.0059862775 -0.16391844 0.37098008 -0.16039553 0.15626143 -0.080897704 0.4841091 0.016742202 0.16325684 -0.34580007 0.41288552 0.09447333 -0.03176246 0.13494605 -0.56190574 0.24978642 -0.13623732 0.31634402 -0.31449816 -0.0005961257 -0.35003015 0.15936588 -0.3012405 0.5245595 0.087906905 -0.016840607 -0.81211776 -0.14933611 -0.011871618 -0.2563765 0.11758416 0.16295148 0.23111872 0.044150252 -0.090295725 0.34482598 0.16212153 0.31873494 -0.058012772 0.3013506 -0.2573496 0.25529113 -0.1556525 -0.3859855 -0.2198287 0.24923797 -0.071651675 0.4094948 0.21170872 0.18176384 -0.28109342 0.3209657 0.25776505 -0.13822362 0.5560805 -0.04994355 0.25474742 0.26952323 0.12536807 -0.30068594 -0.120717 0.24867557 0.15044026 0.114816 0.15762562 -0.07776176 -0.37657893 -0.108474076 -0.12409081 -0.37912783 -0.14008363 0.36740422 0.28093985 -0.46969885 -0.13902692 -0.33464167 0.011015041 -0.16587666 -0.4665858
she 0.16314009 0.2741358 0.2520237 0.03694386 -0.11545112 0.25602195 -0.119446084 -0.081418484 0.101169296 0.07998586 -0.44162792 -0.1007156 0.2550194 -0.20543802 -0.1709733 0.3216409 -0.34235257 -0.13559724 0.17336217 -0.062003203 0.19342443 0.29878592 0.0199914 0.11606858 -0.16845769 0.23631464 0.2153932 0.24041663 -0.10965316 -0.33236578 -0.14077921 -0.21103843 0.18384701 -0.022150168 -0.32387552 0.012641614 -0.3210061 -0.22548045 0.06453255 0.024675127 -0.041236464 -0.14785059 0.14295132 0.008435595 0.22275253 0.62726575 -0.18079612 -0.4891201 -0.2010385 -0.17621748 -0.33706474 -0.0001248311 0.2419691 -0.4875783 -0.034735292 -0.2674368 -0.021476688 0.47843742 -0.01700304 0.63209873 -0.0067143645 -0.20333791 -0.20542537 0.20666082 -0.4293888 0.5053467 0.40167126 -0.029620787 -0.3828776 -0.021979285 0.15126675 -0.017429393 0.064096324 0.2983777 0.05075803 -0.09900284 -0.19400568 0.5163024 -0.19870469 0.05634281 -0.34719566 0.08481333 0.036016226 0.22393143 0.12195204 0.18424755 0.025742084 -0.1076212 -0.01184785 -0.10540579 0.038100276 -0.11875367 0.23724334 -0.27270782 -0.019272203 0.15679048 -0.24827474 -0.34960768 -0.082237914 0.09788857
to 0.0067053735 -0.045096748 0.34355488 0.05632 -0.166817 -0.29130685 -0.15744035 0.17849958 0.29209146 -0.24626487 -0.12189565 -0.12616198 0.13636151 -0.21707158 0.08922441 0.088211186 -0.04711437 -0.44477668 0.54819167 0.29583058 0.17692283 0.4212381 0.028064828 -0.4398163 -0.21817979 0.3068147 -0.36042538 -0.1676551 0.13361043 -0.25662944 -0.44021928 -0.1889116 0.2555554 -0.25194663 -0.22175053 -0.07269429 -0.25450018 -0.049703397 0.041943904 -0.19993708 -0.20216517 -0.21586247 0.24830873 0.13434029 0.20761666 0.32488853 -0.16332743 -0.30584303 -0.14870477 -0.12987754 -0.025826583 -0.019337643 0.05055824 -0.10428469 -0.18304686 -0.45288676 0.04343843 0.5915283 0.09407541 0.4387992 -0.0033259357 -0.14145608 -0.086493716 -0.12601544 -0.095456555 -0.19133897 -0.018041903 -0.16769233 -0.32437748 0.2336515 0.44066146 0.47530034 0.27635792 0.30712706 0.05770437 0.22388124 0.02281619 0.18994308 0.061186813 -0.13831186 -0.06957071 0.22500479 0.23525263 0.15609075 -0.1773099 0.34866112 -0.14279269 -0.3573092 -0.07847847 -0.39336908 0.03753395 -0.014215153 0.2433672 0.016154833 -0.27262375 0.31162477 -0.34742832 -0.0983341 -0.0009812468 0.08614955
and 0.2325478 0.017972391 0.19999957 -0.16551912 -0.020735206 -0.18364678 -0.053346734 0.2837107 0.18973024 -0.1574293 -0.07531061 -0.24307881 -0.08519622 -0.041937783 0.28385067 0.23465122 -0.20252158 0.15365303 0.07293055 0.0103015145 -0.05951332 0.26996127 0.11828381 -0.30085078 -0.11294296 0.20088972 0.0025876751 -0.19598304 0.13395593 0.0672185 -0.08019646 -0.16534057 0.19608945 0.118862666 -0.34419402 -0.06419164 -0.0111543955 -0.2917492 -0.23164697 -0.11847799 -0.045266353 0.003733352 0.10406101 0.083020836 0.11481346 0.11515426 0.2863359 -0.10351323 -0.19151855 -0.074211255 -0.17860705 0.005848197 0.31661674 0.029811453 -0.080255784 -0.04762074 -0.026628615 -0.04708776 -0.34376138 -0.21823151 0.16732375 -0.2781319 0.07424072 -0.20984845 0.05190196 0.04694175 0.030866317 -0.37953126 -0.38603398 -0.016107375 0.13446404 0.21303518 0.065639384 0.25552082 -0.04156486 0.06846627 0.118923165 -0.018955035 0.34052995 0.13562614 -0.02238183 -0.121865 0.17833965 0.11948199 -0.018643787 0.37699118 0.18240862 -0.10703012 -0.049491998 0.14333634 0.14226697 -0.08637485 0.35784757 0.023387272 0.26747185 0.27982077 0.13791971 0.19527009 -0.04986682 -0.20987435
it -0.21396612 0.27365422 0.056313522 0.031101536 -0.14336486 0.08604169 -0.20054728 0.20166847 -0.052000273 0.29571575 -0.40936756 0.06208627 0.12605083 -0.29725674 -0.08714915 0.23265454 -0.24968599 0.019179223 0.072210915 -0.0878975 0.18859705 0.1086822 0.14623955 -0.09074072 -0.08476249 0.34071106 -0.15868579 0.23283789 -0.05775665 -0.010424942 -0.3583734 -0.076264225 0.23412143 -0.056623053 -0.1450465 -0.011688294 -0.295596 -0.040915538 0.0610299 -0.027485128 -0.16385 -0.13260868 0.15819564 0.14370076 0.17650364 0.37366128 -0.10255589 -0.27105466 -0.06326174 0.013525947 -0.34335873 -0.09954237 0.32614577 -0.15620333 -0.03672298 -0.20549928 0.06818798 0.29151082 0.08628252 0.29653916 0.11135179 -0.10864513 -0.108063884 -0.15245558 -0.044971377 0.112704046 0.25382897 -0.12031345 -0.26848567 0.27990654 0.16588521 0.012333535 0.16629282 0.11463885 0.016065698 0.11963725 -0.23120877 0.3636001 0.12949987 0.13652413 -0.24453661 0.14558336 0.16130057 0.35333303 -0.040929485 0.11664293 -0.13053456 -0.23197588 -0.033113085 -0.100542955 -0.08125487 -0.22496088 0.20971596 0.1089992 -0.1759164 0.0404716 -0.15844046 -0.20642357 -0.035723925 -0.023039375
was 0.079483956 0.04397081 0.10570444 -0.068649195 -0.08108345 -0.21826331 -0.03265462 0.25230575 0.22445562 -0.21504493 0.023973271 -0.038744636 0.10327842 0.061044592 0.1434858 -0.028559122 0.051208537 -0.261498 -0.06620665 0.082730435 0.11130672 -0.04875741 0.17923248 -0.039433274 -0.1553133 0.041732665 -0.3478833 -0.0804732 0.12374403 0.1137435 -0.31941482 -0.11193468 0.23241015 0.096944846 0.03550114 -0.03732333 -0.42512923 0.06882467 -0.20416792 -0.00092698017 0.023722338 -0.16786088 0.35902813 0.12975074 0.02363233 0.15857165 0.29411212 0.13808784 -0.06185721 -0.016382776 -0.07955391 -0.08309477 0.2183222 0.05864232 0.015570863 0.029058255 -0.008263939 -0.07345779 -0.23789607 0.10159039 0.030580336 -0.2549762 -0.17094368 -0.021499965 -0.07153994 -0.23728116 -0.057781994 -0.33717695 -0.2064093 0.11904945 0.06543917 0.47776377 0.14875638 -0.07131803 -0.18310267 0.11468257 0.013323334 -0.0844312 0.47203657 0.26933587 0.03565666 -0.026400687 0.05828004 -0.0661779 -0.19837265 0.19226941 0.3508581 -0.11017454 -0.09188126 0.013626901 -0.008419246 -0.10514608 0.17939442 -0.13270786 0.36571503 0.28462052 0.15988755 0.06807815 0.048134457 0.113054305
a -0.097199224 -0.09278454 -0.048090614 0.174141 0.33236367 -0.1566183 -0.20253445 0.28388897 0.30932322 -0.12542723 -0.31502932 -0.0479219 -0.15440154 -0.20183401 0.2526236 0.20201991 -0.6457118 0.026760766 0.24795781 0.06152936 -0.1824773 0.105207995 0.05478874 0.29452166 0.099399835 -0.18127027 -0.2200533 0.30191153 0.012369759 0.08213705 -0.46543282 0.020270508 0.18828022 0.16987793 0.14954534 -0.23987111 -0.14748144 -0.16051053 0.1420926 -0.051544312 0.22215833 -0.39094475 0.41766074 0.14792061 0.49385464 -0.017327717 -0.005757737 -0.3378838 -0.16254385 -0.20662975 -0.173556 0.23144402 0.47695282 -0.0936928 -0.047645416 -0.3313897 -0.032795835 0.3417776 -0.056148686 0.14189292 0.2164822 -0.13996631 0.12530027 -0.14187346 -0.5143615 0.09473328 0.28593105 -0.008151952 0.038407188 0.052436836 0.304696 -0.2520837 0.23718105 0.122565895 -0.12154279 0.4002668 -0.06746166 -0.08665862 0.23559459 0.0961485 -0.05227688 -0.043435548 0.10211281 0.10552159 -0.14944552 -0.102728456 0.14196976 -0.08324097 0.10783731 0.096767016 -0.07586805 -0.28298473 -0.0032896176 0.058294706 0.17810988 0.22775462 -0.32400265 -0.15276882 -0.05364457 -0.23916854
of 0.08168662 -0.1682229 0.27768648 -0.27133337 -0.17744948 -0.37192717 0.09571423 0.660051 0.5022252 -0.3158048 -0.14381415 -0.45604452 -0.38124648 0.0054237978 -0.27338356 0.18748234 -0.18098263 -0.20933092 0.12470649 0.32984635 -0.21407771 0.26238438 -0.07445078 -0.14172082 -0.20121749 0.48238912 -0.08135936 0.14445515 0.35459942 0.15519862 -0.12012243 0.20826116 0.07915857 -0.14412858 -0.49076104 0.06352221 -0.19967026 -0.2823924 -0.11071239 -0.10245654 -0.03942101 0.024437783 -0.03651161 0.314966 -0.09093501 -0.0136544695 0.09109988 -0.10220107 -0.03220058 0.010760131 -0.053644225 -0.10568614 0.13561511 0.28468636 0.29033816 -0.09671594 -0.16706866 0.014595351 -0.2933451 0.020874329 -0.016507408 -0.32650113 0.0837276 -0.3468362 0.076959 -0.44790322 -0.04333537 -0.23077494 -0.29644704 -0.12188654 0.10504089 0.26103213 0.029076444 0.1537038 0.09750298 0.07569331 0.2415872 -0.18684164 0.19428101 0.14928094 0.20911461 -0.18324006 0.04240314 0.10173189 -0.061161235 0.120600715 0.27115822 -0.061680116 -0.3951005 -0.022838622 0.19757444 -0.13555789 0.24704935 0.32729897 -0.014076162 -0.047930676 -0.1420666 -0.12440809 -0.09140275 -0.44101363
’ 0.12373379 0.1559268 0.08269487 0.0056754295 -0.052620206 0.039041318 -0.3641384 0.100624785 0.04150974 -0.02163323 -0.024070611 0.026627729 0.13065058 -0.053553887 0.39203742 0.098807976 0.22953188 -0.12927401 0.4037701 0.047406476 -0.09472666 0.06355848 0.2636049 -0.4010797 -0.11287071 0.21276118 -0.35838312 0.030876096 0.32225853 0.027352631 -0.1499749 0.10268895 0.12767644 0.015862089 -0.06744531 -0.3488696 -0.09613719 0.08773821 -0.1562778 -0.34977576 0.09114322 -0.060863245 0.17958476 0.05821546 0.09717526 0.36035734 -0.0005751536 -0.02976621 -0.057878386 -0.15450212 -0.14787002 0.21076955 -0.061148588 0.011761502 -0.12913755 -0.17897986 0.2009424 0.0047163432 -0.028041152 -0.02770218 0.27605754 0.09870013 0.11415645 -0.021632265 0.038229756 -0.047635283 -0.02475155 -0.16478495 -0.1483833 0.13331898 -0.06439102 -0.048894312 0.12531842 -0.046744045 -0.28462306 0.0022138166 0.06408627 0.09127371 -0.04326338 0.279724 -0.36333266 0.005977979 0.34614423 0.1593198 -0.052176192 0.30928022 0.16658127 -0.35173476 -0.10687047 -0.084052645 0.3446532 -0.20199886 0.26427847 0.008677336 -0.13837086 0.15166003 -0.012996974 0.1558521 -0.05244233 0.05876141
in 0.06762545 -0.16335271 0.34241512 -0.14538768 -0.08279627 -0.012912635 -0.00878917 0.30690593 0.3311222 -0.08524212 -0.21120936 -0.14511745 -0.17145184 -0.12121597 0.13446593 0.117857344 -0.057590336 0.13155732 0.0076733534 0.05814894 -0.05304493 0.049532108 0.17721379 -0.07625487 -0.12791437 0.23876137 -0.11879292 0.056849543 0.16509917 -0.048322286 0.10036543 0.1990143 0.21036716 -0.02344579 -0.30291808 0.090236224 -0.14454597 -0.077323265 -0.08312059 -0.037028424 -0.027344024 0.008330726 0.12371918 0.3320384 0.162752 0.055307444 0.19432361 -0.23196436 -0.037675895 0.0042301733 -0.11050232 -0.030401617 0.207726 0.02796027 0.19149546 -0.08265084 -0.23791398 0.15373738 -0.19585907 0.31848523 -0.05384337 -0.21032035 0.09276883 -0.32060295 -0.14165707 -0.19147852 0.012588813 -0.20614819 -0.41773963 -0.06918034 0.10976313 -0.12758784 -0.06995877 0.07618773 -0.04074189 -0.026554644 0.05336682 -0.01440559 0.26351276 0.16240452 0.12865491 -0.098951 -0.07116172 0.20115407 0.07771984 0.29448456 0.0693252 -0.06455593 -0.0042496594 -0.007672426 0.10747822 -0.0048077805 0.203521 -0.009676178 0.03063196 0.21759343 -0.13309552 -0.24804528 -0.087989986 -0.12203463
alice 0.28929764 0.13583775 0.10526546 -0.04648817 0.08161465 0.103207365 -0.093046315 0.03094027 -0.028941171 -0.2726158 -0.31372318 -0.05526504 0.14891596 -0.14064284 -0.1023477 0.30317476 -0.031307798 -0.093134366 0.0063701705 0.065765105 -0.086167715 0.09643688 0.2763995 0.09647979 -0.19785255 -0.117266186 -0.04112921 -0.07737026 0.09170582 -0.15099351 -0.22760631 -0.12930802 0.0026346836 0.16065145 -0.32514566 -0.08431903 0.008871444 -0.029431604 0.087191574 -0.1970058 0.01320938 0.091161445 -0.0150760515 -0.021009918 0.12624274 0.5008969 -0.07045479 -0.15718056 -0.22872867 -0.3256863 -0.101014696 0.08076896 0.14106719 -0.108767726 -0.10528187 -0.24377996 0.07080377 0.26081502 -0.12807132 0.14859672 -0.026539493 -0.022961227 0.043769702 0.06280447 -0.1469622 0.09157643 0.23745295 0.029645279 -0.10011194 0.21338104 -0.06093963 0.09701663 0.16789474 0.23976165 -0.14466558 -0.07189214 0.08727529 0.42032096 -0.13976344 0.039127726 -0.4449209 0.028916331 0.038744703 0.04963421 0.13010617 -0.12967971 0.06333371 -0.11552559 -0.13272667 -0.07253593 0.114108585 -0.5336276 0.18252844 0.16296263 0.07603559 0.100203305 0.10508892 -0.046068516 -0.007109094 0.10837791
her 0.009779387 -0.08156071 0.038516503 -0.23169515 0.23322986 -0.07509981 -0.19919872 0.15327762 0.023226354 -0.06731551 -0.15874441 -0.23128416 -0.11094356 -0.1669244 0.2707622 0.065915205 -0.35244554 0.14014472 0.21526775 0.02023959 0.005862958 0.033955958 0.21966371 -0.06148628 -0.053934228 0.042593155 -0.04122499 0.24675716 -0.119180046 0.12732254 -0.03454701 -0.10759204 0.24563363 0.22304754 -0.092804074 -0.06582248 0.029619886 -0.21007548 -0.12764308 -0.44413832 0.14051704 -0.18879591 0.07882894 0.11371665 0.21689755 0.3916434 0.10251556 -0.14218494 -0.2125301 -0.2809119 -0.21249421 0.044005148 0.24829361 -0.1953455 0.08096145 -0.08311984 -0.21347183 0.09980388 -0.1110581 0.28267258 0.2295269 -0.0334382 0.28480956 -0.067838416 -0.11636773 0.072888516 0.2849777 -0.04674795 0.063103594 0.14972855 0.12577237 0.093456686 0.22506663 0.17461045 -0.108882494 0.18689956 0.19397022 0.2738908 0.13713057 0.13142957 -0.13308777 -0.03596246 0.1614866 0.1294929 -0.076326504 -0.020364366 -0.031893168 -0.01673511 -0.08786805 0.17413911 -0.06828515 -0.17184879 -0.07693848 0.17562579 0.09882452 0.047590885 -0.31744835 -0.1454077 -0.1782181 -0.018834049
i 0.087001055 -0.032205217 0.16885592 -0.07724787 -0.031702455 -0.28716365 0.21955203 0.25534075 0.17203832 -0.025408268 -0.016653711 -0.1397804 0.21843551 -0.20361722 0.27124617 0.1765531 -0.13583472 -0.27869225 0.34817004 0.31364477 -0.024505004 0.239278 0.050660852 -0.18062152 -0.30714604 0.30257404 -0.08006566 0.18156368 0.14729626 -0.2877548 -0.11543909 0.22421826 -0.021838717 0.17369345 -0.321412 -0.22582127 -0.10335671 -0.027759168 -0.08027961 -0.20317146 -0.007987626 -0.25801656 0.21208318 0.108183526 0.13683394 0.32277316 -0.011663083 -0.041845866 -0.11743409 -0.19085498 -0.03296288 -0.036610186 0.22379103 0.05966763 -0.11989147 -0.20556676 -0.028822219 0.16237848 0.034147367 0.024806459 -0.037513625 -0.45088992 0.14285448 -0.098625496 0.11559584 -0.11968098 0.18813814 -0.056853432 0.19992693 0.075211406 0.14204255 0.12460391 0.116593614 0.44895014 0.035025056 0.12192004 0.13252103 0.39129215 -0.0018714806 -0.055763457 -0.33295438 -0.0017987617 0.23331523 0.23448266 -0.12153437 0.090595186 0.11906287 -0.30137634 -0.21574104 0.011651333 0.15984336 -0.19594939 0.13186364 0.4745891 0.0034664785 0.078753784 -0.35341 0.24470341 -0.14355342 -0.15544437
that 0.052383196 0.13931152 -0.013436265 -0.16639194 0.0041442513 -0.055097576 -0.24864124 0.06532272 0.044509728 0.011576242 -0.12906905 0.086982384 0.09571559 -0.13148737 0.06477728 0.17522103 -0.0025354866 -0.08048289 0.023736198 0.003714666 0.057430994 0.029745981 0.2581258 -0.15813754 -0.12933804 0.120398924 -0.25364473 0.08870701 0.04342404 0.091067985 -0.19508395 -0.14444664 0.21099284 0.12033858 -0.059549164 -0.06263438 -0.20115454 -0.011593174 -0.0144302165 -0.20491903 0.0731247 -0.030996053 0.049508214 0.13083379 -0.040032193 0.22638746 0.08207695 -0.1507428 -0.037953045 -0.1424495 -0.19911551 0.14403908 0.15136327 0.019830588 0.1538938 -0.17302126 -0.10456479 0.1804958 -0.12066944 0.17800155 0.21604627 0.030632388 0.0074590323 -0.08873476 -0.039556265 0.17700455 0.039908145 -0.11531522 -0.1519762 0.28766894 0.019768715 0.15287362 0.09889122 -0.018110488 -0.22995298 0.1411208 0.038278174 0.21525854 -0.0008377243 0.19620888 -0.14926124 -0.062191296 0.14448345 0.1061852 -0.037296604 0.11693015 -0.0829428 -0.0074970666 -0.056736574 0.12177907 0.14467566 -0.20978144 0.062401112 -0.01971963 0.10672595 0.078751974 -0.08671786 -0.14159927 -0.059747707 0.12896098
down 0.06964329 -0.09384973 0.017932812 -0.095719874 -0.0919898 -0.12765782 -0.10823337 0.22794326 0.063426785 -0.14974673 -0.17957188 -0.13783099 -0.053124964 -0.0482557 0.0606009 -0.048463013 -0.20567805 -0.044748116 0.19548558 0.074626096 -0.11062315 0.005684416 -0.005420473 -0.09175731 -0.11167376 0.18407762 -0.13834551 0.11096771 0.13797118 0.10159301 -0.10892574 0.017160427 0.087282546 0.09175576 -0.11172074 -0.1500187 -0.22147697 -0.0973289 -0.0023297241 0.047699787 0.052907176 -0.10859308 0.18577185 0.19466332 -0.008277902 -0.063554525 0.09599064 -0.074185945 -0.09642891 0.06689604 -0.063945495 -0.0046546627 0.023843119 0.14734995 0.08159116 -0.077432506 -0.11539711 0.04750144 -0.18739246 0.0533735 0.0084046265 -0.17361458 0.06068698 -0.10012518 0.06302248 -0.17050451 0.010041934 -0.19555086 0.030512078 0.03173481 -0.016426127 0.17094697 0.031014446 0.23799065 -0.0714904 0.02434131 0.09519384 0.06276081 0.13978109 0.19767919 0.028539468 -0.13332433 0.23151772 0.04091686 -0.01047707 0.21626076 0.069887996 -0.09387106 -0.12524219 0.12530425 0.26797915 0.016167417 0.05631566 0.09921118 0.05828743 0.08414383 -0.13234274 -0.031521823 -0.104784176 -0.058482096
you 0.16543314 0.10787565 0.1392451 -0.14938149 0.2312422 -0.09750511 -0.021746363 0.24525844 0.012213511 -0.08417264 -0.096221365 -0.031915866 0.2423228 -0.15486515 0.2543667 0.19566754 -0.08521632 -0.23185793 0.14185703 0.2125148 -0.101384096 0.12930383 0.0142412335 -0.13322896 -0.15029687 0.12941861 -0.25011802 0.13452396 0.19567224 0.08367532 -0.27201968 0.041447535 0.05139163 0.09047386 -0.13614722 -0.113087766 -0.16357286 -0.032197326 -0.10599066 -0.12350928 0.044651456 -0.13668549 0.20031363 0.0485786 0.15515839 0.27486217 0.049847186 -0.08682244 -0.017722642 -0.23323065 -0.04117597 0.13719608 0.15684219 0.09764673 -0.08695302 -0.19489083 0.09145229 0.253326 -0.031318534 0.023184763 0.06122363 -0.27696466 0.02315345 -0.1013014 0.04382696 0.07025624 0.22950624 -0.006334462 0.09117382 0.1821173 0.18461214 0.15315874 0.08052619 0.11024336 -0.07661521 0.14067847 0.08698183 0.19014706 0.0006716452 0.04185327 -0.34489465 -0.083620586 0.18369798 0.18924811 -0.18392278 0.10475978 0.22876178 -0.27432582 -0.09702702 -0.14172697 0.18340254 -0.39767504 0.13083796 0.1422932 -0.056169618 0.088943616 -0.19021802 -0.06884441 -0.035387706 -0.06974502
for 0.089813106 0.012327031 -0.02772813 -0.11730101 0.06490707 -0.08344321 -0.08898955 0.13943218 0.08516246 -0.10610538 -0.07627027 -0.06312631 -0.031183662 -0.08006613 0.12461087 0.05172926 0.07077139 -0.163305 0.11703555 0.04766564 -0.2119945 0.034914404 0.036669448 -0.07106825 -0.06573895 0.053645406 -0.1828151 -0.033591285 0.19568099 0.08014924 -0.12673026 0.054237377 0.115396276 0.09110958 -0.11769962 -0.13830468 -0.15640688 -0.044445384 -0.18235357 -0.052185778 0.082328066 -0.0040664445 0.07546981 0.21591973 -0.017131232 -0.016835876 0.18191321 -0.026386764 0.012891534 -0.08040562 -0.12608957 0.017198289 -0.017181845 0.07477444 0.08948032 -0.07705797 -0.037083827 0.08796496 -0.14003152 0.059948422 0.0492496 -0.124718376 0.103870444 -0.16324526 0.10796524 -0.12023542 0.07385197 -0.18034169 -0.13338639 0.13795733 0.06124899 0.2109588 0.15105915 0.027090667 -0.07020821 0.08845022 0.09281376 -0.025995884 0.1682092 0.18494411 -0.061867923 -0.10311593 0.22057338 0.13797793 -0.07507707 0.16117507 0.13405429 -0.16415597 -0.20229968 0.040065397 0.20822997 -0.12766536 0.07502823 0.15161227 0.0925369 0.12638141 -0.129669 -0.07878771 -0.13877743 -0.08328954
but 0.0101559 0.08390893 0.05412441 -0.13915099 0.017898753 -0.14927416 -0.046856225 0.1130125 0.09419915 -0.24967648 -0.018399898 -0.12752193 -0.032422055 -0.11600388 0.12593481 0.1955726 0.026588202 -0.022654103 0.043171346 0.17699185 -0.054679185 0.19844362 0.017587792 -0.1545148 -0.057643913 0.1597392 -0.07747693 0.11740156 0.20006548 -0.074388385 -0.15584713 -0.014987064 0.0030369426 -0.07394458 -0.18369202 -0.044236396 -0.014615869 -0.14586496 -0.11346045 -0.27086645 0.035204075 0.09894069 0.07297461 0.03811634 0.07009626 0.08137232 0.028940015 -0.1152444 -0.11914838 -0.17839804 -0.007909424 0.056695748 0.0015642031 0.22732662 -0.009545087 -0.07598828 -0.026571415 0.093861714 -0.002783264 -0.2302726 0.08428792 -0.14636803 0.036579978 -0.12891783 0.1406493 -0.049959596 0.09633047 0.029033216 0.03276325 0.012624728 0.08431135 0.1991532 -0.010398934 0.07702167 -0.0025524413 -0.02928967 0.029715145 0.1768819 -0.10833725 0.012635107 -0.17043602 -0.14717203 0.07481662 0.124064 -0.112797305 0.050350558 0.086022735 -0.28886014 -0.18249558 -0.034010686 0.22255927 -0.2776292 0.13877483 0.19091149 -0.06444744 0.111811765 0.019762464 -0.01615751 -0.15523425 -0.1539927
very -0.014887431 -0.009666699 0.010407541 -0.10548716 0.060644537 -0.10121402 -0.13993372 0.18255271 0.07955141 -0.040290814 -0.22037019 -0.079775326 0.014704175 -0.18501529 0.08139445 0.073258914 -0.27716872 0.019699063 0.101323165 0.033648062 -0.15176904 0.027886933 0.17999725 -0.17550829 -0.065430656 0.10554905 -0.21555474 0.14887893 -0.028089963 0.050373156 -0.034157567 -0.10707296 0.1909356 0.09184646 -0.08928404 -0.051181212 -0.19450763 0.0070266635 -0.03816871 -0.17992239 0.060951915 -0.14113979 0.12503976 0.18229926 0.09959369 0.16789258 -0.00339731 -0.14323896 -0.07698159 -0.085047625 -0.27878988 0.017424121 0.09204629 0.014699574 0.21434468 -0.09683628 -0.16298608 0.18722211 -0.08375592 0.031219792 0.06091782 -0.1305327 0.011253434 -0.11847772 -0.13749038 0.03528654 0.2235758 -0.045016173 -0.18981971 0.19706903 0.16675714 0.06555624 0.08347867 0.08420578 -0.113290556 0.08485141 0.04635885 0.13958502 0.20623007 0.22387797 -0.07123165 -0.028312594 0.1241594 0.22748986 0.0074382816 0.08182617 0.08869788 -0.107622094 -0.06459435 0.117290385 0.05454861 -0.19081552 0.13465582 -0.08564805 0.020203479 0.12241042 -0.24921395 -0.18642087 -0.20271899 0.046051584
on 0.12982188 -0.10787088 0.09551229 -0.115654364 -0.006367454 -0.1254723 -0.08582082 0.21230344 0.21199785 -0.20437928 -0.07261797 -0.1289925 -0.15755881 -0.015800096 -0.0029039574 0.137536 -0.12004688 0.2144444 0.061488368 0.20056592 -0.058300965 0.14309709 0.09771854 -0.058629908 -0.07052241 0.17897642 -0.12274897 -0.019010277 0.13453093 0.16238034 -0.018881138 0.010974867 0.14007218 0.16915292 -0.23849177 0.043877345 -0.14323308 -0.1681 -0.10694645 -0.16249011 0.15023948 0.017532058 0.015096385 0.11101064 -0.029882614 0.11908055 0.1418517 -0.100309014 -0.1016562 -0.15434186 -0.09964035 -0.055390783 0.11993335 0.008853444 0.06815595 -0.017697867 -0.0801433 0.028798316 -0.21198605 0.096589886 -0.010370333 -0.12280659 -0.037361067 -0.115904726 -0.047194965 -0.15766591 0.037186004 -0.24438165 -0.16104415 0.005700467 0.17593436 0.25654912 0.073493384 0.08093409 -0.005975069 0.068076536 0.1614211 0.10827794 0.13750336 0.13086665 -0.023715017 -0.076936 0.04311906 0.06498311 -0.05798224 0.25430766 0.14371414 -0.10732263 -0.0641104 0.09761129 0.059301864 -0.16968532 0.08329294 -0.040632155 0.12201151 0.10558565 0.042257883 -0.039044075 -0.040740106 -0.040817447
had 0.16685304 -0.017429335 0.035193533 -0.037657265 -0.02885213 -0.0852886 -0.2860425 -0.046074733 -0.07955123 -0.04690375 -0.0034816673 0.091881186 0.13487616 -0.01848756 0.15528437 -0.015585592 -0.028361348 -0.027956715 0.028470669 -0.030205408 -0.19273399 -0.063982606 0.27861792 -0.14694966 -0.1455076 0.051934477 -0.25056043 -0.13534202 0.053233758 0.14975034 -0.17073573 -0.011914335 0.14869753 0.16297269 0.053535715 -0.29793367 -0.14224422 0.030347861 -0.115551904 -0.05050493 0.03681966 -0.095445335 0.15542425 -0.0044803503 0.011489741 0.11556277 0.12597956 -0.009687028 -0.0709007 0.082233384 -0.20458247 0.16326874 -0.034930374 0.011191494 0.08344989 -0.1651329 0.0530954 0.0837191 -0.09316496 -0.070948444 0.2531249 0.034184396 0.009847659 -0.08760352 -0.07879181 0.06568496 -0.09273628 -0.23385285 -0.020996029 0.24977894 0.08593726 0.22419609 0.15441407 -0.015911154 -0.3054911 0.019817209 0.14107306 0.0058450336 0.15590426 0.19221514 -0.12081137 -0.03603488 0.17122367 0.020785064 -0.1861294 0.23239198 0.057796907 -0.013095838 -0.104547314 0.14726475 0.20424144 -0.026678106 0.14664714 -0.057241935 0.030068437 0.15152414 0.0060672634 0.0069101797 -0.054603055 0.018742518
this 0.1367293 -0.07814021 0.07998133 -0.065531224 0.23717518 -0.041591097 -0.096822865 0.13422696 0.15991011 -0.10837295 -0.15260643 -0.14993204 -0.044629328 -0.0468742 0.045996513 0.1848835 -0.22227499 0.122287475 0.23206477 0.101613075 -0.088913605 0.11418593 0.13290475 -0.06384214 -0.076221116 0.12570632 -0.18674397 0.1973541 0.07030597 0.085623294 -0.09884579 0.060647145 0.045329135 0.1138736 -0.1303993 -0.08274998 -0.123805955 -0.032954626 0.00225414 -0.09473355 0.12514538 -0.27072814 0.21959701 0.07137597 0.20777011 0.18145418 0.06886589 -0.26490036 -0.22802454 -0.0878502 -0.15649796 0.11575906 0.15449682 0.103136465 0.065509774 -0.13907136 -0.0072836415 0.18507448 -0.04507661 0.15544091 0.18417953 -0.068995096 0.18485604 -0.16702792 -0.20351581 -0.0684699 0.28639007 0.06254346 -0.067745134 0.05276941 0.17783578 0.051912308 0.13552837 0.002155189 -0.002576775 0.18993466 0.04557899 0.11511942 0.11241509 0.0068090255 -0.14095949 -0.13363573 0.18126808 0.131096 -0.1291116 0.100385174 0.18598278 -0.13295202 -0.085154824 -0.022832856 0.079815134 -0.13401741 0.15106833 0.23634936 0.025777811 0.105563074 -0.23553827 -0.16288301 -0.14824267 -0.06910176
as 0.13732642 -0.07209229 0.06853155 -0.12342935 -0.10092825 -0.23551498 -0.1234665 0.15761246 0.18091244 -0.18130644 -0.21593471 -0.12758148 0.14338405 -0.143766 0.056598697 0.16689004 -0.0862595 -0.16430888 -0.025830396 0.03503543 -0.065477416 0.074697 0.16701882 -0.16680299 -0.20632653 0.1849177 -0.28989917 0.04796934 0.14623478 0.10691979 -0.14124872 0.044576522 0.18982543 0.052294683 -0.08348347 0.07044196 -0.258482 -0.1492087 -0.20516127 0.0050673774 0.074008815 -0.15467542 0.16151914 0.08992762 0.04198551 0.117553145 0.036220487 -0.049788725 -0.13655232 -0.07791134 -0.20420237 0.029358042 0.104206026 -0.10123351 0.03568951 0.04514151 -0.095146835 -0.0023777203 -0.10575406 0.14937493 0.07778171 -0.14411658 0.010289562 -0.10742672 0.09053985 -0.0076425145 0.040845323 -0.07001066 -0.121357895 0.20225358 0.06698067 0.2586893 -0.048434548 -0.0046033286 -0.010919562 0.12272299 0.116324395 0.15077667 0.18300857 0.1381155 -0.14963505 -0.06489694 0.17397743 0.109687924 -0.1877153 0.2632925 0.23076028 -0.0038784905 -0.15118246 0.09656853 0.035302002 -0.052298643 0.1545591 0.21876298 0.09057564 0.14692712 -0.13057503 -0.09743287 -0.14115085 0.010106766
be -0.02941965 -0.052878466 0.13552307 -0.07376356 0.096048266 -0.2958881 0.0049056867 0.13867173 0.013083054 0.2285221 -0.22134937 -0.28534088 0.052619062 -0.26457372 0.3950957 0.06698264 -0.063601896 -0.098729886 0.13763095 -0.018185696 -0.16045159 0.031900827 0.34493172 -0.3415928 -0.17205274 0.15889692 -0.24279895 0.01295043 0.071947046 0.05232251 -0.13452215 -0.042896383 0.25087664 0.24316037 -0.19722198 -0.059975885 0.06651369 -0.24295324 -0.03806675 -0.2205219 0.14603214 -0.04273141 0.17116016 -0.03701534 -0.050260875 0.19456126 0.1631568 -0.040741317 -0.3491037 -0.23794827 -0.20868468 -0.009644765 0.2053731 -0.031030308 0.04631738 -0.041993257 -0.13109289 -0.0005573331 -0.13114981 -0.08061774 0.049927816 -0.24376298 0.23776096 0.03359296 0.023251122 0.03508979 0.08378258 0.02887583 0.1106367 0.10970838 0.057816826 0.09781555 0.03895384 0.161622 -0.13796625 0.14894605 0.12879278 0.22390735 0.026579276 0.10832254 -0.30341083 -0.11354236 0.14329015 -0.020880317 -0.094540685 0.02656244 -0.031395733 -0.14382952 -0.24149275 0.1839062 0.0969291 -0.42772147 -0.08797918 0.37523198 0.0047557876 0.13428575 -0.19677882 0.0021723476 -0.11689012 -0.11378405
so 0.07297452 0.11980509 0.09562831 -0.08655461 -0.04456491 -0.14267492 -0.15541221 0.066427924 0.10987272 -0.13938214 -0.023379058 -0.058820937 0.074923635 -0.16514444 0.06963916 0.22970454 0.018603431 0.031518515 0.035800844 0.0028498874 -0.14234744 -0.011499085 0.15395956 -0.14787482 -0.12867157 0.04619591 -0.17112768 0.028608752 0.082057305 -0.002864712 -0.2608996 -0.013964146 0.1844722 0.05091841 0.044298623 -0.053137824 -0.06749132 -0.0027082954 0.02617745 -0.097219676 0.0027199928 -0.007263176 0.062402885 0.015652977 0.019493552 0.12159122 0.056973442 -0.06399486 0.00020779506 -0.055762347 -0.13942908 0.1043892 0.15208414 0.05329734 0.1287864 -0.16110721 -0.04680984 0.137268 0.0025003157 0.01962796 0.11437854 -0.08303699 0.0044825505 0.057612445 0.038678948 0.033558387 0.031639356 -0.14295356 -0.093170576 0.12348598 0.032081567 0.10363079 0.01449373 0.012379843 -0.10399986 -0.027857015 0.018137796 0.038711466 0.12071906 0.12869349 -0.0789793 0.066774406 0.06483237 0.07540868 -0.060645632 0.07385535 0.008629432 -0.08314323 -0.0058579016 0.018944817 0.21437407 -0.15617153 0.12783591 -0.0015426169 0.03692496 0.041596815 -0.013472842 -0.050884522 -0.06037432 -0.048668485
little 0.040589135 -0.14965485 0.32860583 -0.022482561 -0.080534354 -0.10162629 -0.07969899 0.31711105 0.33043578 0.15718628 -0.22356564 -0.24632299 -0.15851519 -0.016218921 0.013248226 0.14496627 -0.15583321 0.16946176 0.07257167 0.22419377 -0.18342313 0.054152586 -0.11424881 -0.105560675 -0.22893347 0.2787343 0.16984321 0.16167599 0.16370508 0.10835605 -0.039833944 0.26771048 0.055197835 -0.08414692 -0.3075532 0.005309526 -0.11030177 -0.16432281 -0.13603382 0.1090937 -0.081701525 0.051542412 0.18745527 0.20702296 0.0786239 -0.028937992 0.05655926 -0.053284585 0.08133009 -0.020200072 -0.055649985 -0.031378668 0.2460004 0.00039315643 0.18817915 -0.003375844 -0.24962008 0.06072824 -0.08150224 0.07206654 -0.07817303 -0.31906652 0.13382947 -0.257461 -0.07005173 -0.02884069 0.016836483 -0.35044795 -0.33366537 -0.10039603 -0.020852678 -0.09059693 0.07851046 0.21394923 0.004395647 0.06904808 0.043859586 -0.059885267 0.11580553 0.16479512 0.02549135 -0.19249442 0.11493717 0.08931303 0.007880475 0.2783534 0.14835848 -0.052654594 -0.12603934 0.1169759 0.0592024 -0.013834981 0.14572975 0.10078723 0.06594303 -0.024998507 -0.122309536 -0.15473938 -0.050329532 -0.1788921
with 0.11307799 -0.0931978 0.25604308 -0.15348727 0.03811679 -0.13126743 -0.107774556 0.3158752 0.1852998 -0.13019477 -0.17187858 -0.26528513 -0.07296099 -0.0746154 0.09676038 0.099366724 -0.14343172 0.048408054 0.1068997 0.14655429 -0.15875834 0.14757186 0.046255976 -0.17484573 -0.08824693 0.16967998 -0.11241409 0.17430213 0.20037451 0.083904915 0.049003538 0.06997374 0.12792332 0.0923026 -0.14260094 -0.050585054 -0.020893406 -0.19645014 -0.06213807 -0.021014262 0.029755436 -0.07312886 0.20652352 0.15194799 0.111047536 0.051726874 0.14064568 -6.613252e-05 -0.06454046 -0.08532657 -0.064080015 0.08849122 0.18759522 0.24903232 0.14511058 -0.035641037 -0.12770021 0.089343034 -0.1601233 0.06244729 0.027198048 -0.10917977 0.14885911 -0.26351357 0.10759444 -0.1303115 0.13923234 -0.17925283 -0.19272426 0.017911222 0.15510444 0.14670002 0.055503905 0.18544662 -0.08567322 0.16412516 0.106074564 0.046896677 0.1767908 0.21872981 -0.11246918 -0.19209813 0.10083457 0.19902186 -0.012896249 0.12832119 0.10178789 -0.06979381 -0.14104024 0.14623055 0.19631656 -0.07224812 0.20004156 0.045498822 0.09387493 0.10597309 -0.13670978 -0.1918672 -0.11680416 -0.18877171
way 0.06914408 -0.1229945 0.053096753 -0.13071479 0.07578588 -0.19735983 0.08084814 0.17886299 0.041389257 -0.10497731 -0.003012216 -0.08754024 -0.17448726 -0.0011022598 -0.0074059535 0.11799973 -0.027564839 0.044684444 -0.0075384355 0.08323218 -0.1989812 0.17514265 -0.08205297 -0.06480531 -0.1092483 0.10817507 0.072917044 0.13163769 0.1393065 0.051577464 0.03334589 0.10672377 -0.058154833 -0.06930462 -0.14994505 -0.060563453 0.14519458 -0.10854236 -0.15785465 -0.10803261 0.11671412 -0.006412264 -0.023274712 0.07700444 0.022138055 -0.05448006 0.006497575 -0.0940926 0.034335244 -0.049845308 -0.005434075 0.020710345 -0.07598656 0.1996588 0.136634 -0.025314542 0.0038405373 0.0832164 -0.011344304 -0.027469603 -0.068571955 -0.18940061 0.08814441 -0.1959841 -0.010113022 -0.17270508 0.0933482 -0.04875381 -0.092801586 -0.08315246 0.0047187395 0.107928716 -0.054335773 0.101956084 0.04164721 0.084878266 0.093135096 -0.051819693 -0.07369199 0.018972846 0.024286922 -0.037642173 0.013193112 0.035401076 -0.108481586 0.09068713 0.14428487 -0.1300578 -0.077710874 0.022626814 0.08568054 -0.08964914 0.08005738 0.15076773 0.059142996 -0.036708415 -0.119620085 -0.0016843571 -0.05572926 -0.23942865
at 0.123291485 -0.074012026 0.00469316 -0.063195065 0.021231787 0.021961816 0.023547882 0.15464677 0.13280739 -0.16541646 -0.0840952 -0.12200888 -0.19017884 0.03981706 -0.021763038 0.03713622 -0.03404058 0.06535302 0.033611838 0.17585866 -0.06417607 0.1586333 0.013229253 -0.09295454 -0.028464386 0.11010007 -0.0033859382 0.16661577 0.1338703 0.036225565 0.05221829 0.10728706 0.065262884 0.034561425 -0.11580163 -0.11574904 -0.062877364 -0.11609799 -0.11333204 -0.055671822 0.049571294 -0.07391021 -0.016100315 0.12219266 0.08572609 0.0030706585 0.11006578 -0.10572599 0.013089842 0.03930199 -0.077973515 -0.06018866 -0.055109493 0.1441137 0.06482919 -0.010591736 -0.11474665 -0.0018395162 0.00138789 0.043002464 0.06734571 -0.17712747 0.05260368 -0.14572144 -0.04327272 -0.17183273 0.052299142 -0.11619583 -0.13433139 -0.017058091 0.109299906 0.054857794 0.115135685 0.19210543 0.052063376 0.024524923 0.06341478 0.07403604 -0.037599772 0.11125324 -0.06439269 -0.16967264 0.09959115 0.030962775 -0.14265133 0.15940352 0.008114646 -0.20498791 -0.17698199 0.011987204 0.080525905 0.020506853 0.15145598 0.06452172 0.063230276 -0.0047929464 -0.089106984 0.040189575 -0.122126095 -0.07990272
out 0.0057298597 -0.13797179 -0.042023815 -0.03151448 0.08166326 -0.23859052 0.028703656 0.039043967 0.012963603 -0.079083696 -0.22057414 -0.061315686 -0.13440539 -0.07587004 0.028874984 0.022585187 -0.051695593 0.025207264 0.035665505 0.10630118 -0.17330013 0.040616777 0.064813435 -0.036509547 -0.034556426 0.005588281 -0.08260825 0.06570151 0.0658736 0.08215546 -0.04347294 0.15063412 0.0934526 -0.03400454 0.03036212 -0.13538827 0.14336276 -0.1719819 -0.08262092 -0.070988975 0.051897764 -0.16889821 -0.051319785 0.05434666 0.08847376 0.118233725 0.009517466 -0.07684042 0.0035880236 -0.10632626 -0.07414773 0.022725651 -0.11532405 -0.03893421 0.015532331 0.067453764 -0.0261394 0.027459621 -0.082324706 -0.02280056 -0.05892017 -0.13670489 0.07734711 -0.04522527 0.00067179534 -0.06954209 0.08702375 0.009875614 -0.0069577754 0.016620548 0.103315726 0.11430139 0.023049118 0.07926719 -0.013335354 0.10366848 0.030483386 0.06641137 -0.0066694496 -0.112738155 -0.01822638 -0.04699284 0.06973061 -0.029625734 0.030876474 0.0009669162 0.0247064 -0.080355994 -0.09212726 0.08607781 -0.040465493 -0.16341747 -0.060455732 0.15808532 0.03160333 -0.009623375 0.016529141 0.023325732 -0.053621 -0.06675693
not 0.09988543 0.047966734 0.1098719 -0.104965 -0.0022920012 -0.14735755 -0.22734143 -0.0073764436 0.018748047 0.029636884 -0.042853534 -0.0750497 0.15927137 -0.109186366 0.13881448 0.05351648 -0.065192364 -0.043935638 0.003653911 -0.012195099 -0.08290412 -0.031171901 0.18688516 -0.1891178 -0.108664766 0.05935908 -0.10369744 0.05102216 0.14213297 0.08260195 -0.09117108 -0.1534294 0.20825215 0.14938019 -0.057976656 -0.064303964 -0.22637124 -0.060818624 -0.14492586 -0.050622173 0.10920103 -0.09157343 0.16116841 0.13303262 0.036572088 0.02074067 0.13969152 -0.08875278 -0.09136564 -0.010200452 -0.18207927 0.03239682 0.17425206 -0.060025528 0.1216465 -0.116834566 -0.1296456 0.0474751 -0.16857664 0.121380195 0.12794341 -0.050712887 -0.057412904 -0.026405863 -0.07231563 -0.097517096 0.0153331105 -0.16697142 -0.13613217 0.10472037 -0.04280015 0.1378261 -0.010860127 0.027649125 -0.16242056 0.08248227 0.11635825 0.11392494 0.15079296 0.17739074 -0.022350082 -0.06149076 0.16932602 0.12494444 -0.12146946 0.09716297 0.018004572 0.004296226 -0.009066883 0.20825024 0.1477742 -0.11654677 0.046846576 0.055494174 0.028381042 0.15341438 -0.042646028 -0.11246419 -0.09406005 0.022579623
or 0.054555476 -0.036871076 0.0759093 -0.096079916 0.060177155 -0.048219364 -0.08666154 0.14222741 0.121526234 -0.19935165 -0.061144043 -0.13166158 -0.08583566 -0.07232875 0.22168711 0.15062147 -0.1423681 0.10146725 0.061159287 0.093298 -0.05258401 0.17620659 0.12938842 -0.100636646 -0.06426727 0.07232059 -0.16226324 0.09515177 0.1150936 0.1387182 -0.052003063 0.019158067 0.10642703 0.07286551 -0.09934587 -0.03190077 -0.1989565 -0.07686084 -0.1539643 -0.059047237 0.08392871 -0.030268036 0.18809462 0.20647538 0.059854627 0.1021663 0.1273121 -0.17022802 -0.07624329 -0.10310819 -0.051309854 0.16061644 0.16839023 0.18196699 0.076014325 -0.07760069 -0.071297474 0.11700559 -0.2072467 0.06308265 0.13120438 -0.08022222 0.13669795 -0.12875088 -0.06316981 -0.042880014 0.0842669 -0.18027894 -0.16191508 0.021290988 0.17852643 0.18483746 0.046875127 0.036802195 -0.13703711 0.08957365 0.04673891 -0.0108654 0.15913236 0.2023804 -0.10111708 -0.12283167 0.12841238 0.14264967 -0.18500964 0.20127013 0.10607946 -0.09824216 -0.12252136 0.11196715 0.12277614 -0.0757944 0.1163464 0.121853836 0.08082415 0.093059145 -0.10319265 -0.14421211 -0.06185354 -0.07519481
herself 0.04169915 0.08495497 0.0050264136 -0.053462215 0.019408472 -0.15872942 -0.04096347 0.08892829 -0.029499669 0.049897727 -0.057684284 -0.14963087 -0.054991692 0.014310356 0.23240499 0.042297382 -0.0930027 -0.08835251 -0.023336874 0.050882548 -0.06336339 -0.024401918 0.20745556 -0.22032997 -0.043928668 0.038046744 -0.18582056 -0.012312822 0.045518618 0.10803666 -0.085735746 0.02759516 0.18382017 0.061950345 0.009691955 -0.072143614 -0.06381574 -0.094357006 -0.033188343 -0.13377427 0.033885323 0.003992625 0.01715113 -0.00219066 -0.0044561997 0.2101054 0.039302856 -0.0671794 -0.07358541 -0.042698245 -0.14898722 0.08448744 0.10031922 -0.014607052 0.016481679 -0.1304267 -0.044652462 0.03047889 -0.16469455 0.009639167 0.10386552 0.027790872 0.011122078 -0.07338053 -0.014116168 -0.04058402 -0.018442597 -0.15849131 0.012697773 0.16460371 -0.013232209 0.16201551 0.038427472 0.1711661 -0.21113174 0.033533253 0.05143585 0.030876456 0.1884483 0.083115004 -0.0001739345 -0.034667455 0.10065652 0.021691637 -0.11993497 0.074763104 0.044568133 0.036769234 -0.10456452 0.09963389 0.15423214 -0.18743984 0.046915974 0.05103863 0.10527596 0.080893174 -0.06922477 -0.050625563 0.0011318364 0.08547189
up 0.058844876 -0.038188763 0.06411197 0.015839735 0.05985473 -0.02600628 -0.043385305 0.008890456 0.05673337 -0.049257834 -0.18585096 -0.08885499 -0.09362029 -0.036333468 0.061841343 0.022606134 -0.11346388 -0.026217448 0.043362673 0.06706624 0.015009631 0.05205566 -0.013587996 0.011543928 -0.075621 0.14485195 -0.09461667 0.075291604 0.06931515 0.09577168 -0.12081725 0.10999101 0.044907436 0.09997351 -0.13432106 -0.08208523 -0.037349448 0.006540551 -0.09687601 -0.030459631 0.031763144 -0.055601012 0.15069826 0.122552566 0.019984301 0.053675592 0.09522435 0.042976342 -0.04718122 -0.060869295 -0.086176984 -0.004109195 0.10059111 0.08069894 0.07779406 -0.0071781026 -0.007510963 0.0021556458 -0.07908036 0.02662623 -0.0042763622 -0.073751844 -0.0015719321 -0.07651622 -0.10119873 -0.104954936 0.055282135 -0.10410355 -0.10403979 -0.015698576 0.06269652 0.03363876 0.004154082 0.18112147 -0.04798526 0.030336991 0.017994465 0.051197432 0.07175681 0.086089656 -0.03735047 -0.1117197 0.035845917 0.044942748 -0.04629997 0.065920636 0.058643553 -0.0677702 -0.028174872 0.010802277 0.00022034743 -0.10423153 0.017430356 0.0029270803 0.025526239 0.07708449 -0.10094021 0.031966023 -0.039764345 0.0086277835
how 0.11053136 -0.091417454 0.103967205 -0.111404635 0.03159457 -0.079023734 -0.17085862 0.030425545 0.03818297 0.050697375 -0.10457997 -0.06513319 0.0047871545 -0.104504675 0.1441735 0.10584655 -0.00205453 0.015765693 0.15286581 0.09538955 -0.15476842 0.121071674 0.09277516 -0.075175464 -0.16028838 0.18925177 -0.1516793 0.040930893 0.10957217 0.123933725 0.036114126 -0.13185866 0.08904511 0.19320716 -0.13238999 -0.13371852 -0.012722509 -0.13750313 -0.15969847 -0.13969012 0.12664305 -0.062004182 0.13805693 0.11801134 0.15628025 0.038566343 0.083794795 -0.071998805 -0.15830591 -0.17206694 -0.23442815 0.12403941 0.07487746 0.08581427 0.156301 -0.044234823 -0.2489106 0.08607268 -0.14011297 0.07833459 0.13602014 -0.10559328 0.15815213 -0.049610604 0.087263554 -0.120534025 0.13946165 -0.12838168 0.04012654 0.16665633 0.07767167 0.13144359 0.11443266 0.08057789 -0.14629318 0.14471889 0.18506181 0.24435711 0.106514014 0.10955922 -0.05780593 -0.1695579 0.11917228 0.13349941 -0.15794441 0.106468976 0.14752685 -0.14547561 -0.18427536 0.19845852 0.112077594 -0.083562106 0.08663228 0.18245208 0.1263529 0.07132274 -0.19339068 -0.046952404 -0.23939013 -0.11482459
like -0.044613346 -0.11828129 0.2090958 0.00011793489 -0.009480935 -0.020736171 -0.03317402 0.2826567 0.13097116 -0.13271312 -0.03610161 -0.16677512 -0.09358308 -0.02471376 0.0296156 0.1601278 -0.12899235 0.020468406 -0.023664184 0.12883618 -0.030965356 0.10482192 -0.02171405 -0.072550304 -0.10217803 0.1058116 -0.06414399 0.063816115 0.20437038 0.121161304 -0.17301376 0.2127586 0.11804567 0.067035586 -0.26833892 0.0151556255 0.019504482 -0.11571461 -0.055469625 -0.050282717 0.043288704 0.0003656547 0.135855 0.15041679 -0.014895973 0.118770145 0.08582715 0.01314321 -0.08761152 -0.065310545 0.0009779794 0.044034123 0.17941657 0.076064914 0.0056959945 -0.04251557 -0.08297808 0.02486939 -0.07781019 0.057782233 -0.059081897 -0.13004115 0.090881795 -0.19469637 -0.024175229 -0.031183895 0.021960994 -0.18999092 -0.2033553 -0.052773185 0.09551912 0.04819618 -0.00025637227 0.15051688 -0.069659166 0.022081502 0.058477443 0.023761714 0.075312264 -0.0018095998 -0.060090583 -0.017691892 0.065886155 0.07417551 -0.006360418 0.16725588 0.019249642 -0.017322961 -0.10849632 0.08882715 0.1144873 -0.13518754 0.08962042 0.084606804 0.011276698 0.030804131 -0.10129936 -0.0056396965 -0.04356772 -0.097766474
one -0.007985395 -0.03048655 -0.0075878175 -0.12978919 0.09700785 -0.12572326 -0.08535415 0.026314612 -0.0028797123 -0.035430554 -0.25963742 -0.08025442 -0.08099739 -0.020759964 0.013973418 0.033345092 -0.079166986 0.18951868 0.020259324 0.0384629 -0.09461358 0.11772977 0.07917648 -0.07691125 -0.022661252 0.004146545 0.07645337 0.0718994 0.061773773 0.10983169 8.627784e-05 0.056218423 -0.014404733 0.009814975 0.029890696 -0.1373721 0.17779548 -0.22522148 0.029661182 -0.10819766 0.0740055 -0.004570026 -0.11466977 -0.04291366 0.06652438 0.10888986 -0.0028962723 -0.116307035 -0.0014788264 -0.09824868 -0.16621019 0.01934953 -0.041068688 0.041379284 0.083263345 0.03192473 0.0012006614 0.045933906 -0.010105752 -0.0058400477 0.09268828 -0.1962204 0.106462605 -0.029957201 -0.06959602 -0.04444377 0.1623831 0.035199754 0.014536239 -0.03297452 0.046915002 -0.040236507 0.08160704 0.12483522 -0.02530414 0.051336505 0.009642026 0.12274775 0.054186925 0.004490768 -0.076376125 -0.09729277 0.0930909 0.0797152 0.016377328 -0.01234526 -0.040386304 -0.05170146 -0.10340051 0.06999921 -0.047122218 -0.010924326 0.05475363 0.11618629 -0.026362155 -0.061382484 -0.019224852 0.056268897 -0.105881244 -0.07482609
no 0.0906398 -0.056308847 0.10045557 -0.083645575 0.15036127 -0.0061884653 -0.09352199 0.085886 0.035282083 -0.09918684 -0.1706611 -0.13801396 -0.07966014 -0.098665334 0.098758675 0.015369481 -0.1416369 0.013875339 0.17870705 0.14328097 -0.02728276 0.0013482515 0.10039109 0.022183798 0.014765944 0.10073357 -0.045162745 0.14699104 0.0018233387 0.04500637 0.024478981 -0.14223877 0.13231288 0.09859906 -0.07370337 -0.06778197 -0.08932987 -0.14316644 0.02190645 -0.1930921 0.1218618 -0.12863508 0.11331252 0.056125544 0.16062634 0.2823249 0.08701159 -0.22923152 -0.12448789 -0.05472149 -0.2328192 0.11919985 0.13472602 0.034079105 0.06680706 -0.07816801 0.0031637931 0.13284338 0.011454533 0.105812654 0.18274647 -0.0748803 0.11561008 -0.07360753 -0.15806885 -0.028714476 0.058293346 -0.021746948 -0.14928685 0.075031094 0.062296182 0.025576746 0.104546875 0.0686368 -0.115947925 0.08245017 0.035455327 0.16380583 0.09479193 0.039403528 -0.11082893 -0.057333004 0.030518977 0.05094643 -0.051883787 0.015406963 0.030788824 -0.11793865 -0.13848722 0.097015746 0.02076665 -0.13578631 0.017737614 0.06566749 0.14606434 0.077925615 -0.10644937 -0.22819269 -0.14247838 -0.18735719
rabbit 0.07752575 -0.090770565 0.15790026 -0.121712185 -0.045241043 -0.032982066 -0.0104350345 0.15512477 0.11615081 -0.16042508 0.0059927637 -0.13499847 -0.18918347 0.04109118 -0.074910015 0.10148877 -0.0006146421 0.22368425 -0.09148187 0.18604195 -0.08703905 0.14881815 0.055020254 -0.080517955 -0.034215838 0.19273348 -0.005096295 0.04562363 0.15779766 -0.038784727 0.00693217 0.08062885 0.04667712 0.04360963 -0.14362596 0.01758223 0.026051397 -0.2210723 -0.076763 0.10491417 -0.033217303 0.0052077495 -0.018967444 0.14231199 -0.0013614242 -0.0784946 0.1259679 0.04365092 0.05755598 -0.036572874 0.051614854 0.01688639 0.04135946 0.12771928 0.118889526 -0.037238225 -0.11020219 -0.024215912 -0.12576677 0.059577633 -0.007799264 -0.21841231 0.09668754 -0.1623179 -0.026529104 -0.027782341 -0.025052957 -0.14863399 -0.053989794 -0.091523774 0.042061497 0.020732785 -0.020489944 0.22794066 0.028399982 0.0036093849 0.08764362 -0.051869873 -0.025214294 0.15800674 -0.020083016 -0.10917305 -0.09128659 0.13227457 0.09969149 0.19295184 0.054037217 -0.032400828 -0.15567593 0.038022578 0.018880077 0.08438046 0.078024715 0.124363795 0.07001581 0.06592215 0.007703852 0.015874138 -0.103355095 -0.10850555
when 0.16172192 0.0014770268 -0.023908405 -0.06774185 -0.021935975 -0.06928344 -0.1187043 0.016127383 0.053981222 -0.08309718 0.013984384 -0.0461237 -0.008685282 -0.005301665 0.08327807 0.028602023 -0.04526781 -0.05731581 -0.025131302 0.09824601 -0.0988494 0.07121675 0.036930252 0.039484665 -0.12477459 0.025142094 -0.011065478 -0.019051721 0.1573428 0.07051316 0.010371721 -0.051795203 0.002931848 0.14201254 -0.038902603 -0.051425844 -0.027502034 0.020564565 -0.15214428 0.11990054 -0.0058761504 -0.067532584 0.068973914 0.056971807 -0.02898056 -0.0056569544 0.12842722 0.008019261 -0.0035672802 0.0037987046 -0.021002306 0.015465394 -0.014427084 0.12179287 0.056734078 -0.039824214 -0.071096085 -0.084259845 -0.09570618 -0.056676712 -0.020932948 -0.054457735 0.07562923 -0.16386336 0.07468045 -0.050547812 -0.05545465 -0.15784895 -0.08876279 0.06659661 -0.04254486 0.106762215 0.087213844 -0.00974143 -0.035387125 0.042044677 0.07186519 0.06877606 0.008017327 0.13220672 -0.00032058152 -0.08787225 0.028969066 -0.0033222947 0.028918166 0.12485169 0.059822906 -0.10334059 -0.07448378 0.016757376 0.16439398 -0.07264487 0.14825498 0.04461754 0.0030932627 0.036542267 0.0835514 0.0071955104 -0.010989274 0.019051768
all 0.118727975 -0.035931934 0.07704822 -0.15866652 0.034246206 -0.1723406 0.010568913 0.07748883 0.098845206 -0.15524022 -0.021309376 -0.14108978 -0.14201134 -0.12924516 -0.0021831063 0.13494505 -0.0053792605 0.24591611 0.036607403 0.0437984 -0.072466426 0.17926213 0.09751089 -0.12929359 -0.12704751 0.15197419 -0.055623915 0.093235195 0.09365817 0.013046851 -0.082572855 0.113607384 0.058331538 -0.014496414 -0.18363325 -0.0431387 -0.1476233 -0.15674366 -0.05665921 -0.05783397 0.036054447 -0.09891447 -0.0059654093 0.07870723 0.1579898 0.03314644 0.12473893 -0.15084648 -0.08410577 -0.11914691 0.02190352 0.03620338 0.12691304 0.16953282 0.12683415 -0.110856764 -0.1883686 0.17662059 -0.122650385 0.05138699 0.13258764 -0.1489529 0.05829566 -0.11836649 -0.030800413 -0.17691885 0.1562987 -0.09062677 -0.106673814 0.08262687 0.09712086 0.071600296 0.10808098 0.03455163 -0.048124496 0.06917468 0.0870433 0.03557764 0.08806123 0.08717953 -0.032806773 -0.093844876 0.038300104 0.13837166 -0.064042546 0.09453813 0.09643049 -0.1604872 -0.112418234 0.07659463 0.09008299 0.03145472 0.09215579 0.1553831 0.1809006 0.08109423 -0.0842387 -0.05498799 -0.0703325 -0.1326985
see 0.020056067 0.025873331 0.0037247224 -0.06313381 0.041723996 -0.06913317 -0.005014816 0.016647335 0.0060077882 -0.022776265 -0.04250024 -0.0035634688 0.15699856 -0.13258633 0.15330078 0.053714793 -0.024006873 -0.0880579 0.06722548 -0.001806374 -0.035197016 0.06381702 0.06768913 -0.119057246 -0.046484716 -0.0017830406 -0.22398622 -0.02795668 -0.011420955 0.008857615 -0.19836625 -0.03159109 0.09493998 0.10315777 -0.0017877498 0.015471587 -0.016801624 -0.030656947 -0.103421226 -0.18069716 0.025570797 -0.08102273 0.07160243 0.026513852 0.019149344 0.15638798 0.051032204 -0.032941103 -0.12839928 -0.067795426 -0.083604716 0.06743952 0.14288753 -0.09503243 -0.034218602 -0.14350595 -0.0035010325 0.035376415 -0.027518924 -0.07940764 0.09831006 0.032440815 0.0624153 -0.019337043 -0.013290749 0.026132623 0.013197597 -0.05739128 -0.057801522 0.10587764 -0.057720404 0.20351619 -0.009844863 0.01984279 -0.1013265 0.071976796 0.020010632 0.14180224 0.025624674 0.08219239 -0.14453287 0.02832614 0.009743622 -0.025182925 -0.15619716 0.13260321 0.10335554 -0.015401201 -0.08009972 0.07797458 0.07253915 -0.27961656 -0.013968218 0.11322287 0.08881154 0.13507213 0.050747618 -0.110163085 -0.06633347 -0.024283621
into 0.08950411 -0.042305633 0.03338193 -0.14387709 0.03829934 -0.16737087 0.047328457 0.16438715 0.16892739 -0.16130361 0.047122635 -0.14428525 -0.08462516 0.014838311 -0.004440864 0.09177748 -0.030389048 0.18081288 -0.042745452 0.1927891 -0.11069649 0.18532464 0.03453651 0.024118284 -0.20716093 0.06777444 -0.06815504 -0.04358486 0.2420393 0.09645025 0.0038751753 0.21744995 0.1096287 0.02053307 -0.12568776 0.04532698 -0.029052619 -0.22691599 -0.086455345 -0.008766828 0.046258714 0.034263052 -0.010318475 0.17784905 0.03847706 -0.097876765 0.093600415 -0.06289632 0.026872216 -0.052764863 0.05426202 0.07628348 0.009050583 0.20782149 0.06954788 -0.013609592 -0.07782445 0.07099027 -0.07966459 -0.035567854 -0.05679504 -0.289301 0.03522623 -0.1749237 -0.054564115 -0.10983045 -0.007765647 -0.1674222 -0.2214781 -0.10696115 -0.017341148 0.09699025 -0.006897419 0.14751829 0.04791903 0.04557521 0.09335863 0.01659604 0.03631872 0.057795234 -0.039153818 -0.09523488 0.00480631 0.012982562 -0.04402305 0.12754042 0.17066903 -0.14087664 -0.0824326 0.08523069 0.076453686 0.013374317 0.17373106 0.10701315 0.1585625 0.010183185 0.037631884 0.05986916 -0.014563148 -0.26374707
what 0.08222444 -0.022366103 0.08376574 -0.105985634 0.079752326 -0.13129406 -0.008036315 0.06863789 0.13369916 -0.04445711 -0.07202858 -0.06884002 -0.04345682 -0.1633691 0.054742396 0.15463828 -0.026308853 0.014954048 0.039792556 0.12590984 -0.04984796 0.046300218 0.051899146 -0.11647244 -0.13605374 0.15894188 -0.07323332 0.11813146 0.01349316 0.005087524 -0.072756656 0.08020739 0.01085367 0.090717636 -0.10395341 -0.061101746 -0.026079135 -0.10494956 -0.07236657 -0.119708404 0.113555506 -0.0064050946 0.12402732 0.05479362 0.10537129 0.10248392 0.13230263 -0.02397818 -0.13605937 -0.15337998 -0.080107085 0.0054024695 0.05648265 0.036319837 0.09912475 -0.007070514 -0.095524326 0.0660438 -0.064524636 0.06780213 0.07704712 -0.16196896 0.108958304 -0.07576933 0.025171425 -0.10738558 0.05203094 -0.043769397 -0.15363877 0.043201026 0.11061885 0.0810489 0.057362106 0.1163938 -0.007406436 0.04151126 0.17618094 0.15365134 0.04250234 -0.021548403 -0.0430753 -0.11379327 0.013486549 0.06561522 -0.15591103 0.010233348 0.17364745 -0.07284204 -0.102182925 0.09964448 0.08746987 -0.1458904 0.009770684 0.11036531 0.085606694 0.12322007 -0.09176107 -0.083007246 -0.0644913 -0.07267079
there -0.043266412 0.043886006 0.0069245566 -0.11538887 -0.04512615 -0.028928662 -0.08035529 0.0046186433 -0.019302825 -0.008529197 -0.21723755 0.07590925 0.047315724 -0.10504202 -0.013789633 0.18483539 -0.10057711 -0.07370442 0.07485798 -0.02043087 0.053671647 0.07337324 0.04986966 0.05229459 -0.050777413 0.08470251 -0.030751862 0.15991125 -0.006266284 -0.072124876 -0.19258419 -0.024780443 -0.003916017 -0.05449739 -0.031425975 0.079289936 -0.07449794 -0.004299764 0.057112604 -0.06949691 -0.08745223 -0.09176508 0.0743687 0.10367814 0.03654718 0.22206494 0.02167312 -0.15374678 -0.028767006 -0.035653975 -0.19056201 -0.022727497 0.06474407 -0.06742256 0.1056536 -0.068317235 -0.024760542 0.2412518 0.054972846 0.20721903 0.13892537 -0.009507731 -0.084756054 0.028593145 -0.16273937 -0.062152933 0.09745996 -0.013210371 -0.112805426 0.14044207 0.04368196 -0.088880345 0.017253216 -0.039013047 -0.08913295 0.03431437 -0.02010788 0.09786598 0.093707785 0.06889147 -0.01983352 -0.052346796 0.069240585 0.15664308 0.027698804 -0.03207828 -0.015330456 -0.021575458 0.00021824165 -0.008897508 -0.030039437 -0.08474401 0.083846636 -0.019005766 0.02137416 -0.02689707 -0.08740819 -0.12699868 -0.05585123 -0.052688073
think -0.005668101 0.10225425 -0.061522763 -0.007244155 0.04327673 -0.0716394 0.016947003 0.06308149 -0.07312817 -0.013641497 -0.029820606 0.003525846 0.0017668805 -0.10436591 0.17043243 -0.03640613 0.005301776 -0.19984783 0.09361294 -0.07515072 0.075528964 -0.049353596 0.016783409 -0.13244003 0.041585572 -0.058554403 -0.098728314 0.02959628 0.022577897 -0.084094696 -0.16882429 0.068395674 -0.054468025 0.015062211 0.043120872 -0.022470491 0.07800581 -0.02398333 -0.04446528 -0.26254168 -0.12020432 0.0485167 0.042230528 -0.17389856 0.00040669244 0.08610415 -0.10244714 0.0010596752 -0.013211237 -0.023438474 0.020028945 -0.004122138 -0.071578965 -0.0059009176 -0.12849759 -0.033815555 0.11632219 0.08325809 0.0431169 -0.19832759 -0.027707033 -0.062329743 0.06516398 0.0147736855 0.00685696 -0.018072965 0.07590251 0.1171423 0.08918577 -0.07262786 0.01849619 0.1049344 -0.063972495 0.16468135 0.073197804 0.02045443 -0.04382201 0.16804263 -0.1179812 -0.08029486 -0.12941588 0.1119963 0.044442203 -0.04912835 -0.14521806 -0.04000777 0.044275146 -0.05210879 -0.046402693 -0.10572427 0.032049444 -0.2434729 -0.015731644 0.19348179 -0.02194376 0.018636132 -0.06533572 -0.043983508 -0.04689894 -0.06586235
me 0.05488147 -0.1565978 0.07014131 -0.068305776 0.060416125 -0.16318904 -0.0325646 0.14031878 0.2087135 -0.12687431 -0.16535875 -0.075805694 -0.07971186 -0.12887275 0.20731467 0.123616755 -0.08721925 0.05232758 0.10797122 0.113611154 -0.1301404 0.1714591 0.018122679 -0.019005852 -0.096142195 0.16339155 -0.16944224 0.05390342 0.063471615 0.16763175 -0.07696314 0.067348585 0.105227076 0.086920805 -0.10325502 -0.09026515 -0.15037897 -0.11874099 -0.07484006 -0.112103604 0.05268801 -0.10345968 0.17633909 0.098658904 0.08345713 0.1638487 0.04974353 -0.14147462 -0.17032494 -0.17961867 -0.15619738 0.078933395 0.123133466 0.1447531 0.110058874 -0.09564811 -0.039043702 0.15788439 -0.06276589 0.08901153 0.12004536 -0.07474218 0.06431975 -0.021135993 -0.07461918 -0.039835185 0.19306676 -0.12755543 0.0006453898 0.15456575 0.22045322 0.15397614 0.19258614 0.21079342 -0.048895538 0.04351324 0.11531252 0.08754478 0.12741725 0.11552378 -0.14447866 -0.049762547 0.14177907 0.09146231 -0.23155566 0.1064016 0.14491875 -0.10144061 -0.08106667 0.11093665 0.04412347 -0.14822756 0.104113266 0.14254092 0.17851047 0.15486571 -0.16168725 -0.03277488 -0.1031308 -0.11879841
if 0.06253795 0.10261569 0.034846652 -0.012203998 0.09675858 0.012869605 0.027141567 0.103098065 -0.0012486024 0.033253983 0.033865612 -0.06296922 0.12554374 -0.18580495 0.06978179 0.011138862 -0.013775043 -0.05832183 0.056541648 0.11328923 -0.006980238 0.086150855 -0.031007616 -0.16645867 0.0005072685 -0.015846964 -0.10256327 0.06393163 0.09885056 -0.051879235 -0.069796175 0.13851152 -0.005457324 0.062521584 -0.051922973 -0.003249512 -0.080485076 0.06786162 -0.18681955 -0.24228771 0.012449756 -0.0098854 0.21906504 0.045758635 0.048130825 0.07887195 -0.0078092245 -0.056073464 -0.047720786 -0.12428763 -0.011789826 0.020031273 0.07140868 -0.009260041 -0.08218698 -0.07060129 0.033291698 0.088484585 0.039414547 -0.1015487 -0.06864312 -0.13893749 0.08348118 -0.023929002 0.07423244 0.0226924 0.12033947 -0.0020968183 0.05904049 -0.0574855 0.10069389 0.06985688 0.00988199 0.091621645 -0.006331996 0.055745974 0.083987065 0.18316272 -0.044570345 0.0025529782 -0.1379958 0.0136809945 0.11928296 0.05980772 -0.21236639 0.0945593 0.07517186 -0.14279541 -0.021250166 0.019752717 -0.062378936 -0.16380475 -0.0141801555 0.050453246 -0.04094077 0.13460672 -0.112354375 -0.087333985 -0.04409277 -0.020441184
thought 0.06839489 0.12182519 0.03640413 0.006984126 0.078023285 0.008555304 -0.087059386 -0.096169606 -0.011818355 -0.17450328 0.06584327 -0.009076129 0.05812517 -0.034885652 0.15411909 0.062390674 -0.010223381 -0.07576887 0.019818759 -0.041639842 -0.09867932 -0.0030580875 0.22542037 0.006770957 -0.1399846 -0.07391404 -0.076309636 -0.13000657 0.04310019 -0.071797006 -0.22735971 -8.757564e-05 0.003342985 0.12238157 -0.09142528 -0.12054093 0.03152476 -0.017719824 -0.020662164 -0.15984184 -0.0076934705 0.09098264 0.058248796 -0.045808572 -0.05641812 0.24442762 0.04758509 -0.05135201 -0.032559417 -0.037185825 -0.0011120182 0.11325046 -0.013811693 0.05379581 -0.08433096 -0.078903526 0.036559206 -0.058939803 -0.09220914 -0.10985018 0.058266073 0.08283943 -0.056168277 0.07104797 -0.07525592 0.0251706 0.054416317 -0.02411179 0.049766794 0.109089054 -0.0033347602 0.12584484 0.005568896 0.020453986 -0.18915154 -0.06904274 -0.01744062 0.029400175 -0.04800674 -0.062064998 -0.076408595 0.01681137 -0.06023384 -0.008509579 0.015545618 0.06785533 -0.0015851288 0.061048254 -0.05315981 -0.023035014 0.21013415 -0.06567873 0.090228416 0.028644526 -0.03401615 0.040302392 0.02966071 0.090155415 0.06370406 0.02703225
could 0.13247144 0.12361094 -0.09704445 0.0549014 -0.06327279 -0.084734015 -0.009628357 0.06917439 0.053841665 -0.10936197 0.1362268 0.056403287 0.19256453 -0.020618372 0.108636186 0.056107376 0.052008186 -0.14713176 0.037710696 -0.03152934 0.04207819 -0.029836068 -0.008119108 -0.0024931799 -0.029531565 -0.066316284 -0.2211086 -0.03824938 0.11261505 0.094864935 -0.19289362 -0.045220457 0.09608117 0.04154771 0.13079523 -0.09567604 -0.20825195 0.08436672 -0.16456154 -0.037010107 0.071618594 -0.044201992 0.2104485 -0.023141013 -0.07260522 -0.036048736 0.0546687 0.11092051 -0.028880935 -0.030055325 -0.06985279 0.06392053 0.031782676 -0.030216943 -0.03594774 -0.0013561479 0.027762862 -0.06194241 0.011510548 0.00965175 0.13080378 -0.08079311 -0.10904806 0.028765483 0.09975798 0.0068426994 -0.026007658 -0.05412255 0.08040677 0.12748052 0.0782873 0.10285229 0.018953318 -0.07059005 -0.031361744 0.13456519 0.02812835 -0.021369867 0.08618571 0.13251914 -0.051374566 -0.032016788 0.112702206 0.019019892 -0.1803065 0.16774812 0.21557033 -0.11902031 -0.042471707 0.033737443 0.059795085 -0.05125468 0.07600822 0.095943026 0.069087274 0.07395327 -0.045058925 0.00031101168 -0.052495316 0.043169238
time 0.11105154 0.052420545 -0.062352728 0.024856042 -0.019826202 -0.012608567 0.0014813673 0.025414424 0.020696754 -0.10174088 0.030052334 0.021107014 0.061659306 0.036491685 0.12277623 0.02652722 -0.0101284515 -0.07637396 -0.0479921 -0.12794718 -0.03421553 -0.02400464 0.0667276 0.026844207 0.05322104 -0.055708583 -0.08423954 -0.0101984935 0.0348779 0.0707494 -0.09313527 0.038857076 0.11531491 0.06318686 0.022624759 -0.064814545 -0.0073781256 0.06910641 -0.094107255 -0.0284535 0.048907097 -0.004852006 0.05266236 -0.035948135 -0.025146797 0.03461722 0.08556189 0.06578066 0.026876038 0.07030029 -0.05003739 0.070031166 0.061581653 0.007617088 -0.01374217 0.023303762 0.0058595007 -0.06606188 0.0009130697 0.014412466 0.07229642 0.009232175 -0.029218169 -0.0042350045 0.062119693 0.025360696 1.3507408e-05 -0.0101748705 0.010970047 0.039430168 -0.052177645 0.10396483 0.04927937 0.026026534 0.009872379 0.08936939 0.029361034 -0.0090398025 0.12771794 0.08316556 -0.001308162 0.011752291 0.0662895 -0.04613498 0.04587669 0.10149894 0.012331602 -0.014437147 0.01742597 0.066937536 0.0067502605 -0.093549065 -0.009993306 -0.027124448 0.11354914 0.007562935 -0.024276448 0.05937387 0.05978486 -0.00604522
about 0.046271145 -0.024286438 0.13041034 -0.085530646 0.15884234 -0.12718691 -0.022585142 0.16914585 0.026304284 -0.12735282 -0.08857235 -0.09534813 -0.10994183 -0.18043049 0.052552663 0.09964595 -0.04737016 0.14738454 0.17430654 0.2518028 -0.14140162 0.14132063 0.1281948 -0.13086084 -0.057127345 0.106368266 -0.19860034 0.11332554 0.1760702 0.08142495 -0.07405526 0.1391376 0.13192435 0.1789247 -0.091689005 -0.070566915 -0.07234943 -0.106128335 -0.12960614 -0.1777747 0.1771151 -0.084180586 0.16650288 0.06389752 0.0678041 0.07066777 0.13364853 -0.03734479 -0.09548418 -0.17256744 -0.11300929 0.13413715 0.037494257 0.17749043 0.021085007 -0.067072466 -0.09930965 0.12854479 -0.055260964 0.03411959 0.010326518 -0.10912286 0.17865197 -0.14598231 -0.037903186 -0.1064791 0.09663129 -0.069749475 -0.13409674 0.11182874 0.15847188 0.12768044 0.13856724 0.14702293 -0.15571688 0.19386896 0.11056891 0.119178556 0.028911315 0.1900035 -0.20216508 -0.13844532 0.15733439 0.09709538 -0.24835156 0.1754856 0.10824298 -0.09705987 -0.15481289 0.13599971 0.07656244 -0.16348842 0.14922416 0.09448274 0.09961097 0.07815764 -0.12233777 -0.099764764 -0.13686654 -0.16821413
went -0.02497431 0.027684398 -0.008529932 -0.008036705 -0.03398937 -0.012225429 -0.106582604 -0.037779044 -0.10099639 -0.098631 -0.04206541 0.049688987 0.082841665 0.059433553 0.055513468 -0.10833373 -0.016591579 0.031395998 0.044756178 -0.067082904 -0.0099822 -0.04548812 0.12594388 -0.036275573 0.01493974 0.016999459 -0.15118597 0.026532577 -0.001822524 -0.0026088534 -0.06647679 -0.028027441 0.018157098 0.0012645036 0.02311291 -0.04256178 -0.009676829 0.08213926 0.03250934 -0.017228719 0.0065821297 0.036369585 0.06445548 -0.018730063 -0.11209202 0.09777407 0.058657885 0.10371388 -0.0006929358 -0.0032144173 -0.0764259 0.020392079 0.007048384 -0.05376885 -0.0007006404 -0.031279225 -0.04808365 0.030238496 0.020406188 -0.020195754 0.0667317 0.096862935 -0.041827716 -0.00046102636 0.089870326 0.10630131 -0.09054962 -0.02360251 0.11085367 0.14179872 -0.039204773 0.058302343 0.019647475 0.05041708 -0.10852555 -0.025295625 -0.026574131 0.08972284 -0.019345902 0.065625876 -0.04977563 0.030332275 0.013898778 -0.039204743 -0.028873831 0.049208198 -0.047200777 0.05016876 -0.041592646 -0.042844553 0.08410094 0.05739251 0.04164388 -0.054855447 -0.06253563 -0.014884383 0.0010119227 0.041102897 0.008158437 0.025171636
were 0.11888772 -0.072968096 0.06418466 -0.1331243 0.09749744 -0.19530594 -0.04951888 0.22851555 0.06580693 -0.1569032 -0.063765526 -0.17094937 -0.018939603 -0.14878057 0.023495346 0.17720576 -0.122245274 -0.07888902 0.18356411 0.22529568 -0.19419229 0.123456016 0.113692924 -0.2044533 -0.112011686 0.13429324 -0.11847568 0.15913492 0.13235383 0.06576674 -0.040736455 0.15717933 0.09087794 0.016252713 -0.18625493 -0.14306377 -0.14046195 -0.16336794 -0.1336615 -0.15040529 0.0837633 -0.15946792 0.116358876 0.085477345 0.15093844 0.12708169 0.072009996 -0.082820326 -0.14662284 -0.13415268 -0.096786566 0.16666405 0.1050016 0.17778037 0.065206885 -0.1507736 -0.062093414 0.20735708 -0.13827652 0.05870862 0.101116136 -0.18197644 0.10749147 -0.09851317 -0.122747645 -0.09877242 0.18237822 -0.11233355 -0.062314898 0.14314276 0.15571257 0.107456066 0.122811586 0.1781209 -0.13853505 0.1395248 0.018565942 0.096148185 0.13515823 0.14368668 -0.10383831 -0.13317493 0.06294591 0.10717201 -0.15316045 0.07464368 0.21634774 -0.20683676 -0.13729498 0.05714522 0.14634281 -0.10295496 0.18813509 0.060178716 0.14433742 0.10750757 -0.09657704 -0.10057326 -0.20268603 -0.111783266
off 0.09775298 -0.02918342 0.15628581 -0.15981671 0.05251257 -0.043286152 0.0029315425 0.12116952 0.14046644 -0.087971434 -0.17479661 -0.21865231 -0.010551866 -0.059299152 0.07892187 0.071315676 -0.05178069 0.010208093 0.05881491 0.15397157 -0.05813822 0.10283721 0.006452888 -0.12434581 -0.07875252 0.09351514 -0.044480458 0.09783625 0.14542201 0.06334114 0.08653409 0.076737866 0.05392668 0.06717826 -0.13232593 0.0020252103 -0.025984278 -0.18218946 -0.17962967 -0.08354078 0.11118164 -0.07816641 -0.055229362 0.09742709 0.050703786 0.1563329 0.12796311 0.023579739 -0.12076099 -0.20364554 -0.086813875 0.0061493935 -0.050056405 0.10515297 0.018574987 -0.04243341 -0.11067147 0.091975875 -0.14073266 0.08011888 0.03556926 -0.16045894 0.124398164 -0.10861126 0.012079899 -0.0741415 0.1067378 -0.00014352774 -0.12667893 -0.019882446 0.13449244 0.20370163 0.022132495 0.11886236 -0.086213134 0.0022723228 0.13773152 0.111648194 -0.03998279 -0.005985218 -0.089815415 -0.1462543 0.06512232 0.08231337 -0.11653966 0.09442733 0.1841254 -0.08465281 -0.13455476 0.053136647 0.025508245 -0.1246452 0.07639914 0.12111795 0.008392208 0.114123195 0.00074894517 -0.07685227 -0.08823111 -0.046783585
said 0.15697795 0.10348728 0.054536752 0.012343244 0.1312969 0.1284968 -0.006742157 -0.121137805 -0.16995665 -0.042822286 0.04976884 -0.021141 0.026091369 -0.039774027 0.065603584 -0.0034489196 0.058696777 -0.048519738 -0.043752905 -0.12333832 -0.09969783 -0.10271101 0.15749222 0.06929339 -0.07580813 -0.06312953 0.03272475 -0.15890034 0.0007377883 -0.021059925 -0.06894953 -0.17465802 -0.10808699 0.19607599 -0.033872753 -0.16843002 0.003705078 0.040776618 0.036359254 -0.036288437 -0.07359394 0.1073134 -0.018758481 -0.1157346 -0.057349227 0.21308316 -0.041217767 0.0035126824 -0.0885875 0.057151373 0.06131548 0.08291744 -0.07648939 0.04621226 -0.15375108 -0.115025446 0.054803804 0.0019708427 -0.08424476 -0.110970005 0.039798044 0.15815471 0.00356399 0.054470737 -0.034976892 0.1848295 0.14184618 0.030625137 0.1879859 0.07915956 -0.07642164 0.039238438 0.0025047907 -0.026525522 -0.12896502 -0.07110191 0.027878571 0.1867642 -0.07670064 -0.09295726 -0.17393838 0.015542288 0.010641713 -0.106884174 0.01839194 -0.06505601 -0.08040539 0.11546394 0.0381557 -0.062361713 0.16338527 -0.15203646 -0.01705785 0.045572642 -0.05410925 0.007912517 0.017643832 0.06131438 0.030967146 0.09048331
by 0.01974148 -0.10155067 0.08547693 -0.04171633 0.051891062 -0.016869554 -0.068121046 0.13896376 0.13440011 -0.13832904 -0.05575599 -0.11791461 -0.20160918 0.0105912825 0.01011838 0.06030301 -0.045892578 0.18845572 0.034700725 0.08929869 -0.07141308 0.15868656 0.07565334 -0.08271489 0.009906904 0.06495737 -0.06527696 0.16101854 0.12773426 0.06775891 -0.050853666 0.13934872 0.110188484 0.023438577 -0.049857166 -0.05918963 -0.028022213 -0.16110824 -0.09383786 -0.1410235 0.10131449 -0.075015604 0.09407922 0.05215359 0.087006904 -0.045569103 0.08464135 -0.11178531 -0.012792586 -0.07531542 -0.0600533 0.0853317 0.09344158 0.123630084 0.08707123 -0.034808777 -0.01656521 0.08025753 -0.092275664 0.06349646 0.023765724 -0.069505766 0.10687012 -0.1829333 -0.049383543 -0.10285071 0.07287507 -0.1181756 -0.15239762 -0.056156043 0.1681061 0.09990316 0.078674294 0.036450293 0.028524013 0.10436103 -0.004303298 -0.0077155423 0.13186009 0.10299818 0.02142478 -0.07323548 0.06057302 -0.014074804 -0.080668174 0.08667799 0.028309641 -0.1077758 0.01037546 0.032227967 0.076816544 0.034400318 0.049704198 0.13144875 0.008116729 -0.017962385 -0.11611621 -0.085526116 -0.02238602 -0.10346484
get -0.07893615 -0.037954077 0.014805976 -0.09823062 -0.017951794 -0.116982974 -0.005538432 0.04894876 -0.04717346 0.08870376 -0.24010189 -0.105540946 -0.046150915 -0.13304625 0.057115532 -0.035309505 -0.042665582 0.002630264 -0.023292223 0.06939458 -0.05625961 0.02519256 0.1468914 -0.084499285 0.030157395 0.067695186 -0.09714498 0.07243981 -0.042010933 -0.01851584 -0.10754291 0.03390239 0.12923384 0.03543416 -0.0854659 0.03826233 0.041379787 -0.13995023 0.0784118 -0.14384662 0.01307339 0.005282525 -0.15210912 -0.08102506 0.010726656 0.14273432 -0.04001908 -0.08825201 -0.07275729 -0.13650422 -0.14554764 0.023036653 -0.04986928 -0.13728632 0.018243913 0.061125245 -0.034961127 0.00840275 -0.01435863 0.083386 0.04973723 -0.06313909 0.049885195 -0.002952314 0.0023548142 -0.019340381 -0.046694797 0.010319273 0.09637762 0.11580265 0.01726476 0.13720383 0.02601015 0.06426885 -0.10768447 0.03456919 -0.019965203 0.17387362 0.09059418 -0.069586776 -0.10071941 -0.03282204 -0.045747224 -0.016914815 -0.028420523 -0.12874474 -0.04503789 0.060029946 -0.16752866 0.053416107 -0.06485119 -0.16593447 -0.079789475 0.02597203 0.014105627 -0.012197379 -0.03716211 -0.046390574 -0.012442307 -0.0068563623
do 0.06568136 -0.055391192 -0.026154365 -0.079752296 -0.0059737484 -0.12436836 -0.059579734 0.066098124 0.03138417 0.027315943 -0.08311534 -0.09377188 -0.030148853 -0.020557705 0.14550078 0.10375752 -0.035985567 0.018933922 0.065418534 0.044820033 -0.079520956 0.02227838 0.08708802 -0.10529094 -0.05648808 0.0894372 -0.09215422 0.03511543 0.089651145 -0.024003383 -0.13747703 0.03713802 0.050354093 0.096819974 0.0066204853 -0.07063767 -0.031176962 -0.1134135 -0.04011764 -0.14510088 0.11044738 0.011196028 0.03988152 0.08665989 0.030681137 0.15020955 0.016643435 0.012698562 -0.1323002 -0.1331199 -0.13240877 0.07265382 0.05629285 0.039780464 0.03624419 -0.05465566 0.037507635 -0.020393813 -0.07501697 0.01569105 0.09750428 -0.036975875 0.080327764 -0.02671215 -0.04433764 -0.072064534 -9.056373e-05 -0.0043805293 0.029849637 0.08091058 0.028605528 0.11779008 0.019212006 0.027641935 -0.09607298 0.043170836 0.026862862 0.059143733 -0.036538854 0.024833905 -0.04777435 -0.06633451 0.073379815 0.0027178363 -0.08242325 0.04220323 0.06361187 -0.11164597 -0.05072929 0.060350675 0.107711546 -0.07797298 0.118029594 0.13558184 -0.018337963 0.09277622 -0.014880828 0.00949447 -0.04474231 0.010974321
would 0.068750374 -0.0086404495 0.040511236 -0.03873669 0.016418947 -0.07780122 -0.00786874 0.045364473 0.059565544 -0.16269206 -0.035544965 -0.044341303 0.019605858 -0.006796712 0.03954092 0.023444382 -0.062937744 -0.021203764 0.017425349 0.12645821 0.03604408 0.061456073 0.07124719 0.023793545 -0.028251514 0.05767068 -0.08289112 0.009795394 0.021368204 0.10403006 -0.06843428 0.068361156 0.075095735 0.05181335 -0.102097765 -0.04475345 -0.11542196 -0.0061311694 -0.1420208 -0.13229449 0.11937119 -0.07971613 0.19255173 0.09181639 0.028657911 0.06037519 0.13221958 -0.024210447 -0.08644384 -0.05021412 -0.013216781 0.033150736 0.14305165 0.030759474 0.046427008 -0.04252035 -0.023440063 0.06543187 -0.07460244 0.052282754 0.009238044 -0.104588166 0.041938886 -0.073753946 -0.1646763 -0.056128513 0.03157047 -0.10680979 0.011536948 0.055264547 0.02477718 0.042636685 0.031661518 0.07970781 -0.06231426 0.08607101 0.08480048 0.063369356 0.07088275 0.0722202 -0.004800773 -0.04698249 0.053597458 0.03370344 -0.07696262 0.10430271 0.0773969 -0.09953343 0.02657922 0.06260044 0.05609606 0.014293055 0.06150872 0.06016711 0.017586632 0.07905379 -0.07385857 -0.020480659 -0.07555601 -0.013094123
much 0.03786517 0.0050354395 -0.017355956 -0.0655807 0.021483723 -0.017238652 0.038925435 0.051180527 0.094429746 -0.02827057 -0.050619014 0.054418504 -0.0017982038 -0.02028005 -0.01790991 0.060461484 -0.053205267 0.02015353 -0.03271998 0.058734678 0.027340693 0.015231356 0.06695101 -0.052109785 -0.023614245 -0.06667827 -0.10159517 0.05800146 -0.025158035 0.012256547 -0.10569887 0.017990038 0.072964214 -0.08751981 -0.017081542 0.04265578 -0.07360038 -0.02776732 -0.04990501 -0.058438823 0.047017336 -0.04991927 0.05606247 0.042409774 -0.045765884 -0.018939123 0.07201179 -0.0977947 0.0075435373 0.052767213 -0.06389693 -0.0035916448 0.023193127 -0.027656566 0.04874945 0.025196109 -0.01065816 0.031332538 -0.057810865 0.09502412 0.06340184 -0.014193185 0.05765495 -0.030984594 -0.088478506 -0.017915584 0.015750052 -0.06951492 -0.079000704 -0.0023401284 -0.012187874 0.10262574 -0.04217786 -0.019135848 -0.032445587 0.08567357 0.005909608 0.04310152 0.05635233 0.020108327 -0.0209671 -0.04305355 -0.027351966 0.07328758 -0.067548215 0.07151634 0.06450754 0.018915523 -0.07480149 0.0076676216 0.0117084505 -0.06118805 0.038276076 -0.0037133805 0.024954338 0.04350918 -0.049156897 -0.059353817 -0.022272855 -0.077544644
feet -0.0730851 0.06465906 0.0069496585 0.02011773 0.05470768 0.0364018 0.019049384 0.036897413 -0.0001147039 0.004624273 -0.07688947 0.0009876215 -0.023665685 0.059862077 -0.0032833046 -0.022315087 -0.010546814 -0.04560906 -0.026111525 0.074194655 0.09000826 -0.032388013 -0.03839914 -0.027466912 0.02073657 -0.036920384 0.113069475 0.0480882 0.009678867 -0.06896276 -0.11238708 0.019385464 -0.13349453 -0.04164994 -0.047672193 0.024251396 -0.060487416 0.07805863 -0.03941038 -0.043902703 -0.012233587 0.033142865 -0.024861272 -0.03801458 -0.0075298995 0.047725238 -0.015656492 -0.023199521 0.06375677 -0.014672065 -0.044864498 0.030547917 -0.049000442 -0.0136582535 -0.07105398 0.0022469247 0.006042685 0.0033600496 0.028229248 -0.0014049632 -0.03278301 -0.024397522 -0.02176862 0.031128071 -0.07430964 -0.00416203 -0.023636267 0.068005346 0.008742337 -0.10081123 0.06983116 0.0067342045 0.036138352 -0.042267904 -0.0012414881 -0.07533455 -0.014595512 0.077160314 -0.041208446 -0.077487566 -0.040657062 0.07653964 0.0103935115 -0.064593166 0.018464297 -0.047632284 -0.0037066457 0.0033200572 0.08038828 -0.020737886 -0.02382944 -0.041272607 0.027745198 0.035260092 -0.013742474 -0.042951964 -0.07195625 0.025143329 0.06326868 -0.006426991
through 0.054441907 -0.1575755 0.18268839 -0.15107735 0.023928687 -0.04827971 0.0481833 0.078249864 0.13617949 -0.12245613 -0.00016608334 -0.14750923 -0.08576614 -0.07567444 -0.02675828 0.17586754 0.07816751 0.1196279 -0.022524381 0.12139083 -0.14219913 0.1362815 0.061343733 -0.05452374 -0.09236959 0.121689625 -0.04052459 0.047561463 0.15456645 0.024461476 0.043206103 0.11329188 0.03791306 0.00146879 -0.1733356 0.04413068 0.0988757 -0.16553667 -0.018992187 0.018509936 -0.023328833 0.061151188 -0.01341015 0.06993131 0.059114873 0.035311434 0.068454824 -0.056593154 0.06840943 -0.069458485 0.044394393 -0.007808283 -0.03376256 0.12263417 0.041264076 0.0022012242 -0.06833775 -0.020684209 -0.09413693 -0.042788256 -0.07092804 -0.06822029 0.02019481 -0.18823707 0.017269269 -0.12536107 -0.027590096 -0.092375025 -0.046064463 -0.025817553 0.027300347 0.10428424 -0.022610048 0.12784521 0.036388308 0.050581526 0.09154285 0.07735708 -0.009331154 0.03571222 -0.053076953 -0.05697848 -0.05128377 0.0035295144 -0.07229829 0.17023925 0.07933174 -0.09473097 -0.15955576 -0.007360878 0.014787854 -0.035183065 0.06455537 0.13687836 0.106522985 -0.0075232796 -0.039604157 0.07129031 -0.11161401 -0.12934034
door 0.025401518 0.07097125 0.015295734 -0.019543909 -0.13795836 -0.13788074 0.060813215 0.10375596 0.021603888 -0.06937814 0.12403659 -0.118828766 -0.010130335 0.016017249 -0.045951333 0.008769587 0.032718033 -0.039640687 -0.09381041 0.111637264 -0.10177098 0.05594709 -0.013250828 0.03200006 -0.09234866 0.044223186 0.025723265 -0.04008992 0.13077204 0.04686745 -0.009018948 0.12528722 -0.056933627 0.050512332 -0.04190842 -0.0013022831 -0.016032876 -0.026534893 -0.038917318 0.04385801 -0.0090254415 0.052524894 0.043842338 0.036519405 -0.038157444 -0.064869106 0.06779844 0.13096042 0.015885217 -0.026771005 -0.033564694 -0.05922118 0.016604455 0.062712535 0.028240858 -0.00593905 0.060951807 -0.058563463 -0.043045677 -0.07380402 -0.012454164 -0.0833433 -0.045525365 -0.09348145 0.0940541 -0.107151315 -0.103961505 -0.18968557 -0.0592655 0.03259644 -0.015025837 0.101092875 -0.06344438 0.08889035 -0.035099834 0.020974455 0.09638501 -0.069962576 0.02813829 -0.017156629 -0.0026915134 0.0019441254 0.030490486 -0.056816008 -0.052549668 0.13575424 0.07787118 -0.035108987 -0.12710963 0.09569025 0.0665267 -0.013051622 0.13436271 0.06594182 0.07384457 -0.033254325 0.07724669 0.07957111 -0.002529329 -0.1058714
alice’s 0.095709346 -0.07720766 -0.0021640586 -0.114470385 0.18958561 -0.00452348 -0.13312314 0.1566374 0.09960883 -0.09968054 -0.10017365 -0.07880119 -0.16582224 -0.024385693 0.0065235193 0.04706698 -0.15460205 0.12846796 0.11968544 0.09000293 -0.01922784 0.074922405 0.072473325 -0.0206726 -0.033514198 0.06676104 -0.10077545 0.122018345 0.0072445497 0.11453361 -0.10536748 0.09452734 0.07618254 0.11121449 -0.029139087 -0.14222334 -0.05687331 -0.05164728 -0.078883246 -0.05598688 0.084221736 -0.17086542 0.11514575 0.11122619 0.16696914 0.06563434 0.108469136 -0.14174959 -0.052022144 -0.057231694 -0.12506466 0.15831694 0.06039972 0.13545184 0.11252293 -0.0705754 -0.041715547 0.08122537 -0.11230301 0.0882597 0.10497623 0.0047759158 0.12235962 -0.1887642 -0.21697596 -0.14237228 0.102362566 -0.014963052 -0.08144 0.10941344 0.18014848 -0.0046432805 0.07827251 0.051193215 -0.06827516 0.10084903 0.07705745 0.05510079 0.1085056 0.040066764 0.014082886 -0.030782484 0.112601936 -0.005445809 -0.103748836 0.031075057 0.06898006 -0.043258347 -0.03084832 0.016990624 0.0065527936 -0.063530184 0.033205073 0.094238244 0.12569907 0.06537955 -0.17636313 -0.13687125 -0.059756406 -0.060682215
is 0.015233783 -0.0021188133 0.049075 -0.05657943 0.062138893 -0.06290296 0.08012551 0.087203704 0.1506588 -0.18048942 0.031166723 -0.014656402 -0.07580858 -0.044869058 -0.023421567 0.10599345 0.0323554 0.0388643 -0.0037800958 0.1056563 -0.0040423935 0.07843191 -0.015013456 0.041431762 -0.01981901 0.05538819 -0.08206012 0.08484389 0.13784513 -0.034777462 0.020670407 0.06883573 0.01843004 0.04386371 -0.12740017 -0.039805565 0.001627774 -0.12147465 -0.0920228 -0.08337256 0.041001003 -0.020713102 0.03870305 0.13114262 -0.005776006 0.015552909 0.01814605 0.0047984305 -0.02463175 -0.14841637 0.10355592 0.039625492 0.060990162 0.14205849 0.03344133 -0.010304433 -0.05115312 0.014965886 -0.015831742 -0.02378557 -0.035268243 -0.1305967 0.10214059 -0.07325398 0.070419654 -0.0031325654 0.0042341435 -0.08999552 -0.07641986 -0.031783186 0.009494924 0.1480064 0.040449396 -0.00055536366 -0.023885505 0.019616654 0.07471648 -0.036191653 0.02452327 0.05903799 9.308831e-05 -0.07055615 -0.019940078 0.025317054 -0.1075085 0.047518983 0.11022788 -0.15335155 -0.13521665 -0.030507129 0.0033028233 -0.07045695 0.01593156 0.19980066 0.028997432 0.04786297 -0.002276052 0.014854802 -0.048186228 -0.04889743
use -0.020719526 -0.030623943 -0.04172882 -0.01756059 0.005418992 0.0005227085 -0.053250007 0.08047747 0.07684597 -0.14067227 -0.06567833 -0.10277855 0.0013812019 -0.019501531 0.05051851 -0.03408028 -0.07085439 0.07716996 -0.0075741657 -0.00014317012 -0.06521469 0.07524579 -0.05172431 0.027038446 -0.040122416 -0.049051967 0.0064800293 0.0025630237 0.025168369 0.0002532821 -0.09723096 0.05074378 -0.021697056 -0.0015491175 -0.010572006 -0.019308243 -0.04309248 -0.037477024 -0.06394045 -0.08911874 0.005342175 -0.08082597 0.10626884 0.016288687 0.043121114 0.0029650098 0.071174346 -0.114703044 0.054658353 0.03426346 -0.03451321 -0.0004230345 0.00014184552 0.108934894 0.00048424164 0.02776997 -0.016514372 -0.0393578 -0.07400282 -0.030343343 0.059317693 -0.08339599 0.03436265 -0.02170129 -0.117797054 -0.010953714 0.08088682 0.0017033071 -0.012779508 -0.07505937 0.09372154 0.052214008 0.033405457 0.11190669 -0.008221865 0.023924723 0.037884504 -0.05557236 0.0864573 0.049370248 0.038565528 0.03580831 0.059885498 0.01594686 -0.01481516 0.03345552 0.02356507 -0.0921121 0.074544415 -0.025046 -0.06827981 -0.06605551 0.004446223 0.015461464 0.04613889 0.011415138 -0.028159732 -0.044043962 -0.028275387 -0.01394087
nothing -0.09750651 -0.009131633 0.03680355 0.0129766585 0.06302002 -0.039492927 -0.035195284 -0.0164978 0.039027732 -0.019390129 -0.1882683 -0.0024131893 0.08117545 -0.12352806 0.05173127 0.056584306 -0.13776729 -0.08915391 0.064096995 -0.050616477 -0.03267093 -0.028043272 0.08403432 0.06840066 -0.047229953 0.009333755 -0.06850002 0.09957049 -0.055599082 -0.051203836 -0.1665929 -0.037387293 0.06506461 -0.024933891 -0.018322695 0.00600433 -0.025976462 -0.04440347 0.07256131 -0.15399896 0.04279741 -0.14206475 6.473134e-05 -0.040592857 0.093455695 0.1211505 -0.057682928 -0.18913442 -0.052994154 -0.08468998 -0.20679323 0.0180448 0.05474632 -0.01964785 0.11649466 -0.08418718 0.000840702 0.13279551 0.068213314 0.035854258 0.018892873 -0.0721326 0.061846662 0.12082593 -0.13939099 -0.019904627 0.14691207 0.01007489 -0.0907136 0.06120956 0.080536105 0.03761039 0.07008459 0.0014293622 -0.04598943 0.028219981 -0.07996572 0.064090066 0.10161988 -0.089848064 -0.026245225 0.031561613 -0.00079472456 0.016448807 -0.020334583 -0.15574615 -0.066910565 -0.07863645 0.019760013 0.073305905 -0.0861261 -0.13704118 -0.03677759 0.01874296 0.03733063 0.0128741395 -0.05088052 -0.16261002 -0.09247881 -0.030565698
say 0.069114104 0.008913234 0.08198874 -0.13560504 -0.008005083 -0.14244097 0.0210652 0.1119413 0.010834876 -0.019402063 -0.09002608 -0.093424916 -0.002621691 -0.0500766 0.1154664 0.08156968 0.004475037 0.10594091 0.042286064 0.04988724 -9.022321e-05 0.061031353 0.07821109 -0.08360401 -0.12320713 0.04882433 -0.10047804 -0.008767123 0.051023655 0.048738904 -0.1352107 -0.057497 0.13010104 0.021641761 -0.10234949 -0.019085012 -0.07135535 -0.13296595 -0.0028794594 -0.1888912 0.082982115 0.0038730956 0.0288711 0.023281489 0.06770988 0.10416447 0.10124471 0.015455012 -0.191752 -0.063903436 -0.12971477 0.009268522 0.08167032 -0.029304933 0.06625476 0.031369448 -0.060757924 -0.011291782 -0.13713488 -0.028194401 0.046771266 -0.15217994 0.16688101 0.021222495 0.03374763 -0.0677375 0.11361178 0.04282472 0.010560309 0.0378159 0.06156566 0.114496164 0.034794997 0.08918011 -0.04219333 0.022716174 0.111773744 0.08962717 0.039430514 0.099808164 -0.17192149 -0.08257582 -0.03076229 0.067898326 -0.048762497 -0.018418435 0.17725518 0.0048316824 -0.16844618 0.08496313 0.04535584 -0.1287514 0.03406707 0.16594104 0.045480922 0.051775202 0.02628426 0.015876552 -0.07110677 0.026031792
found 0.05319564 0.14541382 -0.11902863 0.028960139 -0.13998596 0.035183646 -0.016390394 -0.07178257 -0.029512336 -0.0037056576 0.056974165 0.06496955 0.14317292 0.13846701 -0.03067013 -0.08661279 0.08927109 -0.090186894 -0.024507336 -0.06976983 0.0021533743 -0.14204493 0.016226077 0.06322144 0.02583117 -0.11662703 -0.10443475 -0.09962503 0.06232309 0.092445016 -0.0051632794 -0.095467806 0.11208802 0.056984555 0.114999086 0.01102064 -0.13538483 0.2136035 -0.10379583 0.12911823 0.026499499 0.028757347 0.08750771 -0.016254164 -0.1093918 -0.14220093 0.09673694 0.06887657 -0.0048820577 0.13863423 0.012623677 -0.08842498 0.035265427 -0.033958502 -0.013399348 0.083459236 0.030724023 -0.12471378 0.0139141865 -0.09963919 -0.007488991 0.094487555 -0.069914706 0.020985981 -0.020853933 0.16019078 -0.04586105 -0.13648252 0.004105374 0.010505348 -0.16774388 0.06461245 -0.05629049 -0.16717264 0.007984485 0.020615429 0.024583569 -0.054655883 0.102466725 0.07907674 0.041349974 0.07423714 0.018710127 -0.08064009 -0.06395339 0.12663239 0.04623878 0.12138811 0.020656582 0.020119516 0.08146889 0.08403573 -0.07534092 -0.18397781 0.043791376 0.10120696 0.04685886 0.019822638 0.06048389 0.119920924
wonder 0.014205077 -0.0058532786 0.042586904 0.035425738 0.115807705 -0.1387965 -0.037054732 -0.0075073936 0.02575851 0.09998085 -0.07216523 -0.067137346 -0.0713935 -0.12065239 0.108184114 -0.0209891 0.0047518173 -0.122292 0.09940581 -0.056012247 0.09401482 0.030704333 -0.01731572 -0.07303636 -0.07622683 0.08144533 -0.038004886 0.13046548 0.098950624 0.028571423 -0.08666108 0.034243353 -0.07472135 0.07782128 -0.10004592 -0.0868352 -0.0044341604 -0.0032540767 0.040387925 -0.14689662 0.0015576725 -0.032813456 0.038628645 0.07190405 0.07663862 0.119187854 0.038620982 0.03306987 -0.054031454 0.008576409 -0.07062022 0.050828982 -0.01810202 -0.013245864 -0.074545585 -0.009898344 -0.012786767 -0.046756063 0.023480915 0.0049703373 -0.052573305 -0.09201408 0.04551926 0.052164726 0.015392666 -0.01450725 0.11311379 0.026818274 0.008947505 0.0005520716 0.09044131 0.02820797 0.028278856 0.15526363 -0.020654202 -0.028695686 0.0011447364 0.062636666 0.023852244 -0.041195404 -0.054244023 -0.07025504 0.06349143 -0.03919474 -0.09035195 -0.029040981 0.04976174 -0.048155516 0.026469644 0.016614359 -0.024844231 -0.11809136 -0.04361219 0.1487633 -0.008601132 0.09215526 -0.11034483 -0.05460363 0.0078459 -0.09122572
they 0.094372146 -0.010851711 0.0672505 -0.066314325 0.15372491 -0.05237856 -0.09542833 0.09386143 0.0998462 -0.07508061 -0.16202193 -0.046202067 0.0067982497 -0.106832944 0.0684504 0.12851906 -0.21212101 -0.025192427 0.05316228 0.16032436 -0.0069327233 0.12465863 0.09073048 -0.23238017 -0.05662533 0.19640376 -0.19331123 0.11543206 0.058838625 0.09194922 -0.05536362 0.023243476 0.07595178 0.09714079 -0.16766295 -0.14767554 -0.00026386973 -0.088302836 -0.039387774 -0.2520225 0.032971527 -0.15174507 -0.0020509441 0.0649905 0.20064986 0.17211129 0.06263834 -0.18595544 -0.119554825 -0.06539862 -0.18459836 0.07829629 0.09801015 0.021593671 -0.012534286 -0.16198386 -0.106076784 0.08288548 -0.12374313 0.11176296 0.07953393 -0.121076 0.009527759 -0.079989605 -0.1435688 -0.13462204 0.16060218 -0.07699867 0.011066396 0.14800876 0.19356528 0.12845452 0.14286985 0.044133846 -0.09971806 0.12935062 0.119095445 0.10093394 0.10825566 0.0756259 -0.14605641 -0.012226443 0.13643399 0.14314654 -0.02623767 0.06457082 0.034436986 -0.16089703 -0.10662751 0.06796291 0.027751397 -0.10764038 0.09389984 -0.0074176076 0.107517116 0.09248884 -0.057475492 -0.115992926 -0.06025375 -0.11496725
which 0.01982873 -0.039792523 0.13325313 -0.12166339 0.076014556 -0.05640126 -0.06755899 0.014926937 0.10049651 -0.01922652 -0.10122811 -0.0075964043 -0.081072785 -0.119829126 0.06912459 0.08312611 -0.034983348 0.10559182 0.1090423 0.03763543 -0.066267155 0.030462632 -0.005623333 -0.06346546 -0.14129086 0.06148888 -0.072908506 -0.0023208787 0.041707158 -0.0071708886 0.035872106 -0.008963032 0.08231664 -0.005965316 -0.12931061 -0.050401013 -0.06917248 -0.098603494 0.00059467193 -0.09532393 0.0045883716 -0.076407984 0.02975233 0.104481876 0.068865 0.13622242 0.102080576 -0.07107929 -0.10119153 -0.11537629 -0.048086878 0.023534965 0.07415027 -0.011468561 0.034691174 -0.1364503 -0.007707808 0.069786765 -0.069002345 0.11551689 0.08879106 -0.004827871 0.07380133 -0.051862724 -0.08438734 -0.08637273 0.046221055 -0.055984765 -0.025545953 0.11274955 0.01162444 0.07900699 -0.0074932724 0.027003916 -0.124245994 0.057096634 0.04055635 0.09607148 0.13766672 0.0699684 -0.074222624 -0.028959366 0.061726037 0.045145474 -0.065413594 0.07137196 0.03916305 -0.022754332 -0.11533372 0.020384291 0.07811173 -0.068562984 0.05778666 0.05949056 0.029498808 0.08145814 -0.10826385 -0.053326573 -0.0348065 -0.10510357
key 0.04434056 -0.068629526 0.07453157 -0.06373184 0.03671509 0.060045905 -0.010947531 -0.010336322 0.06850217 0.057844535 -0.08094958 -0.06417033 -0.088732645 0.0012642093 -0.09502802 0.042091902 0.025286114 0.20169127 0.015872547 0.06900513 -0.021927355 0.034585197 -0.06985922 0.07456602 -0.0504101 0.011428361 0.113371626 0.12617815 0.029995576 -0.011388167 0.12779754 0.047311433 -0.081696734 0.09044434 -0.029357115 -0.010362665 0.029757153 -0.05859849 -0.07824697 0.030166598 0.028813455 0.021401616 -0.0036963492 0.05048436 0.07215457 -0.003364529 0.051006917 -0.037775077 0.0434122 -0.056559734 -0.056976244 0.058833025 -0.020830138 0.0075341896 0.032093313 0.00066693604 -0.07772212 0.027694777 -0.036824435 0.06135588 0.0023307074 -0.06629816 0.025894715 -0.02927501 0.011721688 -0.05573441 0.017682198 -0.028226832 -0.012371326 -0.02519373 0.017051112 -0.070847474 0.066947624 0.09426018 -0.03519417 -0.05454408 0.05695101 0.059859067 -0.0674076 0.04476572 -0.029236928 -0.13322203 0.04147551 0.048695523 -0.04260102 0.025606886 0.05672722 -0.040077377 -0.005852439 0.026180422 -0.00450447 0.064549714 0.022056503 0.020455431 0.060616113 -0.048285708 -0.07117303 -0.040287703 0.010085202 -0.04276925
‘and 0.04700343 0.017288523 0.03508289 0.0027661757 0.03160782 -0.08831203 -0.04674168 -0.018359847 0.050267644 -0.041734427 0.06085613 0.01455221 0.073497064 0.039526872 0.030492188 0.07345023 0.07071597 0.02800429 0.05407848 0.021068793 0.03445501 0.030668259 0.043354724 -0.056771927 -0.045396622 0.031623174 -0.21350065 0.038833834 0.017462261 0.02233154 -0.070933014 -0.0722087 0.08094862 0.040442616 -0.051977813 -0.083946384 -0.060413573 0.066101976 -0.16058813 -0.141451 0.14848545 -0.03526632 0.15953654 0.11700686 -0.02977962 0.08016791 0.12033988 -0.065873526 -0.08505912 -0.072244994 -0.023425484 0.008957984 0.060291506 0.011117467 -0.03375727 -0.019392 -0.013978799 -0.023427818 -0.11456253 0.024942828 0.08726826 -0.0633361 -0.045347806 0.010682184 0.030784221 0.022711687 -0.0022678196 -0.11003061 -0.08666228 0.12519461 -0.018468387 0.05487664 0.07802281 0.02980035 -0.07506551 0.07270981 0.00020845974 -0.0152875 0.069252975 0.10004703 -0.053031445 -0.029481724 0.02947129 0.02078591 -0.14005408 0.08116195 0.114168 -0.08700405 0.0186389 0.045866225 0.12624997 -0.07058395 -0.016103748 0.05290271 0.09955129 0.1647626 -0.0043805134 0.10721422 -0.03442527 0.02898402
shall 0.042107258 0.05096607 0.03333118 0.028327147 0.0063464376 -0.08016642 0.062898375 0.14767137 -0.04344189 0.050307114 -0.06364238 -0.09333441 0.0162729 -0.0037455186 0.14401726 -0.016104957 0.05984468 -0.116817065 0.08960435 0.101388216 0.15703565 -0.06896981 -0.005927968 -0.015692292 -0.0005485513 0.10513841 0.00019361242 0.06294404 0.034914974 -0.035706844 -0.15476796 0.02806142 -0.12112071 -0.070936315 -0.094691396 0.03960896 0.057458695 0.07153142 -0.0011372765 -0.13774 -0.03732293 0.028819513 0.14209506 0.02706534 -0.008689572 0.05129955 -0.056866404 0.082159735 -0.016547063 -0.02494807 -0.074136086 -0.008535791 -0.01498252 -0.039210398 -0.15000829 0.0125712445 0.101298615 -0.048854776 0.044114847 -0.0076466077 -0.07156673 -0.14911929 0.061082862 2.9518036e-05 0.04821115 -0.044553258 0.047635764 0.05659123 0.035220884 -0.024483006 -0.028466327 -0.004688645 -0.022706771 0.11056863 0.048460122 -0.0030632967 0.046366174 0.0473216 0.008902894 -0.008237757 -0.15075703 0.067451626 0.046697035 -0.03664156 -0.04520812 -0.0524801 0.04089723 -0.08853719 0.07113916 -0.11618156 -0.054152235 -0.13461761 -0.013063011 0.17449158 -0.084593214 0.04206492 -0.018330263 -0.0083391685 0.07571262 -0.070593506
then -0.038683932 -0.03280402 -0.018916639 -0.0020206468 0.007841829 0.042191282 -0.10010117 0.006109936 -0.08241315 -0.017148053 -0.13183069 0.06289394 0.06204959 0.0053936695 0.021393761 -0.04204615 0.022362918 0.004262034 0.061983336 0.06983452 0.035081986 0.021883504 -0.023765408 -0.038212705 -0.010504691 0.074659124 0.020507285 0.011391482 -0.030384572 0.06251302 -0.04734295 0.024064666 0.0041210167 0.054691408 -0.037100784 -0.09969886 -0.0030363952 0.09502016 -0.0042770747 -0.034498744 -0.030791745 -0.09317105 0.034441173 0.037897103 0.0050372565 0.13275848 -0.0049105817 -0.07172386 -0.044484615 0.04563165 -0.07451882 0.018949192 -0.02555702 -0.016577536 -0.09071702 -0.033153642 0.03310342 0.020709703 0.07107376 0.123935804 0.029898869 -0.01694374 -0.0062669674 -0.03514193 -0.032162715 -0.020804744 0.029879222 0.06876088 0.039635237 -0.0052570626 0.07669134 0.012848558 0.13757314 0.1064777 0.00024367706 -0.035763517 -0.01885496 0.09199496 0.057347387 -0.029160358 -0.0210294 -0.034694143 0.113187455 0.0394345 -0.089901365 0.00962954 -0.07378479 -0.012413263 -0.03194147 -0.11131342 -0.07750383 0.030831316 0.007303329 0.0019855713 -0.061023764 0.05293546 -0.13120958 -0.05136524 -0.05305843 0.00994501
either 0.013142146 0.0055412045 0.05158502 -0.07044932 0.021402782 -0.072257236 0.0023047833 0.06894877 0.06563262 -0.060989723 -0.017010367 -0.04921272 -0.07263794 0.031822216 0.025882281 0.05605709 -0.085259184 0.008231088 -0.0290959 0.19609953 -0.024428437 0.012006291 -0.041845515 0.0029658808 -0.11695181 0.074282385 -0.045239463 0.112241335 0.088259056 -0.008585793 -0.0036392652 0.07894047 0.060783163 -0.046636242 -0.10450832 -0.10341334 0.014011415 -0.04280595 0.027900778 -0.029887158 -0.06470445 -0.07452239 0.0378159 0.05116728 0.08511432 0.04905634 0.038369387 -0.07722425 0.018556591 -0.016337242 -0.019835109 -0.017623521 0.03623211 0.095631614 0.05214082 0.0330018 -0.05139616 0.08209943 0.0061447294 0.09395165 0.021743506 -0.095596984 0.021325339 -0.04141041 -0.053286653 -0.081209265 0.009109851 -0.058577664 -0.03558446 0.009291488 0.05289092 0.047151405 0.07846971 0.067007184 0.0096697025 0.04458251 0.09870739 0.04190308 -0.018650018 0.037706632 -0.070511185 -0.004724176 -0.0251284 0.018410634 0.01463504 0.030206917 0.044914767 -0.09830044 -0.05767819 0.0094216755 -0.0005299391 0.05028867 0.16055413 0.11371174 0.07102132 0.0312013 0.006863187 -0.08168406 -0.006103924 -0.03466966
moment -0.058442958 0.06732008 0.0074947295 0.05397497 -0.0067807008 -0.01156872 0.075871766 0.15443705 0.06749602 0.034898765 -0.0101219285 -0.05036456 0.039993357 0.06248928 -0.05075807 -0.086920634 0.02576204 -0.08308342 -0.08987747 0.01627888 0.08413829 -0.041840345 -0.030106219 -0.022057755 -0.02025071 -0.025658738 -0.029358035 0.006731625 -0.031053737 0.0065730046 -0.08246315 -0.034506038 -0.0786852 -0.080916874 -0.057048924 0.059873946 0.006733136 0.05011114 0.026600761 -0.02387285 -0.030877823 0.026422272 -0.033129513 -0.020596268 -0.09306855 -0.04742101 -0.022325711 0.10861753 0.012011836 0.068168856 -0.015796807 -0.004370406 0.0027435557 -0.06807911 -0.06540561 0.027881192 -0.017586732 -0.07555661 0.045153823 0.036619432 -0.005694513 -0.01293846 -0.03177071 -0.02985007 0.033078913 0.07376441 -0.057870254 -0.009761782 0.056759432 -0.03178863 0.009150036 0.0031747543 -0.031527117 0.09524738 0.07997151 -0.06292187 0.046335805 -0.04549408 -0.024367088 0.035928298 -0.02640137 0.04447881 0.022192478 -0.0040977662 0.032973282 -0.0049765813 -0.007873038 0.09698255 -0.0044333097 -0.03619935 -0.06983056 -0.01984351 -0.0369979 -0.07334415 -0.045260396 -0.07784732 -0.004647349 -0.00074703293 0.05140795 0.049849555
going -0.0046065934 -0.01561086 0.039874736 -0.006327059 0.003741193 -0.027102977 -0.048428904 -0.007798168 0.0034722376 -0.0034708632 -0.14327033 -0.018656086 0.006549305 -0.08552209 0.12943691 1.5401281e-05 -0.11820317 0.0019731908 0.04636871 -0.031984996 -0.037893668 -0.043972366 0.06840095 -0.018218497 0.0011377264 0.046485413 -0.07325043 0.04040619 -0.036337834 0.0053895535 -0.09480353 -0.118470706 0.13960868 0.038608298 -0.063882545 0.041479647 -0.026372146 -0.08183821 0.015120404 -0.14739577 0.08955442 0.009286096 -0.004854231 -0.018931301 -0.04151682 0.11718717 0.009044822 -0.0197916 -0.053884067 -0.09801662 -0.11099395 0.035294753 0.08993753 -0.04993259 -0.005947927 -0.0355095 -0.0143013345 0.06532566 -0.05798277 0.058363944 0.02859814 0.013771148 0.10141571 0.101231135 0.0015365778 0.08972151 0.00073889433 0.017572228 -0.038494322 0.1515301 -0.004475975 0.08661385 0.011233937 0.057377614 -0.11117328 0.042827994 0.065367095 0.06466715 0.027438348 0.03284556 -0.02085534 -0.057860475 -0.004923117 0.014199337 -0.005377914 -0.027259108 0.037668243 -0.04591844 -0.04005073 0.0058409492 -0.0025099446 -0.15247577 -0.021938087 0.014179092 -0.020016316 0.0007702525 -0.018408872 -0.052439727 -0.09730858 0.0012653124
too 0.0070017213 -0.0038256692 0.06195147 -0.04420741 0.07656274 -0.05327258 -0.051478434 0.020288585 0.04242148 -0.01819104 -0.10617568 -0.03893785 0.016102493 -0.15121502 0.059190806 0.13387783 -0.03300046 0.16796894 0.03318805 0.04772141 -0.05590349 0.039743852 0.077019274 -0.0022791973 -0.0764623 0.04982324 -0.10647771 0.05294073 -0.057015594 0.054445874 -0.08594923 -0.07736403 0.13138936 0.019120574 -0.06854101 -0.018468382 -0.1721165 -0.0768841 -0.0026353446 -0.09945854 0.013901893 -0.03779456 0.042562827 0.017115708 0.077986464 0.082505174 0.059275795 -0.05119912 -0.13445781 -0.093708076 -0.10594906 0.03429807 0.10112496 -0.018414501 0.10563291 -0.11588718 -0.10688789 0.1388288 0.008373787 0.085588396 0.11139797 -0.017709706 0.06897201 -0.037350345 -0.11074767 -0.025105264 0.11287012 -0.08133778 -0.08324183 0.047892604 0.037493676 -0.02258156 0.05905945 0.05771228 -0.0963722 0.09210235 0.043515347 0.09690154 0.08296274 0.049060963 -0.0821428 -0.08556198 0.030939318 0.119122215 -0.0897372 0.031246584 0.10659712 -0.009493921 0.027901407 0.031716134 -0.01164167 -0.10652183 -0.022619374 0.041368417 0.08029239 0.11021072 -0.046649575 -0.09942109 -0.08718844 -0.059538696
‘i 0.14167652 -0.12963727 0.1354358 -0.1493949 0.11811081 -0.1478554 0.008791422 0.06860493 0.14504273 -0.12330952 -0.014392577 -0.12292208 0.020542279 -0.107110545 0.1900141 0.16753681 0.039294645 0.012011578 0.20530125 0.13099864 -0.077724904 0.19484143 0.04531908 -0.21327178 -0.18039736 0.20277035 -0.11661639 0.0910869 0.14252444 0.114276744 -0.058729235 0.065169685 0.15671149 0.088058315 -0.2220821 -0.15862757 -0.03787196 -0.09390382 -0.10999869 -0.10794329 0.12977958 -0.15692961 0.1687123 0.12661248 0.15712428 0.119659014 0.12073018 -0.13444547 -0.06684434 -0.20824102 -0.06303037 0.20239034 0.117155194 0.059403524 0.08808329 -0.13174342 -0.08232328 0.13762929 -0.16155384 0.11767106 0.08656489 -0.16006123 0.16223274 -0.10525484 -0.08058398 -0.10540896 0.11939849 -0.17185098 -0.08861491 0.13180771 0.1358118 0.06850122 0.08346673 0.078103945 -0.08415673 0.09642561 0.07390387 0.1125804 0.027330957 0.0611737 -0.09002446 -0.08183656 0.13854368 0.19297117 -0.08794908 0.19806503 0.06953734 -0.2364273 -0.13345975 0.026928715 0.12883297 -0.14937189 0.10786159 0.17692779 0.08846561 0.15899345 -0.12489427 -0.07812459 -0.08089577 -0.035497837
my 0.07149871 -0.15270087 0.16229689 -0.13345534 0.1610101 -0.1376346 -0.1261285 0.16422252 0.2301756 -0.12746862 -0.1528977 -0.1013979 -0.06001658 -0.18300442 0.1532277 0.16608617 -0.13828228 0.010199558 0.18001813 0.16030079 -0.16104141 0.2152793 0.111402065 -0.088504 -0.12585245 0.10822813 -0.12628889 0.17552054 0.1764692 0.10150208 -0.13621214 0.11348327 0.08542513 0.17624229 -0.10492839 -0.09399542 -0.18890044 -0.1065371 -0.12965117 -0.10926458 0.083358526 -0.22866318 0.1606784 0.20542245 0.20570467 0.1183391 0.15590955 -0.12662932 -0.17169808 -0.16028647 -0.1701082 0.0921843 0.2151517 0.058930878 0.1081925 -0.16513908 -0.12272157 0.15736292 -0.077455446 0.18924871 0.12552448 -0.18626133 0.17928389 -0.121970825 -0.099798925 -0.0839086 0.17729388 -0.07217984 -0.0820837 0.15665574 0.12759714 0.09246846 0.12848921 0.078318216 -0.14647362 0.121118955 0.09915434 0.10952338 0.18500687 0.17994386 -0.08779784 -0.10894559 0.18552016 0.13571222 -0.12974697 0.09416346 0.124253884 -0.18014042 -0.081622615 0.15834206 0.09720525 -0.20422114 0.15047707 0.19204669 0.09964199 0.11373111 -0.18166426 -0.17516916 -0.16647631 -0.19755821
eat 0.11048329 -0.07599641 0.14342713 -0.042605206 0.09504117 -0.07229753 0.001474802 0.020237027 0.15740235 -0.07338106 -0.13165908 -0.122590095 -0.09750095 -0.08954652 0.1357838 0.12503684 -0.028004365 0.06239421 0.032733366 0.047987223 -0.038776364 0.09664559 0.089642055 -0.062274713 -0.13317266 -0.01698399 -0.0398006 0.03666624 0.13346013 0.118285105 -0.12447115 0.01648948 0.052880276 0.12687567 -0.1610987 -0.00095557043 -0.13946886 -0.058495082 -0.011230592 -0.12878832 0.06099565 -0.06418176 0.083687074 0.051811405 0.05953122 0.1415798 0.07379426 -0.04686064 -0.003942343 -0.06518955 -0.03235702 0.06230647 0.08851002 0.06870451 0.05799908 -0.157827 -0.08464533 0.050914876 -0.09647989 0.07450459 0.06658076 -0.07963781 0.049845856 -0.04486733 -0.06349818 -0.009024658 0.17060804 -0.10896165 -0.019930547 0.021103054 0.0353062 0.15434164 0.044973772 0.060515463 0.030126452 0.039112408 0.097808585 0.1578004 0.05547833 0.05084104 -0.15782747 -0.060038418 -0.019080082 0.019549953 -0.007974473 0.071445696 0.12815344 -0.037278436 0.0147223035 -0.0061885137 0.14338635 -0.10406033 0.09773681 0.109741665 0.024325108 0.099610835 -0.06912879 -0.0605611 -0.031330384 -0.09166869
